<?xml version="1.0"?>
<opencv_storage>
<cascade>
  <stageType>BOOST</stageType>
  <featureType>HAAR</featureType>
  <height>30</height>
  <width>20</width>
  <stageParams>
    <boostType>RAB</boostType>
    <minHitRate>9.9900001287460327e-01</minHitRate>
    <maxFalseAlarm>4.0000000596046448e-01</maxFalseAlarm>
    <weightTrimRate>9.4999998807907104e-01</weightTrimRate>
    <maxDepth>1</maxDepth>
    <maxWeakCount>120</maxWeakCount></stageParams>
  <featureParams>
    <maxCatCount>0</maxCatCount>
    <featSize>1</featSize>
    <mode>ALL</mode></featureParams>
  <stageNum>12</stageNum>
  <stages>
    <!-- stage 0 -->
    <_>
      <maxWeakCount>11</maxWeakCount>
      <stageThreshold>-2.6224198341369629e+00</stageThreshold>
      <weakClassifiers>
        <_>
          <internalNodes>
            0 -1 37 4.7273941338062286e-02</internalNodes>
          <leafValues>
            -1.2330833673477173e+00 4.1931989789009094e-01</leafValues></_>
        <_>
          <internalNodes>
            0 -1 193 -2.3644035682082176e-02</internalNodes>
          <leafValues>
            8.7088197469711304e-01 -4.8240950703620911e-01</leafValues></_>
        <_>
          <internalNodes>
            0 -1 226 5.2860341966152191e-03</internalNodes>
          <leafValues>
            -7.7147728204727173e-01 4.1143015027046204e-01</leafValues></_>
        <_>
          <internalNodes>
            0 -1 52 -3.7457309663295746e-02</internalNodes>
          <leafValues>
            7.6025635004043579e-01 -2.9182979464530945e-01</leafValues></_>
        <_>
          <internalNodes>
            0 -1 21 7.6128798536956310e-03</internalNodes>
          <leafValues>
            -3.1596034765243530e-01 6.3153541088104248e-01</leafValues></_>
        <_>
          <internalNodes>
            0 -1 85 -1.3307718560099602e-02</internalNodes>
          <leafValues>
            -8.3840054273605347e-01 2.6559427380561829e-01</leafValues></_>
        <_>
          <internalNodes>
            0 -1 14 -9.6182525157928467e-03</internalNodes>
          <leafValues>
            6.6769003868103027e-01 -2.7097710967063904e-01</leafValues></_>
        <_>
          <internalNodes>
            0 -1 246 4.1784113273024559e-03</internalNodes>
          <leafValues>
            -2.9309192299842834e-01 5.3912663459777832e-01</leafValues></_>
        <_>
          <internalNodes>
            0 -1 64 2.6446981355547905e-03</internalNodes>
          <leafValues>
            1.6972380876541138e-01 -1.1424508094787598e+00</leafValues></_>
        <_>
          <internalNodes>
            0 -1 63 -2.0969472825527191e-03</internalNodes>
          <leafValues>
            -1.1369552612304688e+00 2.3780767619609833e-01</leafValues></_>
        <_>
          <internalNodes>
            0 -1 31 1.4173049479722977e-02</internalNodes>
          <leafValues>
            -2.5270664691925049e-01 7.6817607879638672e-01</leafValues></_></weakClassifiers></_>
    <!-- stage 1 -->
    <_>
      <maxWeakCount>11</maxWeakCount>
      <stageThreshold>-2.5729610919952393e+00</stageThreshold>
      <weakClassifiers>
        <_>
          <internalNodes>
            0 -1 0 3.6364220082759857e-02</internalNodes>
          <leafValues>
            -1.1146444082260132e+00 5.1357668638229370e-01</leafValues></_>
        <_>
          <internalNodes>
            0 -1 38 2.3709960281848907e-02</internalNodes>
          <leafValues>
            -6.5015679597854614e-01 6.5098398923873901e-01</leafValues></_>
        <_>
          <internalNodes>
            0 -1 170 3.1548030674457550e-02</internalNodes>
          <leafValues>
            -4.1329291462898254e-01 5.3413850069046021e-01</leafValues></_>
        <_>
          <internalNodes>
            0 -1 250 9.8678367212414742e-03</internalNodes>
          <leafValues>
            -4.8809304833412170e-01 4.2403122782707214e-01</leafValues></_>
        <_>
          <internalNodes>
            0 -1 47 2.3935385979712009e-03</internalNodes>
          <leafValues>
            2.4871963262557983e-01 -1.0248255729675293e+00</leafValues></_>
        <_>
          <internalNodes>
            0 -1 71 2.6834127493202686e-03</internalNodes>
          <leafValues>
            2.2404661774635315e-01 -1.1404544115066528e+00</leafValues></_>
        <_>
          <internalNodes>
            0 -1 72 2.4164575152099133e-03</internalNodes>
          <leafValues>
            2.1435983479022980e-01 -1.1767656803131104e+00</leafValues></_>
        <_>
          <internalNodes>
            0 -1 69 2.3242137394845486e-03</internalNodes>
          <leafValues>
            1.9944733381271362e-01 -1.1109267473220825e+00</leafValues></_>
        <_>
          <internalNodes>
            0 -1 68 4.2081298306584358e-03</internalNodes>
          <leafValues>
            1.7168547213077545e-01 -1.2664324045181274e+00</leafValues></_>
        <_>
          <internalNodes>
            0 -1 163 -1.2788461521267891e-02</internalNodes>
          <leafValues>
            6.0633122920989990e-01 -2.7221301198005676e-01</leafValues></_>
        <_>
          <internalNodes>
            0 -1 16 6.7327674478292465e-03</internalNodes>
          <leafValues>
            -2.1381863951683044e-01 8.3551985025405884e-01</leafValues></_></weakClassifiers></_>
    <!-- stage 2 -->
    <_>
      <maxWeakCount>14</maxWeakCount>
      <stageThreshold>-2.5860702991485596e+00</stageThreshold>
      <weakClassifiers>
        <_>
          <internalNodes>
            0 -1 75 -4.4827256351709366e-02</internalNodes>
          <leafValues>
            4.9285364151000977e-01 -9.9769437313079834e-01</leafValues></_>
        <_>
          <internalNodes>
            0 -1 38 3.9755761623382568e-02</internalNodes>
          <leafValues>
            -4.3163716793060303e-01 6.4468705654144287e-01</leafValues></_>
        <_>
          <internalNodes>
            0 -1 54 4.5158948749303818e-02</internalNodes>
          <leafValues>
            -4.0345329046249390e-01 6.3022559881210327e-01</leafValues></_>
        <_>
          <internalNodes>
            0 -1 67 -2.5741388089954853e-03</internalNodes>
          <leafValues>
            -1.2705554962158203e+00 2.0222280919551849e-01</leafValues></_>
        <_>
          <internalNodes>
            0 -1 44 2.3051113821566105e-03</internalNodes>
          <leafValues>
            2.8362488746643066e-01 -8.9477097988128662e-01</leafValues></_>
        <_>
          <internalNodes>
            0 -1 1 -2.9558084905147552e-02</internalNodes>
          <leafValues>
            9.6300929784774780e-01 -2.0753692090511322e-01</leafValues></_>
        <_>
          <internalNodes>
            0 -1 13 -1.2441360391676426e-02</internalNodes>
          <leafValues>
            1.0418608188629150e+00 -1.8708358705043793e-01</leafValues></_>
        <_>
          <internalNodes>
            0 -1 17 -5.2747447043657303e-03</internalNodes>
          <leafValues>
            6.6722095012664795e-01 -2.3614428937435150e-01</leafValues></_>
        <_>
          <internalNodes>
            0 -1 61 -2.3112851195037365e-03</internalNodes>
          <leafValues>
            -1.1104042530059814e+00 1.6990174353122711e-01</leafValues></_>
        <_>
          <internalNodes>
            0 -1 41 3.8252519443631172e-03</internalNodes>
          <leafValues>
            2.1966251730918884e-01 -1.4579720497131348e+00</leafValues></_>
        <_>
          <internalNodes>
            0 -1 280 7.2615193203091621e-03</internalNodes>
          <leafValues>
            -3.4500926733016968e-01 4.7421222925186157e-01</leafValues></_>
        <_>
          <internalNodes>
            0 -1 240 -4.1623540222644806e-02</internalNodes>
          <leafValues>
            -9.7120505571365356e-01 1.9353155791759491e-01</leafValues></_>
        <_>
          <internalNodes>
            0 -1 126 -5.0247041508555412e-03</internalNodes>
          <leafValues>
            3.1420889496803284e-01 -5.3049880266189575e-01</leafValues></_>
        <_>
          <internalNodes>
            0 -1 279 2.4348851293325424e-02</internalNodes>
          <leafValues>
            -1.7123916745185852e-01 1.0477335453033447e+00</leafValues></_></weakClassifiers></_>
    <!-- stage 3 -->
    <_>
      <maxWeakCount>17</maxWeakCount>
      <stageThreshold>-2.5894670486450195e+00</stageThreshold>
      <weakClassifiers>
        <_>
          <internalNodes>
            0 -1 111 -1.6730476170778275e-02</internalNodes>
          <leafValues>
            2.7063992619514465e-01 -1.0986123085021973e+00</leafValues></_>
        <_>
          <internalNodes>
            0 -1 38 1.5035709366202354e-02</internalNodes>
          <leafValues>
            -7.8068137168884277e-01 4.7366666793823242e-01</leafValues></_>
        <_>
          <internalNodes>
            0 -1 50 -9.4619747251272202e-03</internalNodes>
          <leafValues>
            6.1959546804428101e-01 -3.8963747024536133e-01</leafValues></_>
        <_>
          <internalNodes>
            0 -1 229 -5.5379280820488930e-03</internalNodes>
          <leafValues>
            3.7221196293830872e-01 -3.9802315831184387e-01</leafValues></_>
        <_>
          <internalNodes>
            0 -1 206 5.1457207649946213e-02</internalNodes>
          <leafValues>
            1.8690636754035950e-01 -1.2727850675582886e+00</leafValues></_>
        <_>
          <internalNodes>
            0 -1 192 -2.6932822540402412e-02</internalNodes>
          <leafValues>
            7.8324294090270996e-01 -2.3109917342662811e-01</leafValues></_>
        <_>
          <internalNodes>
            0 -1 120 6.3042148947715759e-02</internalNodes>
          <leafValues>
            1.3792464137077332e-01 -1.2822337150573730e+00</leafValues></_>
        <_>
          <internalNodes>
            0 -1 221 4.6660061925649643e-03</internalNodes>
          <leafValues>
            -2.5536027550697327e-01 5.0842481851577759e-01</leafValues></_>
        <_>
          <internalNodes>
            0 -1 154 -8.0962963402271271e-03</internalNodes>
          <leafValues>
            -7.6713597774505615e-01 1.8413080275058746e-01</leafValues></_>
        <_>
          <internalNodes>
            0 -1 172 4.1989021003246307e-02</internalNodes>
          <leafValues>
            1.0666959732770920e-01 -9.7944563627243042e-01</leafValues></_>
        <_>
          <internalNodes>
            0 -1 195 5.5288774892687798e-03</internalNodes>
          <leafValues>
            -3.2470858097076416e-01 3.0796653032302856e-01</leafValues></_>
        <_>
          <internalNodes>
            0 -1 134 -4.2815953493118286e-02</internalNodes>
          <leafValues>
            7.2892755270004272e-01 -1.5818428993225098e-01</leafValues></_>
        <_>
          <internalNodes>
            0 -1 8 1.7397968098521233e-02</internalNodes>
          <leafValues>
            -2.1087126433849335e-01 6.3689571619033813e-01</leafValues></_>
        <_>
          <internalNodes>
            0 -1 58 -1.6340137226507068e-03</internalNodes>
          <leafValues>
            -1.0091135501861572e+00 1.3363297283649445e-01</leafValues></_>
        <_>
          <internalNodes>
            0 -1 158 -3.0245229601860046e-02</internalNodes>
          <leafValues>
            5.5936074256896973e-01 -1.8011164665222168e-01</leafValues></_>
        <_>
          <internalNodes>
            0 -1 125 4.4685509055852890e-03</internalNodes>
          <leafValues>
            -1.5742084383964539e-01 6.7050343751907349e-01</leafValues></_>
        <_>
          <internalNodes>
            0 -1 283 2.4986494332551956e-02</internalNodes>
          <leafValues>
            -1.4600598812103271e-01 8.2520276308059692e-01</leafValues></_></weakClassifiers></_>
    <!-- stage 4 -->
    <_>
      <maxWeakCount>19</maxWeakCount>
      <stageThreshold>-2.4782707691192627e+00</stageThreshold>
      <weakClassifiers>
        <_>
          <internalNodes>
            0 -1 2 3.5108555108308792e-02</internalNodes>
          <leafValues>
            -1.0718467235565186e+00 8.0139450728893280e-02</leafValues></_>
        <_>
          <internalNodes>
            0 -1 39 1.3408215716481209e-02</internalNodes>
          <leafValues>
            -6.5341389179229736e-01 3.0637419223785400e-01</leafValues></_>
        <_>
          <internalNodes>
            0 -1 79 6.7284762859344482e-02</internalNodes>
          <leafValues>
            -4.5642775297164917e-01 3.4187844395637512e-01</leafValues></_>
        <_>
          <internalNodes>
            0 -1 249 3.3777356147766113e-03</internalNodes>
          <leafValues>
            -5.5621927976608276e-01 3.0749556422233582e-01</leafValues></_>
        <_>
          <internalNodes>
            0 -1 282 -8.9863259345293045e-03</internalNodes>
          <leafValues>
            6.5686357021331787e-01 -2.5030896067619324e-01</leafValues></_>
        <_>
          <internalNodes>
            0 -1 210 3.8367849774658680e-03</internalNodes>
          <leafValues>
            -2.7282214164733887e-01 4.4525879621505737e-01</leafValues></_>
        <_>
          <internalNodes>
            0 -1 89 -2.7511928230524063e-02</internalNodes>
          <leafValues>
            -1.0302205085754395e+00 1.2261919677257538e-01</leafValues></_>
        <_>
          <internalNodes>
            0 -1 139 -2.0767174661159515e-02</internalNodes>
          <leafValues>
            6.7866659164428711e-01 -1.7370054125785828e-01</leafValues></_>
        <_>
          <internalNodes>
            0 -1 198 -1.0691841132938862e-02</internalNodes>
          <leafValues>
            -7.3007512092590332e-01 1.6302558779716492e-01</leafValues></_>
        <_>
          <internalNodes>
            0 -1 102 -1.4860540628433228e-01</internalNodes>
          <leafValues>
            -1.1670954227447510e+00 1.1455316841602325e-01</leafValues></_>
        <_>
          <internalNodes>
            0 -1 225 -5.3399959579110146e-03</internalNodes>
          <leafValues>
            5.4093027114868164e-01 -2.0559087395668030e-01</leafValues></_>
        <_>
          <internalNodes>
            0 -1 12 -1.3961354270577431e-02</internalNodes>
          <leafValues>
            8.2255393266677856e-01 -1.3600133359432220e-01</leafValues></_>
        <_>
          <internalNodes>
            0 -1 199 1.0373465716838837e-01</internalNodes>
          <leafValues>
            9.7182944416999817e-02 -1.4387283325195312e+00</leafValues></_>
        <_>
          <internalNodes>
            0 -1 273 -1.6658060252666473e-02</internalNodes>
          <leafValues>
            6.3174909353256226e-01 -1.5511174499988556e-01</leafValues></_>
        <_>
          <internalNodes>
            0 -1 141 7.4639846570789814e-03</internalNodes>
          <leafValues>
            -2.1063748002052307e-01 5.4923069477081299e-01</leafValues></_>
        <_>
          <internalNodes>
            0 -1 9 6.6974814981222153e-03</internalNodes>
          <leafValues>
            -1.7323459684848785e-01 5.4755073785781860e-01</leafValues></_>
        <_>
          <internalNodes>
            0 -1 254 6.8485364317893982e-04</internalNodes>
          <leafValues>
            -2.1158732473850250e-01 4.1609820723533630e-01</leafValues></_>
        <_>
          <internalNodes>
            0 -1 92 4.3122582137584686e-03</internalNodes>
          <leafValues>
            8.9655399322509766e-02 -1.5393832921981812e+00</leafValues></_>
        <_>
          <internalNodes>
            0 -1 209 4.1114939376711845e-03</internalNodes>
          <leafValues>
            -1.8898011744022369e-01 4.1100054979324341e-01</leafValues></_></weakClassifiers></_>
    <!-- stage 5 -->
    <_>
      <maxWeakCount>26</maxWeakCount>
      <stageThreshold>-2.4246683120727539e+00</stageThreshold>
      <weakClassifiers>
        <_>
          <internalNodes>
            0 -1 218 -1.3701941817998886e-02</internalNodes>
          <leafValues>
            1.5100476145744324e-01 -9.0455591678619385e-01</leafValues></_>
        <_>
          <internalNodes>
            0 -1 100 -1.8877290189266205e-02</internalNodes>
          <leafValues>
            6.1410254240036011e-01 -2.6804128289222717e-01</leafValues></_>
        <_>
          <internalNodes>
            0 -1 20 5.6029856204986572e-03</internalNodes>
          <leafValues>
            -5.3046023845672607e-01 2.9648995399475098e-01</leafValues></_>
        <_>
          <internalNodes>
            0 -1 98 -1.6033262014389038e-02</internalNodes>
          <leafValues>
            4.9630203843116760e-01 -2.4686284363269806e-01</leafValues></_>
        <_>
          <internalNodes>
            0 -1 239 3.5574793815612793e-02</internalNodes>
          <leafValues>
            -2.7417165040969849e-01 4.1092070937156677e-01</leafValues></_>
        <_>
          <internalNodes>
            0 -1 148 -1.2004298623651266e-03</internalNodes>
          <leafValues>
            2.6228380203247070e-01 -3.5181513428688049e-01</leafValues></_>
        <_>
          <internalNodes>
            0 -1 256 -7.6912236399948597e-03</internalNodes>
          <leafValues>
            2.4480317533016205e-01 -3.9718443155288696e-01</leafValues></_>
        <_>
          <internalNodes>
            0 -1 144 -1.5281479805707932e-02</internalNodes>
          <leafValues>
            6.1135679483413696e-01 -1.6243632137775421e-01</leafValues></_>
        <_>
          <internalNodes>
            0 -1 87 -6.3513768836855888e-03</internalNodes>
          <leafValues>
            -1.0669597387313843e+00 1.0684671252965927e-01</leafValues></_>
        <_>
          <internalNodes>
            0 -1 136 2.6744600385427475e-02</internalNodes>
          <leafValues>
            -1.5339104831218719e-01 6.6130447387695312e-01</leafValues></_>
        <_>
          <internalNodes>
            0 -1 53 -9.4393849372863770e-02</internalNodes>
          <leafValues>
            5.1722860336303711e-01 -2.0014838874340057e-01</leafValues></_>
        <_>
          <internalNodes>
            0 -1 217 1.0168463923037052e-03</internalNodes>
          <leafValues>
            -2.4738737940788269e-01 3.6367598176002502e-01</leafValues></_>
        <_>
          <internalNodes>
            0 -1 91 -3.2348074018955231e-02</internalNodes>
          <leafValues>
            -1.0599817037582397e+00 1.0797315835952759e-01</leafValues></_>
        <_>
          <internalNodes>
            0 -1 11 -4.6042449772357941e-02</internalNodes>
          <leafValues>
            7.4447232484817505e-01 -1.5566556155681610e-01</leafValues></_>
        <_>
          <internalNodes>
            0 -1 237 -1.2923867907375097e-03</internalNodes>
          <leafValues>
            3.1628641486167908e-01 -2.4170845746994019e-01</leafValues></_>
        <_>
          <internalNodes>
            0 -1 146 7.5042583048343658e-03</internalNodes>
          <leafValues>
            8.6960464715957642e-02 -1.2132843732833862e+00</leafValues></_>
        <_>
          <internalNodes>
            0 -1 165 -1.4352468773722649e-02</internalNodes>
          <leafValues>
            -8.6530947685241699e-01 9.0286664664745331e-02</leafValues></_>
        <_>
          <internalNodes>
            0 -1 127 1.3922739308327436e-03</internalNodes>
          <leafValues>
            -1.9552481174468994e-01 3.5500445961952209e-01</leafValues></_>
        <_>
          <internalNodes>
            0 -1 127 -1.9219237146899104e-03</internalNodes>
          <leafValues>
            5.5130308866500854e-01 -1.4987561106681824e-01</leafValues></_>
        <_>
          <internalNodes>
            0 -1 189 6.8829692900180817e-03</internalNodes>
          <leafValues>
            1.0671496391296387e-01 -9.0165024995803833e-01</leafValues></_>
        <_>
          <internalNodes>
            0 -1 157 2.6448180433362722e-03</internalNodes>
          <leafValues>
            9.7794488072395325e-02 -9.1956216096878052e-01</leafValues></_>
        <_>
          <internalNodes>
            0 -1 130 -5.2407910116016865e-03</internalNodes>
          <leafValues>
            -1.1363266706466675e+00 8.7421998381614685e-02</leafValues></_>
        <_>
          <internalNodes>
            0 -1 129 4.0712594054639339e-03</internalNodes>
          <leafValues>
            -2.7612942457199097e-01 2.9234024882316589e-01</leafValues></_>
        <_>
          <internalNodes>
            0 -1 73 1.1259251274168491e-02</internalNodes>
          <leafValues>
            -1.2404865026473999e-01 6.8925154209136963e-01</leafValues></_>
        <_>
          <internalNodes>
            0 -1 208 -9.7207967191934586e-03</internalNodes>
          <leafValues>
            6.8995183706283569e-01 -1.1972840875387192e-01</leafValues></_>
        <_>
          <internalNodes>
            0 -1 110 1.0128997964784503e-03</internalNodes>
          <leafValues>
            -1.8403005599975586e-01 4.4308990240097046e-01</leafValues></_></weakClassifiers></_>
    <!-- stage 6 -->
    <_>
      <maxWeakCount>24</maxWeakCount>
      <stageThreshold>-2.1928441524505615e+00</stageThreshold>
      <weakClassifiers>
        <_>
          <internalNodes>
            0 -1 81 4.4032689183950424e-02</internalNodes>
          <leafValues>
            -8.5979783535003662e-01 3.0666637420654297e-01</leafValues></_>
        <_>
          <internalNodes>
            0 -1 123 6.3660861924290657e-03</internalNodes>
          <leafValues>
            -4.2701542377471924e-01 3.2603099942207336e-01</leafValues></_>
        <_>
          <internalNodes>
            0 -1 3 2.3599121719598770e-02</internalNodes>
          <leafValues>
            -4.0636208653450012e-01 3.2599866390228271e-01</leafValues></_>
        <_>
          <internalNodes>
            0 -1 248 2.9275203123688698e-03</internalNodes>
          <leafValues>
            -2.6495406031608582e-01 3.8028883934020996e-01</leafValues></_>
        <_>
          <internalNodes>
            0 -1 33 -1.1856816709041595e-02</internalNodes>
          <leafValues>
            5.0460046529769897e-01 -1.8443402647972107e-01</leafValues></_>
        <_>
          <internalNodes>
            0 -1 112 4.7401189804077148e-02</internalNodes>
          <leafValues>
            -1.6093252599239349e-01 7.8936100006103516e-01</leafValues></_>
        <_>
          <internalNodes>
            0 -1 227 1.0545931290835142e-03</internalNodes>
          <leafValues>
            -5.8087956905364990e-01 1.7572645843029022e-01</leafValues></_>
        <_>
          <internalNodes>
            0 -1 16 8.8803451508283615e-03</internalNodes>
          <leafValues>
            -1.2774989008903503e-01 8.3781599998474121e-01</leafValues></_>
        <_>
          <internalNodes>
            0 -1 166 6.0720179229974747e-02</internalNodes>
          <leafValues>
            -2.5135287642478943e-01 3.3401599526405334e-01</leafValues></_>
        <_>
          <internalNodes>
            0 -1 276 2.4717383086681366e-02</internalNodes>
          <leafValues>
            1.1253803223371506e-01 -9.4709342718124390e-01</leafValues></_>
        <_>
          <internalNodes>
            0 -1 245 -8.6741003906354308e-04</internalNodes>
          <leafValues>
            5.3989422321319580e-01 -1.6962213814258575e-01</leafValues></_>
        <_>
          <internalNodes>
            0 -1 269 5.3147487342357635e-03</internalNodes>
          <leafValues>
            -2.1362116932868958e-01 3.9227813482284546e-01</leafValues></_>
        <_>
          <internalNodes>
            0 -1 42 4.7525335103273392e-03</internalNodes>
          <leafValues>
            1.0027340799570084e-01 -1.0758376121520996e+00</leafValues></_>
        <_>
          <internalNodes>
            0 -1 260 7.4240216054022312e-04</internalNodes>
          <leafValues>
            -1.9650375843048096e-01 4.5943611860275269e-01</leafValues></_>
        <_>
          <internalNodes>
            0 -1 59 -9.3751819804310799e-03</internalNodes>
          <leafValues>
            -1.4054349660873413e+00 9.7095377743244171e-02</leafValues></_>
        <_>
          <internalNodes>
            0 -1 108 -8.0750826746225357e-03</internalNodes>
          <leafValues>
            -8.7103754281997681e-01 9.5348320901393890e-02</leafValues></_>
        <_>
          <internalNodes>
            0 -1 103 4.8034276813268661e-02</internalNodes>
          <leafValues>
            7.9052135348320007e-02 -1.4235974550247192e+00</leafValues></_>
        <_>
          <internalNodes>
            0 -1 26 3.3424876630306244e-02</internalNodes>
          <leafValues>
            -1.3380542397499084e-01 6.1939537525177002e-01</leafValues></_>
        <_>
          <internalNodes>
            0 -1 43 6.8374285474419594e-03</internalNodes>
          <leafValues>
            -2.9907301068305969e-01 2.6531288027763367e-01</leafValues></_>
        <_>
          <internalNodes>
            0 -1 234 -5.9686240274459124e-04</internalNodes>
          <leafValues>
            3.9473205804824829e-01 -1.9209688901901245e-01</leafValues></_>
        <_>
          <internalNodes>
            0 -1 66 -2.1670898422598839e-03</internalNodes>
          <leafValues>
            -6.9232875108718872e-01 1.1350973695516586e-01</leafValues></_>
        <_>
          <internalNodes>
            0 -1 216 1.8840248230844736e-03</internalNodes>
          <leafValues>
            -2.3747725784778595e-01 3.1486237049102783e-01</leafValues></_>
        <_>
          <internalNodes>
            0 -1 236 2.0769163966178894e-02</internalNodes>
          <leafValues>
            1.3100144267082214e-01 -6.4358621835708618e-01</leafValues></_>
        <_>
          <internalNodes>
            0 -1 186 -3.3309392165392637e-03</internalNodes>
          <leafValues>
            -7.6014196872711182e-01 1.0549939423799515e-01</leafValues></_></weakClassifiers></_>
    <!-- stage 7 -->
    <_>
      <maxWeakCount>30</maxWeakCount>
      <stageThreshold>-2.2413303852081299e+00</stageThreshold>
      <weakClassifiers>
        <_>
          <internalNodes>
            0 -1 208 1.5548752620816231e-02</internalNodes>
          <leafValues>
            -8.6765581369400024e-01 9.5880977809429169e-02</leafValues></_>
        <_>
          <internalNodes>
            0 -1 224 -2.3770168423652649e-02</internalNodes>
          <leafValues>
            4.4732639193534851e-01 -3.0248796939849854e-01</leafValues></_>
        <_>
          <internalNodes>
            0 -1 133 -2.4160023778676987e-02</internalNodes>
          <leafValues>
            5.1562607288360596e-01 -2.1463072299957275e-01</leafValues></_>
        <_>
          <internalNodes>
            0 -1 124 4.6291127800941467e-03</internalNodes>
          <leafValues>
            -4.2317965626716614e-01 2.5460630655288696e-01</leafValues></_>
        <_>
          <internalNodes>
            0 -1 74 -1.1554487980902195e-02</internalNodes>
          <leafValues>
            4.0333297848701477e-01 -2.2632941603660583e-01</leafValues></_>
        <_>
          <internalNodes>
            0 -1 278 4.5257555320858955e-03</internalNodes>
          <leafValues>
            -3.5261318087577820e-01 2.4323651194572449e-01</leafValues></_>
        <_>
          <internalNodes>
            0 -1 65 -1.7697559669613838e-03</internalNodes>
          <leafValues>
            2.1580356359481812e-01 -3.6413863301277161e-01</leafValues></_>
        <_>
          <internalNodes>
            0 -1 86 -3.7436832208186388e-03</internalNodes>
          <leafValues>
            -9.9398303031921387e-01 8.4075003862380981e-02</leafValues></_>
        <_>
          <internalNodes>
            0 -1 149 8.7919086217880249e-02</internalNodes>
          <leafValues>
            7.8772313892841339e-02 -1.2174202203750610e+00</leafValues></_>
        <_>
          <internalNodes>
            0 -1 155 4.6906992793083191e-04</internalNodes>
          <leafValues>
            -2.0184493064880371e-01 3.2684385776519775e-01</leafValues></_>
        <_>
          <internalNodes>
            0 -1 46 9.9946418777108192e-03</internalNodes>
          <leafValues>
            7.8718587756156921e-02 -1.0460933446884155e+00</leafValues></_>
        <_>
          <internalNodes>
            0 -1 259 5.8348439633846283e-02</internalNodes>
          <leafValues>
            9.7001567482948303e-02 -6.7969417572021484e-01</leafValues></_>
        <_>
          <internalNodes>
            0 -1 118 5.6971572339534760e-03</internalNodes>
          <leafValues>
            -4.1381618380546570e-01 1.5359610319137573e-01</leafValues></_>
        <_>
          <internalNodes>
            0 -1 196 -7.0273727178573608e-03</internalNodes>
          <leafValues>
            1.8212290108203888e-01 -3.7807789444923401e-01</leafValues></_>
        <_>
          <internalNodes>
            0 -1 25 -2.1677082404494286e-02</internalNodes>
          <leafValues>
            6.5383863449096680e-01 -1.1691422015428543e-01</leafValues></_>
        <_>
          <internalNodes>
            0 -1 188 -2.4398094974458218e-03</internalNodes>
          <leafValues>
            -5.6706279516220093e-01 1.1806357651948929e-01</leafValues></_>
        <_>
          <internalNodes>
            0 -1 169 -2.9215779155492783e-02</internalNodes>
          <leafValues>
            6.9083350896835327e-01 -1.0543189942836761e-01</leafValues></_>
        <_>
          <internalNodes>
            0 -1 116 -6.9946190342307091e-04</internalNodes>
          <leafValues>
            -4.2898136377334595e-01 1.5199953317642212e-01</leafValues></_>
        <_>
          <internalNodes>
            0 -1 205 2.5379011640325189e-04</internalNodes>
          <leafValues>
            -2.1893712878227234e-01 2.8814706206321716e-01</leafValues></_>
        <_>
          <internalNodes>
            0 -1 143 6.3389837741851807e-03</internalNodes>
          <leafValues>
            7.8061133623123169e-02 -1.1045321226119995e+00</leafValues></_>
        <_>
          <internalNodes>
            0 -1 153 7.2250165976583958e-04</internalNodes>
          <leafValues>
            -1.3412943482398987e-01 5.7077407836914062e-01</leafValues></_>
        <_>
          <internalNodes>
            0 -1 77 1.2788236141204834e-02</internalNodes>
          <leafValues>
            -1.2491657584905624e-01 5.1452034711837769e-01</leafValues></_>
        <_>
          <internalNodes>
            0 -1 51 -2.5369035080075264e-02</internalNodes>
          <leafValues>
            2.9962259531021118e-01 -2.4789297580718994e-01</leafValues></_>
        <_>
          <internalNodes>
            0 -1 127 1.4024196425452828e-03</internalNodes>
          <leafValues>
            -2.2533269226551056e-01 3.1715813279151917e-01</leafValues></_>
        <_>
          <internalNodes>
            0 -1 57 -2.7696350589394569e-03</internalNodes>
          <leafValues>
            -1.0493475198745728e+00 8.4009028971195221e-02</leafValues></_>
        <_>
          <internalNodes>
            0 -1 119 4.2250282131135464e-03</internalNodes>
          <leafValues>
            -2.6262024044990540e-01 2.5398349761962891e-01</leafValues></_>
        <_>
          <internalNodes>
            0 -1 262 1.8362677656114101e-03</internalNodes>
          <leafValues>
            -1.4961564540863037e-01 3.9350536465644836e-01</leafValues></_>
        <_>
          <internalNodes>
            0 -1 45 3.0309292487800121e-03</internalNodes>
          <leafValues>
            8.0429948866367340e-02 -9.9602663516998291e-01</leafValues></_>
        <_>
          <internalNodes>
            0 -1 266 5.4469984024763107e-04</internalNodes>
          <leafValues>
            -1.7051246762275696e-01 4.1709721088409424e-01</leafValues></_>
        <_>
          <internalNodes>
            0 -1 147 1.0354734957218170e-02</internalNodes>
          <leafValues>
            7.8478425741195679e-02 -1.0667395591735840e+00</leafValues></_></weakClassifiers></_>
    <!-- stage 8 -->
    <_>
      <maxWeakCount>34</maxWeakCount>
      <stageThreshold>-2.2900576591491699e+00</stageThreshold>
      <weakClassifiers>
        <_>
          <internalNodes>
            0 -1 34 2.6737505197525024e-01</internalNodes>
          <leafValues>
            -8.1476455926895142e-01 2.5843396782875061e-01</leafValues></_>
        <_>
          <internalNodes>
            0 -1 218 -8.4241051226854324e-03</internalNodes>
          <leafValues>
            4.8483905196189880e-01 -2.1547290682792664e-01</leafValues></_>
        <_>
          <internalNodes>
            0 -1 99 -4.1956722736358643e-02</internalNodes>
          <leafValues>
            3.7663558125495911e-01 -2.1995228528976440e-01</leafValues></_>
        <_>
          <internalNodes>
            0 -1 222 5.3377896547317505e-03</internalNodes>
          <leafValues>
            -1.7894642055034637e-01 4.7874331474304199e-01</leafValues></_>
        <_>
          <internalNodes>
            0 -1 7 -2.1720798686146736e-02</internalNodes>
          <leafValues>
            7.3814731836318970e-01 -1.1188851296901703e-01</leafValues></_>
        <_>
          <internalNodes>
            0 -1 19 -4.4117709621787071e-03</internalNodes>
          <leafValues>
            5.0846880674362183e-01 -1.6319715976715088e-01</leafValues></_>
        <_>
          <internalNodes>
            0 -1 55 5.8282844722270966e-02</internalNodes>
          <leafValues>
            -3.0413132905960083e-01 2.5232329964637756e-01</leafValues></_>
        <_>
          <internalNodes>
            0 -1 291 -1.3398624956607819e-02</internalNodes>
          <leafValues>
            5.2259159088134766e-01 -1.4099447429180145e-01</leafValues></_>
        <_>
          <internalNodes>
            0 -1 292 -2.4729248136281967e-02</internalNodes>
          <leafValues>
            7.4090343713760376e-01 -1.1756128072738647e-01</leafValues></_>
        <_>
          <internalNodes>
            0 -1 185 4.9211899749934673e-04</internalNodes>
          <leafValues>
            -1.9889514148235321e-01 3.5496851801872253e-01</leafValues></_>
        <_>
          <internalNodes>
            0 -1 22 7.7318185940384865e-03</internalNodes>
          <leafValues>
            -2.3710475862026215e-01 2.6049953699111938e-01</leafValues></_>
        <_>
          <internalNodes>
            0 -1 49 -3.1732030212879181e-02</internalNodes>
          <leafValues>
            7.9530787467956543e-01 -7.5207397341728210e-02</leafValues></_>
        <_>
          <internalNodes>
            0 -1 93 1.6266661696135998e-03</internalNodes>
          <leafValues>
            -4.3032598495483398e-01 1.5714426338672638e-01</leafValues></_>
        <_>
          <internalNodes>
            0 -1 203 -2.5617633946239948e-03</internalNodes>
          <leafValues>
            3.3424451947212219e-01 -1.7736400663852692e-01</leafValues></_>
        <_>
          <internalNodes>
            0 -1 287 1.5439684502780437e-03</internalNodes>
          <leafValues>
            9.8114915192127228e-02 -7.8787451982498169e-01</leafValues></_>
        <_>
          <internalNodes>
            0 -1 202 -3.8644811138510704e-04</internalNodes>
          <leafValues>
            3.8087797164916992e-01 -1.7158341407775879e-01</leafValues></_>
        <_>
          <internalNodes>
            0 -1 286 -1.8727337010204792e-03</internalNodes>
          <leafValues>
            -7.2074323892593384e-01 1.0093673318624496e-01</leafValues></_>
        <_>
          <internalNodes>
            0 -1 272 1.9509144127368927e-02</internalNodes>
          <leafValues>
            9.2162095010280609e-02 -7.3177641630172729e-01</leafValues></_>
        <_>
          <internalNodes>
            0 -1 28 9.5180310308933258e-03</internalNodes>
          <leafValues>
            -1.3490514457225800e-01 4.4071367383003235e-01</leafValues></_>
        <_>
          <internalNodes>
            0 -1 96 -6.0447636060416698e-03</internalNodes>
          <leafValues>
            5.1823014020919800e-01 -1.5137825906276703e-01</leafValues></_>
        <_>
          <internalNodes>
            0 -1 268 2.4079918861389160e-02</internalNodes>
          <leafValues>
            7.0281691849231720e-02 -1.2520357370376587e+00</leafValues></_>
        <_>
          <internalNodes>
            0 -1 258 5.6530740112066269e-03</internalNodes>
          <leafValues>
            -2.9924994707107544e-01 2.0558290183544159e-01</leafValues></_>
        <_>
          <internalNodes>
            0 -1 56 3.6886092275381088e-02</internalNodes>
          <leafValues>
            5.8435797691345215e-02 -1.3326284885406494e+00</leafValues></_>
        <_>
          <internalNodes>
            0 -1 88 -3.2360558398067951e-03</internalNodes>
          <leafValues>
            -9.8376196622848511e-01 7.5416028499603271e-02</leafValues></_>
        <_>
          <internalNodes>
            0 -1 252 4.0723709389567375e-03</internalNodes>
          <leafValues>
            -1.5047280490398407e-01 4.2012691497802734e-01</leafValues></_>
        <_>
          <internalNodes>
            0 -1 255 -4.4163819402456284e-03</internalNodes>
          <leafValues>
            5.6240338087081909e-01 -1.3358220458030701e-01</leafValues></_>
        <_>
          <internalNodes>
            0 -1 156 3.2960751559585333e-03</internalNodes>
          <leafValues>
            8.8563084602355957e-02 -6.3992762565612793e-01</leafValues></_>
        <_>
          <internalNodes>
            0 -1 159 2.8256099903956056e-04</internalNodes>
          <leafValues>
            -2.0325320959091187e-01 3.1974473595619202e-01</leafValues></_>
        <_>
          <internalNodes>
            0 -1 78 2.4954594671726227e-02</internalNodes>
          <leafValues>
            -1.8972507119178772e-01 2.7287635207176208e-01</leafValues></_>
        <_>
          <internalNodes>
            0 -1 113 -5.5634669959545135e-02</internalNodes>
          <leafValues>
            7.0103091001510620e-01 -1.0266295820474625e-01</leafValues></_>
        <_>
          <internalNodes>
            0 -1 191 -7.9171612858772278e-02</internalNodes>
          <leafValues>
            -1.3678895235061646e+00 6.0693636536598206e-02</leafValues></_>
        <_>
          <internalNodes>
            0 -1 131 -1.9179210066795349e-03</internalNodes>
          <leafValues>
            4.8301467299461365e-01 -1.2362799793481827e-01</leafValues></_>
        <_>
          <internalNodes>
            0 -1 182 5.3119873628020287e-03</internalNodes>
          <leafValues>
            -1.3497312366962433e-01 4.6358025074005127e-01</leafValues></_>
        <_>
          <internalNodes>
            0 -1 6 -4.0167972445487976e-02</internalNodes>
          <leafValues>
            5.6574112176895142e-01 -1.1198601126670837e-01</leafValues></_></weakClassifiers></_>
    <!-- stage 9 -->
    <_>
      <maxWeakCount>36</maxWeakCount>
      <stageThreshold>-2.1492013931274414e+00</stageThreshold>
      <weakClassifiers>
        <_>
          <internalNodes>
            0 -1 140 4.9252506345510483e-02</internalNodes>
          <leafValues>
            -8.8064903020858765e-01 -4.3356679379940033e-02</leafValues></_>
        <_>
          <internalNodes>
            0 -1 257 1.4373704791069031e-02</internalNodes>
          <leafValues>
            -3.3527708053588867e-01 2.7657103538513184e-01</leafValues></_>
        <_>
          <internalNodes>
            0 -1 207 2.3569982498884201e-02</internalNodes>
          <leafValues>
            -2.4520497024059296e-01 2.8595924377441406e-01</leafValues></_>
        <_>
          <internalNodes>
            0 -1 76 -1.3037383556365967e-02</internalNodes>
          <leafValues>
            3.9220121502876282e-01 -1.9658376276493073e-01</leafValues></_>
        <_>
          <internalNodes>
            0 -1 138 -2.5918141007423401e-02</internalNodes>
          <leafValues>
            5.4587894678115845e-01 -1.2653619050979614e-01</leafValues></_>
        <_>
          <internalNodes>
            0 -1 267 3.3978253602981567e-02</internalNodes>
          <leafValues>
            -5.0650086253881454e-02 8.7148571014404297e-01</leafValues></_>
        <_>
          <internalNodes>
            0 -1 214 4.2128418572247028e-03</internalNodes>
          <leafValues>
            -1.9220173358917236e-01 3.2437780499458313e-01</leafValues></_>
        <_>
          <internalNodes>
            0 -1 275 1.4037474058568478e-02</internalNodes>
          <leafValues>
            -2.0037813484668732e-01 2.8648671507835388e-01</leafValues></_>
        <_>
          <internalNodes>
            0 -1 161 1.7352784052491188e-03</internalNodes>
          <leafValues>
            1.0225104540586472e-01 -6.5583151578903198e-01</leafValues></_>
        <_>
          <internalNodes>
            0 -1 186 5.1732296124100685e-03</internalNodes>
          <leafValues>
            7.7841356396675110e-02 -8.2008987665176392e-01</leafValues></_>
        <_>
          <internalNodes>
            0 -1 122 -8.4497332572937012e-03</internalNodes>
          <leafValues>
            2.8508716821670532e-01 -2.1474382281303406e-01</leafValues></_>
        <_>
          <internalNodes>
            0 -1 151 3.6552441306412220e-03</internalNodes>
          <leafValues>
            -1.2263387441635132e-01 5.3208547830581665e-01</leafValues></_>
        <_>
          <internalNodes>
            0 -1 179 1.2104158522561193e-03</internalNodes>
          <leafValues>
            -1.5617065131664276e-01 3.9832645654678345e-01</leafValues></_>
        <_>
          <internalNodes>
            0 -1 215 -3.8638450205326080e-03</internalNodes>
          <leafValues>
            -5.3501695394515991e-01 1.0515356063842773e-01</leafValues></_>
        <_>
          <internalNodes>
            0 -1 181 2.0263078622519970e-03</internalNodes>
          <leafValues>
            -1.9539588689804077e-01 3.0519357323646545e-01</leafValues></_>
        <_>
          <internalNodes>
            0 -1 178 -8.7505709379911423e-03</internalNodes>
          <leafValues>
            -9.8296964168548584e-01 6.9423131644725800e-02</leafValues></_>
        <_>
          <internalNodes>
            0 -1 90 -2.0933240652084351e-02</internalNodes>
          <leafValues>
            -1.0294128656387329e+00 6.8351104855537415e-02</leafValues></_>
        <_>
          <internalNodes>
            0 -1 228 4.9356929957866669e-03</internalNodes>
          <leafValues>
            -1.4273874461650848e-01 3.8664722442626953e-01</leafValues></_>
        <_>
          <internalNodes>
            0 -1 213 5.2571948617696762e-03</internalNodes>
          <leafValues>
            7.5207911431789398e-02 -9.1345977783203125e-01</leafValues></_>
        <_>
          <internalNodes>
            0 -1 230 3.4015793353319168e-03</internalNodes>
          <leafValues>
            -1.3121938705444336e-01 4.5422831177711487e-01</leafValues></_>
        <_>
          <internalNodes>
            0 -1 62 2.9521316755563021e-03</internalNodes>
          <leafValues>
            6.8229362368583679e-02 -9.8189210891723633e-01</leafValues></_>
        <_>
          <internalNodes>
            0 -1 97 8.5261585190892220e-03</internalNodes>
          <leafValues>
            -1.3268147408962250e-01 4.2560225725173950e-01</leafValues></_>
        <_>
          <internalNodes>
            0 -1 137 1.4986509457230568e-02</internalNodes>
          <leafValues>
            -1.4947409927845001e-01 3.7718015909194946e-01</leafValues></_>
        <_>
          <internalNodes>
            0 -1 32 -9.3619935214519501e-02</internalNodes>
          <leafValues>
            -6.2960684299468994e-01 9.3716010451316833e-02</leafValues></_>
        <_>
          <internalNodes>
            0 -1 270 -1.2982716783881187e-02</internalNodes>
          <leafValues>
            -1.3252564668655396e+00 5.7331334799528122e-02</leafValues></_>
        <_>
          <internalNodes>
            0 -1 243 2.4560294114053249e-03</internalNodes>
          <leafValues>
            -1.4741155505180359e-01 3.6960315704345703e-01</leafValues></_>
        <_>
          <internalNodes>
            0 -1 15 -1.1004617437720299e-02</internalNodes>
          <leafValues>
            5.2380317449569702e-01 -1.0976394265890121e-01</leafValues></_>
        <_>
          <internalNodes>
            0 -1 60 -5.8428337797522545e-03</internalNodes>
          <leafValues>
            -1.0802398920059204e+00 6.3304029405117035e-02</leafValues></_>
        <_>
          <internalNodes>
            0 -1 271 -4.4263480231165886e-03</internalNodes>
          <leafValues>
            3.5690790414810181e-01 -1.5330205857753754e-01</leafValues></_>
        <_>
          <internalNodes>
            0 -1 180 2.0463317632675171e-02</internalNodes>
          <leafValues>
            7.8057773411273956e-02 -8.1244623661041260e-01</leafValues></_>
        <_>
          <internalNodes>
            0 -1 204 1.3539540814235806e-03</internalNodes>
          <leafValues>
            -2.6791748404502869e-01 2.0223766565322876e-01</leafValues></_>
        <_>
          <internalNodes>
            0 -1 171 1.3046290259808302e-03</internalNodes>
          <leafValues>
            1.0602169483900070e-01 -5.2849066257476807e-01</leafValues></_>
        <_>
          <internalNodes>
            0 -1 211 -4.9705626443028450e-03</internalNodes>
          <leafValues>
            3.9933523535728455e-01 -1.3230748474597931e-01</leafValues></_>
        <_>
          <internalNodes>
            0 -1 211 4.6843755990266800e-03</internalNodes>
          <leafValues>
            -1.6592705249786377e-01 3.7861332297325134e-01</leafValues></_>
        <_>
          <internalNodes>
            0 -1 70 -4.7020940110087395e-03</internalNodes>
          <leafValues>
            -1.2212158441543579e+00 6.3312754034996033e-02</leafValues></_>
        <_>
          <internalNodes>
            0 -1 197 8.2499049603939056e-03</internalNodes>
          <leafValues>
            5.8127406984567642e-02 -1.3436919450759888e+00</leafValues></_></weakClassifiers></_>
    <!-- stage 10 -->
    <_>
      <maxWeakCount>42</maxWeakCount>
      <stageThreshold>-2.2168111801147461e+00</stageThreshold>
      <weakClassifiers>
        <_>
          <internalNodes>
            0 -1 35 2.2680848836898804e-01</internalNodes>
          <leafValues>
            -8.3566004037857056e-01 2.5937743484973907e-02</leafValues></_>
        <_>
          <internalNodes>
            0 -1 264 7.2135906666517258e-03</internalNodes>
          <leafValues>
            -3.8516494631767273e-01 1.9054839015007019e-01</leafValues></_>
        <_>
          <internalNodes>
            0 -1 18 -1.2415183708071709e-02</internalNodes>
          <leafValues>
            3.4328106045722961e-01 -1.9251132011413574e-01</leafValues></_>
        <_>
          <internalNodes>
            0 -1 150 -2.9332204721868038e-03</internalNodes>
          <leafValues>
            4.2567253112792969e-01 -1.3440364599227905e-01</leafValues></_>
        <_>
          <internalNodes>
            0 -1 142 -3.3933068625628948e-03</internalNodes>
          <leafValues>
            -7.7138268947601318e-01 8.0520242452621460e-02</leafValues></_>
        <_>
          <internalNodes>
            0 -1 10 5.7859243825078011e-03</internalNodes>
          <leafValues>
            -1.1037048697471619e-01 4.3686226010322571e-01</leafValues></_>
        <_>
          <internalNodes>
            0 -1 30 -8.1332139670848846e-03</internalNodes>
          <leafValues>
            2.2518442571163177e-01 -2.6581615209579468e-01</leafValues></_>
        <_>
          <internalNodes>
            0 -1 135 -1.1564745567739010e-02</internalNodes>
          <leafValues>
            5.7211911678314209e-01 -8.6135111749172211e-02</leafValues></_>
        <_>
          <internalNodes>
            0 -1 129 5.6335590779781342e-03</internalNodes>
          <leafValues>
            -2.6551169157028198e-01 2.0860566198825836e-01</leafValues></_>
        <_>
          <internalNodes>
            0 -1 132 -8.9326081797480583e-03</internalNodes>
          <leafValues>
            -8.9645117521286011e-01 8.3693318068981171e-02</leafValues></_>
        <_>
          <internalNodes>
            0 -1 220 3.1254950445145369e-03</internalNodes>
          <leafValues>
            -1.1997489631175995e-01 4.8047262430191040e-01</leafValues></_>
        <_>
          <internalNodes>
            0 -1 117 6.0453917831182480e-03</internalNodes>
          <leafValues>
            9.4863764941692352e-02 -6.3415008783340454e-01</leafValues></_>
        <_>
          <internalNodes>
            0 -1 253 1.9617248326539993e-03</internalNodes>
          <leafValues>
            -1.3494139909744263e-01 3.7057134509086609e-01</leafValues></_>
        <_>
          <internalNodes>
            0 -1 174 -1.3525190949440002e-01</internalNodes>
          <leafValues>
            -7.4842494726181030e-01 7.2106659412384033e-02</leafValues></_>
        <_>
          <internalNodes>
            0 -1 152 2.7079195715487003e-03</internalNodes>
          <leafValues>
            -1.2675660848617554e-01 4.1535273194313049e-01</leafValues></_>
        <_>
          <internalNodes>
            0 -1 162 4.4710868969559669e-03</internalNodes>
          <leafValues>
            6.1795156449079514e-02 -8.5593426227569580e-01</leafValues></_>
        <_>
          <internalNodes>
            0 -1 201 -2.9979523969814181e-04</internalNodes>
          <leafValues>
            2.6525959372520447e-01 -1.8303959071636200e-01</leafValues></_>
        <_>
          <internalNodes>
            0 -1 168 -5.3911330178380013e-03</internalNodes>
          <leafValues>
            -8.5946148633956909e-01 6.6665455698966980e-02</leafValues></_>
        <_>
          <internalNodes>
            0 -1 36 2.6267375797033310e-02</internalNodes>
          <leafValues>
            -1.2996684014797211e-01 4.4762411713600159e-01</leafValues></_>
        <_>
          <internalNodes>
            0 -1 190 -2.5101095438003540e-02</internalNodes>
          <leafValues>
            5.2722162008285522e-01 -1.2642720341682434e-01</leafValues></_>
        <_>
          <internalNodes>
            0 -1 164 -1.0765623301267624e-02</internalNodes>
          <leafValues>
            3.8608857989311218e-01 -1.3041859865188599e-01</leafValues></_>
        <_>
          <internalNodes>
            0 -1 212 -8.5183437913656235e-03</internalNodes>
          <leafValues>
            3.9999970793724060e-01 -1.2394191324710846e-01</leafValues></_>
        <_>
          <internalNodes>
            0 -1 285 -1.0028984397649765e-02</internalNodes>
          <leafValues>
            5.0069987773895264e-01 -1.0114258527755737e-01</leafValues></_>
        <_>
          <internalNodes>
            0 -1 284 8.0984355881810188e-03</internalNodes>
          <leafValues>
            -1.1928145587444305e-01 4.9052798748016357e-01</leafValues></_>
        <_>
          <internalNodes>
            0 -1 288 -1.1327902320772409e-03</internalNodes>
          <leafValues>
            -7.2786945104598999e-01 8.0649249255657196e-02</leafValues></_>
        <_>
          <internalNodes>
            0 -1 288 1.3360313605517149e-03</internalNodes>
          <leafValues>
            9.0020865201950073e-02 -7.0505660772323608e-01</leafValues></_>
        <_>
          <internalNodes>
            0 -1 265 4.4982531107962132e-04</internalNodes>
          <leafValues>
            -1.5079660713672638e-01 3.5026001930236816e-01</leafValues></_>
        <_>
          <internalNodes>
            0 -1 24 -6.4795226790010929e-03</internalNodes>
          <leafValues>
            7.9390501976013184e-01 -7.0202291011810303e-02</leafValues></_>
        <_>
          <internalNodes>
            0 -1 114 4.4734451919794083e-02</internalNodes>
          <leafValues>
            -1.9874495267868042e-01 2.4364680051803589e-01</leafValues></_>
        <_>
          <internalNodes>
            0 -1 121 -4.4598385691642761e-02</internalNodes>
          <leafValues>
            -1.0614107847213745e+00 5.5087059736251831e-02</leafValues></_>
        <_>
          <internalNodes>
            0 -1 251 2.2402434842661023e-04</internalNodes>
          <leafValues>
            -1.8698640167713165e-01 2.4682725965976715e-01</leafValues></_>
        <_>
          <internalNodes>
            0 -1 263 -5.4159732535481453e-03</internalNodes>
          <leafValues>
            3.2925933599472046e-01 -1.5853928029537201e-01</leafValues></_>
        <_>
          <internalNodes>
            0 -1 223 4.1829897090792656e-03</internalNodes>
          <leafValues>
            6.3253588974475861e-02 -9.1242539882659912e-01</leafValues></_>
        <_>
          <internalNodes>
            0 -1 82 -6.9241663441061974e-03</internalNodes>
          <leafValues>
            3.5674482583999634e-01 -1.3958832621574402e-01</leafValues></_>
        <_>
          <internalNodes>
            0 -1 232 2.2001415491104126e-03</internalNodes>
          <leafValues>
            -1.2108720093965530e-01 4.0321603417396545e-01</leafValues></_>
        <_>
          <internalNodes>
            0 -1 48 3.8246110081672668e-02</internalNodes>
          <leafValues>
            5.7373829185962677e-02 -9.6918278932571411e-01</leafValues></_>
        <_>
          <internalNodes>
            0 -1 241 -1.9178172806277871e-03</internalNodes>
          <leafValues>
            4.7251173853874207e-01 -1.0069775581359863e-01</leafValues></_>
        <_>
          <internalNodes>
            0 -1 194 3.6296956241130829e-03</internalNodes>
          <leafValues>
            6.7868612706661224e-02 -8.1583780050277710e-01</leafValues></_>
        <_>
          <internalNodes>
            0 -1 242 1.5396147500723600e-03</internalNodes>
          <leafValues>
            -1.5574188530445099e-01 3.1042239069938660e-01</leafValues></_>
        <_>
          <internalNodes>
            0 -1 233 -7.8443445265293121e-02</internalNodes>
          <leafValues>
            -8.1204915046691895e-01 6.6807150840759277e-02</leafValues></_>
        <_>
          <internalNodes>
            0 -1 219 -1.0718577541410923e-02</internalNodes>
          <leafValues>
            3.5028368234634399e-01 -1.5369999408721924e-01</leafValues></_>
        <_>
          <internalNodes>
            0 -1 94 3.3464911393821239e-03</internalNodes>
          <leafValues>
            6.1186388134956360e-02 -1.0196459293365479e+00</leafValues></_></weakClassifiers></_>
    <!-- stage 11 -->
    <_>
      <maxWeakCount>43</maxWeakCount>
      <stageThreshold>-2.1365368366241455e+00</stageThreshold>
      <weakClassifiers>
        <_>
          <internalNodes>
            0 -1 101 1.8908467888832092e-01</internalNodes>
          <leafValues>
            -8.2080203294754028e-01 -4.8503264784812927e-02</leafValues></_>
        <_>
          <internalNodes>
            0 -1 238 -1.9580505788326263e-02</internalNodes>
          <leafValues>
            3.0604079365730286e-01 -2.1324650943279266e-01</leafValues></_>
        <_>
          <internalNodes>
            0 -1 83 2.3929215967655182e-02</internalNodes>
          <leafValues>
            -2.7343350648880005e-01 2.5233724713325500e-01</leafValues></_>
        <_>
          <internalNodes>
            0 -1 74 -1.7805200070142746e-02</internalNodes>
          <leafValues>
            3.9244312047958374e-01 -1.4799322187900543e-01</leafValues></_>
        <_>
          <internalNodes>
            0 -1 290 -5.4553980007767677e-03</internalNodes>
          <leafValues>
            3.6055323481559753e-01 -1.5567554533481598e-01</leafValues></_>
        <_>
          <internalNodes>
            0 -1 175 3.9509415626525879e-02</internalNodes>
          <leafValues>
            9.7698196768760681e-02 -6.0581195354461670e-01</leafValues></_>
        <_>
          <internalNodes>
            0 -1 23 4.3585207313299179e-03</internalNodes>
          <leafValues>
            -2.3574525117874146e-01 2.4449943006038666e-01</leafValues></_>
        <_>
          <internalNodes>
            0 -1 173 3.5606713499873877e-03</internalNodes>
          <leafValues>
            1.0381820797920227e-01 -7.7966868877410889e-01</leafValues></_>
        <_>
          <internalNodes>
            0 -1 29 -2.0242452621459961e-02</internalNodes>
          <leafValues>
            6.1241400241851807e-01 -1.0027316212654114e-01</leafValues></_>
        <_>
          <internalNodes>
            0 -1 235 2.3461380042135715e-03</internalNodes>
          <leafValues>
            -1.6991707682609558e-01 3.1220716238021851e-01</leafValues></_>
        <_>
          <internalNodes>
            0 -1 145 4.5793186873197556e-03</internalNodes>
          <leafValues>
            -1.7051509022712708e-01 3.2617330551147461e-01</leafValues></_>
        <_>
          <internalNodes>
            0 -1 115 -1.9066322594881058e-02</internalNodes>
          <leafValues>
            4.3370595574378967e-01 -1.2035265564918518e-01</leafValues></_>
        <_>
          <internalNodes>
            0 -1 5 -3.1164254993200302e-02</internalNodes>
          <leafValues>
            4.5252162218093872e-01 -1.1021845787763596e-01</leafValues></_>
        <_>
          <internalNodes>
            0 -1 104 -3.4375560935586691e-03</internalNodes>
          <leafValues>
            4.5718511939048767e-01 -1.0845690220594406e-01</leafValues></_>
        <_>
          <internalNodes>
            0 -1 106 2.1357247605919838e-03</internalNodes>
          <leafValues>
            -1.6252347826957703e-01 3.9513209462165833e-01</leafValues></_>
        <_>
          <internalNodes>
            0 -1 177 -4.8827836290001869e-03</internalNodes>
          <leafValues>
            -7.3333901166915894e-01 6.5476506948471069e-02</leafValues></_>
        <_>
          <internalNodes>
            0 -1 247 5.1345146493986249e-04</internalNodes>
          <leafValues>
            -1.3501596450805664e-01 3.3179283142089844e-01</leafValues></_>
        <_>
          <internalNodes>
            0 -1 176 7.6210107654333115e-03</internalNodes>
          <leafValues>
            6.4088419079780579e-02 -8.1973814964294434e-01</leafValues></_>
        <_>
          <internalNodes>
            0 -1 184 -5.9179593808948994e-03</internalNodes>
          <leafValues>
            3.9382714033126831e-01 -1.1345712095499039e-01</leafValues></_>
        <_>
          <internalNodes>
            0 -1 109 3.7799123674631119e-04</internalNodes>
          <leafValues>
            -1.5910160541534424e-01 3.0596244335174561e-01</leafValues></_>
        <_>
          <internalNodes>
            0 -1 128 -3.4290871117264032e-03</internalNodes>
          <leafValues>
            -5.4529666900634766e-01 9.7449705004692078e-02</leafValues></_>
        <_>
          <internalNodes>
            0 -1 160 2.2312439978122711e-03</internalNodes>
          <leafValues>
            6.4833328127861023e-02 -8.1365412473678589e-01</leafValues></_>
        <_>
          <internalNodes>
            0 -1 274 -9.7241289913654327e-03</internalNodes>
          <leafValues>
            3.2153519988059998e-01 -1.4620643854141235e-01</leafValues></_>
        <_>
          <internalNodes>
            0 -1 292 -2.0729688927531242e-02</internalNodes>
          <leafValues>
            5.7095408439636230e-01 -9.4559326767921448e-02</leafValues></_>
        <_>
          <internalNodes>
            0 -1 187 -6.2372907996177673e-03</internalNodes>
          <leafValues>
            4.2518520355224609e-01 -1.1609196662902832e-01</leafValues></_>
        <_>
          <internalNodes>
            0 -1 84 -1.6898053884506226e-01</internalNodes>
          <leafValues>
            -9.1614890098571777e-01 6.0030419379472733e-02</leafValues></_>
        <_>
          <internalNodes>
            0 -1 27 5.7991556823253632e-03</internalNodes>
          <leafValues>
            -1.1469110846519470e-01 4.1106083989143372e-01</leafValues></_>
        <_>
          <internalNodes>
            0 -1 167 -3.9988080970942974e-04</internalNodes>
          <leafValues>
            -4.2078170180320740e-01 1.0832874476909637e-01</leafValues></_>
        <_>
          <internalNodes>
            0 -1 95 -2.8413091786205769e-03</internalNodes>
          <leafValues>
            6.3840758800506592e-01 -7.9375110566616058e-02</leafValues></_>
        <_>
          <internalNodes>
            0 -1 107 -2.9608877375721931e-03</internalNodes>
          <leafValues>
            -1.1135544776916504e+00 5.3921468555927277e-02</leafValues></_>
        <_>
          <internalNodes>
            0 -1 183 7.3852005880326033e-04</internalNodes>
          <leafValues>
            -1.5366922318935394e-01 3.3314588665962219e-01</leafValues></_>
        <_>
          <internalNodes>
            0 -1 200 1.2931589735671878e-03</internalNodes>
          <leafValues>
            -2.8273725509643555e-01 1.7763121426105499e-01</leafValues></_>
        <_>
          <internalNodes>
            0 -1 289 -8.1861100625246763e-04</internalNodes>
          <leafValues>
            -7.4874192476272583e-01 7.1963414549827576e-02</leafValues></_>
        <_>
          <internalNodes>
            0 -1 4 1.7762219905853271e-01</internalNodes>
          <leafValues>
            4.8901207745075226e-02 -1.2327176332473755e+00</leafValues></_>
        <_>
          <internalNodes>
            0 -1 277 6.0270857065916061e-03</internalNodes>
          <leafValues>
            5.2657179534435272e-02 -1.0387164354324341e+00</leafValues></_>
        <_>
          <internalNodes>
            0 -1 244 2.7663178741931915e-02</internalNodes>
          <leafValues>
            4.5039318501949310e-02 -1.2740267515182495e+00</leafValues></_>
        <_>
          <internalNodes>
            0 -1 281 5.7380259037017822e-02</internalNodes>
          <leafValues>
            5.9693414717912674e-02 -8.1969314813613892e-01</leafValues></_>
        <_>
          <internalNodes>
            0 -1 231 3.1900815665721893e-02</internalNodes>
          <leafValues>
            5.4799545556306839e-02 -1.0475629568099976e+00</leafValues></_>
        <_>
          <internalNodes>
            0 -1 261 -3.9203315973281860e-03</internalNodes>
          <leafValues>
            3.0418148636817932e-01 -1.3970407843589783e-01</leafValues></_>
        <_>
          <internalNodes>
            0 -1 40 3.6567584611475468e-03</internalNodes>
          <leafValues>
            5.9049516916275024e-02 -9.3350112438201904e-01</leafValues></_>
        <_>
          <internalNodes>
            0 -1 241 -1.8233563750982285e-03</internalNodes>
          <leafValues>
            4.6621206402778625e-01 -1.0760952532291412e-01</leafValues></_>
        <_>
          <internalNodes>
            0 -1 105 -2.1822734270244837e-03</internalNodes>
          <leafValues>
            -1.0633375644683838e+00 5.6615438312292099e-02</leafValues></_>
        <_>
          <internalNodes>
            0 -1 80 9.7514726221561432e-03</internalNodes>
          <leafValues>
            -1.0601308196783066e-01 4.7750121355056763e-01</leafValues></_></weakClassifiers></_></stages>
  <features>
    <_>
      <rects>
        <_>
          0 0 8 8 -1.</_>
        <_>
          0 0 4 4 2.</_>
        <_>
          4 4 4 4 2.</_></rects>
      <tilted>0</tilted></_>
    <_>
      <rects>
        <_>
          0 0 20 1 -1.</_>
        <_>
          5 0 10 1 2.</_></rects>
      <tilted>0</tilted></_>
    <_>
      <rects>
        <_>
          0 0 10 6 -1.</_>
        <_>
          0 0 5 3 2.</_>
        <_>
          5 3 5 3 2.</_></rects>
      <tilted>0</tilted></_>
    <_>
      <rects>
        <_>
          0 0 10 8 -1.</_>
        <_>
          0 0 5 4 2.</_>
        <_>
          5 4 5 4 2.</_></rects>
      <tilted>0</tilted></_>
    <_>
      <rects>
        <_>
          0 1 9 14 -1.</_>
        <_>
          0 8 9 7 2.</_></rects>
      <tilted>0</tilted></_>
    <_>
      <rects>
        <_>
          0 3 4 22 -1.</_>
        <_>
          0 3 2 11 2.</_>
        <_>
          2 14 2 11 2.</_></rects>
      <tilted>0</tilted></_>
    <_>
      <rects>
        <_>
          0 4 12 5 -1.</_>
        <_>
          3 4 6 5 2.</_></rects>
      <tilted>0</tilted></_>
    <_>
      <rects>
        <_>
          0 5 2 22 -1.</_>
        <_>
          0 5 1 11 2.</_>
        <_>
          1 16 1 11 2.</_></rects>
      <tilted>0</tilted></_>
    <_>
      <rects>
        <_>
          0 5 8 5 -1.</_>
        <_>
          2 5 4 5 2.</_></rects>
      <tilted>0</tilted></_>
    <_>
      <rects>
        <_>
          0 7 2 16 -1.</_>
        <_>
          0 7 1 8 2.</_>
        <_>
          1 15 1 8 2.</_></rects>
      <tilted>0</tilted></_>
    <_>
      <rects>
        <_>
          0 7 4 10 -1.</_>
        <_>
          1 7 2 10 2.</_></rects>
      <tilted>0</tilted></_>
    <_>
      <rects>
        <_>
          0 7 4 20 -1.</_>
        <_>
          0 7 2 10 2.</_>
        <_>
          2 17 2 10 2.</_></rects>
      <tilted>0</tilted></_>
    <_>
      <rects>
        <_>
          0 8 2 16 -1.</_>
        <_>
          0 8 1 8 2.</_>
        <_>
          1 16 1 8 2.</_></rects>
      <tilted>0</tilted></_>
    <_>
      <rects>
        <_>
          0 8 2 18 -1.</_>
        <_>
          0 8 1 9 2.</_>
        <_>
          1 17 1 9 2.</_></rects>
      <tilted>0</tilted></_>
    <_>
      <rects>
        <_>
          0 8 2 21 -1.</_>
        <_>
          1 8 1 21 2.</_></rects>
      <tilted>0</tilted></_>
    <_>
      <rects>
        <_>
          0 9 1 12 -1.</_>
        <_>
          0 12 1 6 2.</_></rects>
      <tilted>0</tilted></_>
    <_>
      <rects>
        <_>
          0 9 2 8 -1.</_>
        <_>
          0 9 1 4 2.</_>
        <_>
          1 13 1 4 2.</_></rects>
      <tilted>0</tilted></_>
    <_>
      <rects>
        <_>
          0 9 3 5 -1.</_>
        <_>
          1 9 1 5 3.</_></rects>
      <tilted>0</tilted></_>
    <_>
      <rects>
        <_>
          0 9 4 14 -1.</_>
        <_>
          1 9 2 14 2.</_></rects>
      <tilted>0</tilted></_>
    <_>
      <rects>
        <_>
          0 10 3 2 -1.</_>
        <_>
          1 10 1 2 3.</_></rects>
      <tilted>0</tilted></_>
    <_>
      <rects>
        <_>
          0 12 6 3 -1.</_>
        <_>
          3 12 3 3 2.</_></rects>
      <tilted>0</tilted></_>
    <_>
      <rects>
        <_>
          0 14 4 4 -1.</_>
        <_>
          2 14 2 4 2.</_></rects>
      <tilted>0</tilted></_>
    <_>
      <rects>
        <_>
          0 14 4 5 -1.</_>
        <_>
          2 14 2 5 2.</_></rects>
      <tilted>0</tilted></_>
    <_>
      <rects>
        <_>
          0 15 4 3 -1.</_>
        <_>
          2 15 2 3 2.</_></rects>
      <tilted>0</tilted></_>
    <_>
      <rects>
        <_>
          0 16 2 4 -1.</_>
        <_>
          0 16 1 2 2.</_>
        <_>
          1 18 1 2 2.</_></rects>
      <tilted>0</tilted></_>
    <_>
      <rects>
        <_>
          0 18 4 7 -1.</_>
        <_>
          2 18 2 7 2.</_></rects>
      <tilted>0</tilted></_>
    <_>
      <rects>
        <_>
          0 26 19 4 -1.</_>
        <_>
          0 28 19 2 2.</_></rects>
      <tilted>0</tilted></_>
    <_>
      <rects>
        <_>
          0 28 16 2 -1.</_>
        <_>
          0 28 8 1 2.</_>
        <_>
          8 29 8 1 2.</_></rects>
      <tilted>0</tilted></_>
    <_>
      <rects>
        <_>
          0 28 20 2 -1.</_>
        <_>
          0 29 20 1 2.</_></rects>
      <tilted>0</tilted></_>
    <_>
      <rects>
        <_>
          0 29 20 1 -1.</_>
        <_>
          5 29 10 1 2.</_></rects>
      <tilted>0</tilted></_>
    <_>
      <rects>
        <_>
          1 0 8 1 -1.</_>
        <_>
          3 2 4 1 2.</_></rects>
      <tilted>1</tilted></_>
    <_>
      <rects>
        <_>
          1 0 8 4 -1.</_>
        <_>
          1 0 4 2 2.</_>
        <_>
          5 2 4 2 2.</_></rects>
      <tilted>0</tilted></_>
    <_>
      <rects>
        <_>
          1 0 18 30 -1.</_>
        <_>
          10 0 9 30 2.</_></rects>
      <tilted>0</tilted></_>
    <_>
      <rects>
        <_>
          1 0 19 2 -1.</_>
        <_>
          1 1 19 1 2.</_></rects>
      <tilted>0</tilted></_>
    <_>
      <rects>
        <_>
          1 1 18 6 -1.</_>
        <_>
          7 3 6 2 9.</_></rects>
      <tilted>0</tilted></_>
    <_>
      <rects>
        <_>
          1 2 18 6 -1.</_>
        <_>
          7 4 6 2 9.</_></rects>
      <tilted>0</tilted></_>
    <_>
      <rects>
        <_>
          1 3 9 5 -1.</_>
        <_>
          4 3 3 5 3.</_></rects>
      <tilted>0</tilted></_>
    <_>
      <rects>
        <_>
          1 5 6 15 -1.</_>
        <_>
          4 5 3 15 2.</_></rects>
      <tilted>0</tilted></_>
    <_>
      <rects>
        <_>
          1 11 9 9 -1.</_>
        <_>
          4 11 3 9 3.</_></rects>
      <tilted>0</tilted></_>
    <_>
      <rects>
        <_>
          1 11 6 10 -1.</_>
        <_>
          4 11 3 10 2.</_></rects>
      <tilted>0</tilted></_>
    <_>
      <rects>
        <_>
          1 12 5 4 -1.</_>
        <_>
          1 13 5 2 2.</_></rects>
      <tilted>0</tilted></_>
    <_>
      <rects>
        <_>
          1 12 7 3 -1.</_>
        <_>
          1 13 7 1 3.</_></rects>
      <tilted>0</tilted></_>
    <_>
      <rects>
        <_>
          1 13 7 4 -1.</_>
        <_>
          1 14 7 2 2.</_></rects>
      <tilted>0</tilted></_>
    <_>
      <rects>
        <_>
          1 15 4 6 -1.</_>
        <_>
          3 15 2 6 2.</_></rects>
      <tilted>0</tilted></_>
    <_>
      <rects>
        <_>
          1 15 4 4 -1.</_>
        <_>
          1 16 4 2 2.</_></rects>
      <tilted>0</tilted></_>
    <_>
      <rects>
        <_>
          1 15 5 3 -1.</_>
        <_>
          1 16 5 1 3.</_></rects>
      <tilted>0</tilted></_>
    <_>
      <rects>
        <_>
          1 15 6 6 -1.</_>
        <_>
          1 17 6 2 3.</_></rects>
      <tilted>0</tilted></_>
    <_>
      <rects>
        <_>
          1 17 5 3 -1.</_>
        <_>
          1 18 5 1 3.</_></rects>
      <tilted>0</tilted></_>
    <_>
      <rects>
        <_>
          1 17 10 9 -1.</_>
        <_>
          1 20 10 3 3.</_></rects>
      <tilted>0</tilted></_>
    <_>
      <rects>
        <_>
          2 0 16 1 -1.</_>
        <_>
          6 0 8 1 2.</_></rects>
      <tilted>0</tilted></_>
    <_>
      <rects>
        <_>
          2 0 15 4 -1.</_>
        <_>
          2 1 15 2 2.</_></rects>
      <tilted>0</tilted></_>
    <_>
      <rects>
        <_>
          2 0 17 6 -1.</_>
        <_>
          2 2 17 2 3.</_></rects>
      <tilted>0</tilted></_>
    <_>
      <rects>
        <_>
          2 0 18 6 -1.</_>
        <_>
          2 2 18 2 3.</_></rects>
      <tilted>0</tilted></_>
    <_>
      <rects>
        <_>
          2 1 18 6 -1.</_>
        <_>
          8 3 6 2 9.</_></rects>
      <tilted>0</tilted></_>
    <_>
      <rects>
        <_>
          2 1 14 6 -1.</_>
        <_>
          2 4 14 3 2.</_></rects>
      <tilted>0</tilted></_>
    <_>
      <rects>
        <_>
          2 1 15 8 -1.</_>
        <_>
          2 5 15 4 2.</_></rects>
      <tilted>0</tilted></_>
    <_>
      <rects>
        <_>
          2 7 10 9 -1.</_>
        <_>
          2 10 10 3 3.</_></rects>
      <tilted>0</tilted></_>
    <_>
      <rects>
        <_>
          2 10 5 4 -1.</_>
        <_>
          2 11 5 2 2.</_></rects>
      <tilted>0</tilted></_>
    <_>
      <rects>
        <_>
          2 11 3 2 -1.</_>
        <_>
          2 12 3 1 2.</_></rects>
      <tilted>0</tilted></_>
    <_>
      <rects>
        <_>
          2 11 6 6 -1.</_>
        <_>
          2 13 6 2 3.</_></rects>
      <tilted>0</tilted></_>
    <_>
      <rects>
        <_>
          2 12 3 6 -1.</_>
        <_>
          2 14 3 2 3.</_></rects>
      <tilted>0</tilted></_>
    <_>
      <rects>
        <_>
          2 12 5 3 -1.</_>
        <_>
          2 13 5 1 3.</_></rects>
      <tilted>0</tilted></_>
    <_>
      <rects>
        <_>
          2 13 3 4 -1.</_>
        <_>
          2 14 3 2 2.</_></rects>
      <tilted>0</tilted></_>
    <_>
      <rects>
        <_>
          2 13 4 3 -1.</_>
        <_>
          2 14 4 1 3.</_></rects>
      <tilted>0</tilted></_>
    <_>
      <rects>
        <_>
          2 13 5 3 -1.</_>
        <_>
          2 14 5 1 3.</_></rects>
      <tilted>0</tilted></_>
    <_>
      <rects>
        <_>
          2 14 4 2 -1.</_>
        <_>
          2 14 2 2 2.</_></rects>
      <tilted>1</tilted></_>
    <_>
      <rects>
        <_>
          2 14 5 4 -1.</_>
        <_>
          2 15 5 2 2.</_></rects>
      <tilted>0</tilted></_>
    <_>
      <rects>
        <_>
          2 15 4 4 -1.</_>
        <_>
          2 16 4 2 2.</_></rects>
      <tilted>0</tilted></_>
    <_>
      <rects>
        <_>
          2 15 7 3 -1.</_>
        <_>
          2 16 7 1 3.</_></rects>
      <tilted>0</tilted></_>
    <_>
      <rects>
        <_>
          2 16 4 3 -1.</_>
        <_>
          2 17 4 1 3.</_></rects>
      <tilted>0</tilted></_>
    <_>
      <rects>
        <_>
          2 17 6 2 -1.</_>
        <_>
          2 18 6 1 2.</_></rects>
      <tilted>0</tilted></_>
    <_>
      <rects>
        <_>
          2 18 5 3 -1.</_>
        <_>
          2 19 5 1 3.</_></rects>
      <tilted>0</tilted></_>
    <_>
      <rects>
        <_>
          2 19 4 3 -1.</_>
        <_>
          2 20 4 1 3.</_></rects>
      <tilted>0</tilted></_>
    <_>
      <rects>
        <_>
          2 28 16 2 -1.</_>
        <_>
          2 29 16 1 2.</_></rects>
      <tilted>0</tilted></_>
    <_>
      <rects>
        <_>
          3 0 4 3 -1.</_>
        <_>
          4 1 2 3 2.</_></rects>
      <tilted>1</tilted></_>
    <_>
      <rects>
        <_>
          3 0 6 3 -1.</_>
        <_>
          5 2 2 3 3.</_></rects>
      <tilted>1</tilted></_>
    <_>
      <rects>
        <_>
          3 0 15 2 -1.</_>
        <_>
          3 1 15 1 2.</_></rects>
      <tilted>0</tilted></_>
    <_>
      <rects>
        <_>
          3 1 13 2 -1.</_>
        <_>
          3 2 13 1 2.</_></rects>
      <tilted>0</tilted></_>
    <_>
      <rects>
        <_>
          3 1 14 4 -1.</_>
        <_>
          3 3 14 2 2.</_></rects>
      <tilted>0</tilted></_>
    <_>
      <rects>
        <_>
          3 1 14 18 -1.</_>
        <_>
          3 7 14 6 3.</_></rects>
      <tilted>0</tilted></_>
    <_>
      <rects>
        <_>
          3 3 3 3 -1.</_>
        <_>
          4 4 1 3 3.</_></rects>
      <tilted>1</tilted></_>
    <_>
      <rects>
        <_>
          3 3 16 2 -1.</_>
        <_>
          7 3 8 2 2.</_></rects>
      <tilted>0</tilted></_>
    <_>
      <rects>
        <_>
          3 5 3 2 -1.</_>
        <_>
          4 6 1 2 3.</_></rects>
      <tilted>1</tilted></_>
    <_>
      <rects>
        <_>
          3 5 6 20 -1.</_>
        <_>
          5 5 2 20 3.</_></rects>
      <tilted>0</tilted></_>
    <_>
      <rects>
        <_>
          3 5 15 15 -1.</_>
        <_>
          8 10 5 5 9.</_></rects>
      <tilted>0</tilted></_>
    <_>
      <rects>
        <_>
          3 6 14 12 -1.</_>
        <_>
          3 9 14 6 2.</_></rects>
      <tilted>0</tilted></_>
    <_>
      <rects>
        <_>
          3 8 4 4 -1.</_>
        <_>
          3 9 4 2 2.</_></rects>
      <tilted>0</tilted></_>
    <_>
      <rects>
        <_>
          3 9 4 6 -1.</_>
        <_>
          3 11 4 2 3.</_></rects>
      <tilted>0</tilted></_>
    <_>
      <rects>
        <_>
          3 9 5 4 -1.</_>
        <_>
          3 10 5 2 2.</_></rects>
      <tilted>0</tilted></_>
    <_>
      <rects>
        <_>
          3 9 9 8 -1.</_>
        <_>
          3 13 9 4 2.</_></rects>
      <tilted>0</tilted></_>
    <_>
      <rects>
        <_>
          3 9 10 6 -1.</_>
        <_>
          3 12 10 3 2.</_></rects>
      <tilted>0</tilted></_>
    <_>
      <rects>
        <_>
          3 10 14 4 -1.</_>
        <_>
          10 10 7 4 2.</_></rects>
      <tilted>0</tilted></_>
    <_>
      <rects>
        <_>
          3 11 5 4 -1.</_>
        <_>
          3 12 5 2 2.</_></rects>
      <tilted>0</tilted></_>
    <_>
      <rects>
        <_>
          3 12 4 10 -1.</_>
        <_>
          5 12 2 10 2.</_></rects>
      <tilted>0</tilted></_>
    <_>
      <rects>
        <_>
          3 17 4 3 -1.</_>
        <_>
          3 18 4 1 3.</_></rects>
      <tilted>0</tilted></_>
    <_>
      <rects>
        <_>
          3 27 1 3 -1.</_>
        <_>
          3 28 1 1 3.</_></rects>
      <tilted>0</tilted></_>
    <_>
      <rects>
        <_>
          3 28 14 2 -1.</_>
        <_>
          3 29 14 1 2.</_></rects>
      <tilted>0</tilted></_>
    <_>
      <rects>
        <_>
          3 28 17 2 -1.</_>
        <_>
          3 29 17 1 2.</_></rects>
      <tilted>0</tilted></_>
    <_>
      <rects>
        <_>
          4 0 4 4 -1.</_>
        <_>
          5 1 2 4 2.</_></rects>
      <tilted>1</tilted></_>
    <_>
      <rects>
        <_>
          4 0 6 4 -1.</_>
        <_>
          6 2 2 4 3.</_></rects>
      <tilted>1</tilted></_>
    <_>
      <rects>
        <_>
          4 0 14 4 -1.</_>
        <_>
          4 1 14 2 2.</_></rects>
      <tilted>0</tilted></_>
    <_>
      <rects>
        <_>
          4 1 15 6 -1.</_>
        <_>
          9 3 5 2 9.</_></rects>
      <tilted>0</tilted></_>
    <_>
      <rects>
        <_>
          4 7 15 12 -1.</_>
        <_>
          9 11 5 4 9.</_></rects>
      <tilted>0</tilted></_>
    <_>
      <rects>
        <_>
          4 7 9 16 -1.</_>
        <_>
          4 15 9 8 2.</_></rects>
      <tilted>0</tilted></_>
    <_>
      <rects>
        <_>
          4 12 3 5 -1.</_>
        <_>
          5 12 1 5 3.</_></rects>
      <tilted>0</tilted></_>
    <_>
      <rects>
        <_>
          4 12 3 3 -1.</_>
        <_>
          4 13 3 1 3.</_></rects>
      <tilted>0</tilted></_>
    <_>
      <rects>
        <_>
          4 13 3 2 -1.</_>
        <_>
          5 13 1 2 3.</_></rects>
      <tilted>0</tilted></_>
    <_>
      <rects>
        <_>
          4 13 3 4 -1.</_>
        <_>
          4 14 3 2 2.</_></rects>
      <tilted>0</tilted></_>
    <_>
      <rects>
        <_>
          4 17 6 2 -1.</_>
        <_>
          6 19 2 2 3.</_></rects>
      <tilted>1</tilted></_>
    <_>
      <rects>
        <_>
          4 18 2 2 -1.</_>
        <_>
          4 18 1 1 2.</_>
        <_>
          5 19 1 1 2.</_></rects>
      <tilted>0</tilted></_>
    <_>
      <rects>
        <_>
          4 18 2 4 -1.</_>
        <_>
          4 18 1 2 2.</_>
        <_>
          5 20 1 2 2.</_></rects>
      <tilted>0</tilted></_>
    <_>
      <rects>
        <_>
          5 0 4 5 -1.</_>
        <_>
          6 1 2 5 2.</_></rects>
      <tilted>1</tilted></_>
    <_>
      <rects>
        <_>
          5 0 6 5 -1.</_>
        <_>
          7 2 2 5 3.</_></rects>
      <tilted>1</tilted></_>
    <_>
      <rects>
        <_>
          5 0 11 6 -1.</_>
        <_>
          5 3 11 3 2.</_></rects>
      <tilted>0</tilted></_>
    <_>
      <rects>
        <_>
          5 1 10 6 -1.</_>
        <_>
          5 4 10 3 2.</_></rects>
      <tilted>0</tilted></_>
    <_>
      <rects>
        <_>
          5 2 3 4 -1.</_>
        <_>
          6 3 1 4 3.</_></rects>
      <tilted>1</tilted></_>
    <_>
      <rects>
        <_>
          5 2 4 1 -1.</_>
        <_>
          7 2 2 1 2.</_></rects>
      <tilted>0</tilted></_>
    <_>
      <rects>
        <_>
          5 4 9 2 -1.</_>
        <_>
          5 4 9 1 2.</_></rects>
      <tilted>1</tilted></_>
    <_>
      <rects>
        <_>
          5 4 12 16 -1.</_>
        <_>
          5 8 12 8 2.</_></rects>
      <tilted>0</tilted></_>
    <_>
      <rects>
        <_>
          5 5 12 8 -1.</_>
        <_>
          5 5 6 4 2.</_>
        <_>
          11 9 6 4 2.</_></rects>
      <tilted>0</tilted></_>
    <_>
      <rects>
        <_>
          5 7 10 20 -1.</_>
        <_>
          5 17 10 10 2.</_></rects>
      <tilted>0</tilted></_>
    <_>
      <rects>
        <_>
          5 10 14 6 -1.</_>
        <_>
          12 10 7 6 2.</_></rects>
      <tilted>0</tilted></_>
    <_>
      <rects>
        <_>
          5 12 6 6 -1.</_>
        <_>
          7 12 2 6 3.</_></rects>
      <tilted>0</tilted></_>
    <_>
      <rects>
        <_>
          5 12 4 14 -1.</_>
        <_>
          5 12 2 7 2.</_>
        <_>
          7 19 2 7 2.</_></rects>
      <tilted>0</tilted></_>
    <_>
      <rects>
        <_>
          5 12 4 16 -1.</_>
        <_>
          5 12 2 8 2.</_>
        <_>
          7 20 2 8 2.</_></rects>
      <tilted>0</tilted></_>
    <_>
      <rects>
        <_>
          5 13 3 3 -1.</_>
        <_>
          6 13 1 3 3.</_></rects>
      <tilted>0</tilted></_>
    <_>
      <rects>
        <_>
          5 13 15 4 -1.</_>
        <_>
          10 13 5 4 3.</_></rects>
      <tilted>0</tilted></_>
    <_>
      <rects>
        <_>
          5 14 3 2 -1.</_>
        <_>
          6 14 1 2 3.</_></rects>
      <tilted>0</tilted></_>
    <_>
      <rects>
        <_>
          5 15 4 4 -1.</_>
        <_>
          6 16 2 4 2.</_></rects>
      <tilted>1</tilted></_>
    <_>
      <rects>
        <_>
          5 16 6 6 -1.</_>
        <_>
          5 16 3 3 2.</_>
        <_>
          8 19 3 3 2.</_></rects>
      <tilted>0</tilted></_>
    <_>
      <rects>
        <_>
          5 17 3 3 -1.</_>
        <_>
          6 18 1 3 3.</_></rects>
      <tilted>1</tilted></_>
    <_>
      <rects>
        <_>
          5 18 2 4 -1.</_>
        <_>
          5 18 1 2 2.</_>
        <_>
          6 20 1 2 2.</_></rects>
      <tilted>0</tilted></_>
    <_>
      <rects>
        <_>
          5 18 6 2 -1.</_>
        <_>
          7 20 2 2 3.</_></rects>
      <tilted>1</tilted></_>
    <_>
      <rects>
        <_>
          6 0 4 6 -1.</_>
        <_>
          7 1 2 6 2.</_></rects>
      <tilted>1</tilted></_>
    <_>
      <rects>
        <_>
          6 0 6 6 -1.</_>
        <_>
          8 2 2 6 3.</_></rects>
      <tilted>1</tilted></_>
    <_>
      <rects>
        <_>
          6 0 12 2 -1.</_>
        <_>
          6 0 6 1 2.</_>
        <_>
          12 1 6 1 2.</_></rects>
      <tilted>0</tilted></_>
    <_>
      <rects>
        <_>
          6 0 9 6 -1.</_>
        <_>
          6 2 9 2 3.</_></rects>
      <tilted>0</tilted></_>
    <_>
      <rects>
        <_>
          6 0 10 6 -1.</_>
        <_>
          6 2 10 2 3.</_></rects>
      <tilted>0</tilted></_>
    <_>
      <rects>
        <_>
          6 1 4 5 -1.</_>
        <_>
          7 2 2 5 2.</_></rects>
      <tilted>1</tilted></_>
    <_>
      <rects>
        <_>
          6 1 4 6 -1.</_>
        <_>
          7 2 2 6 2.</_></rects>
      <tilted>1</tilted></_>
    <_>
      <rects>
        <_>
          6 1 6 4 -1.</_>
        <_>
          8 3 2 4 3.</_></rects>
      <tilted>1</tilted></_>
    <_>
      <rects>
        <_>
          6 1 10 4 -1.</_>
        <_>
          6 2 10 2 2.</_></rects>
      <tilted>0</tilted></_>
    <_>
      <rects>
        <_>
          6 2 3 4 -1.</_>
        <_>
          7 2 1 4 3.</_></rects>
      <tilted>0</tilted></_>
    <_>
      <rects>
        <_>
          6 2 4 4 -1.</_>
        <_>
          7 2 2 4 2.</_></rects>
      <tilted>0</tilted></_>
    <_>
      <rects>
        <_>
          6 2 3 5 -1.</_>
        <_>
          7 3 1 5 3.</_></rects>
      <tilted>1</tilted></_>
    <_>
      <rects>
        <_>
          6 4 6 2 -1.</_>
        <_>
          6 5 6 1 2.</_></rects>
      <tilted>0</tilted></_>
    <_>
      <rects>
        <_>
          6 4 6 2 -1.</_>
        <_>
          6 4 6 1 2.</_></rects>
      <tilted>1</tilted></_>
    <_>
      <rects>
        <_>
          6 4 6 3 -1.</_>
        <_>
          5 5 6 1 3.</_></rects>
      <tilted>1</tilted></_>
    <_>
      <rects>
        <_>
          6 9 12 5 -1.</_>
        <_>
          9 9 6 5 2.</_></rects>
      <tilted>0</tilted></_>
    <_>
      <rects>
        <_>
          6 12 11 16 -1.</_>
        <_>
          6 20 11 8 2.</_></rects>
      <tilted>0</tilted></_>
    <_>
      <rects>
        <_>
          6 13 3 2 -1.</_>
        <_>
          7 13 1 2 3.</_></rects>
      <tilted>0</tilted></_>
    <_>
      <rects>
        <_>
          6 13 3 3 -1.</_>
        <_>
          7 13 1 3 3.</_></rects>
      <tilted>0</tilted></_>
    <_>
      <rects>
        <_>
          6 14 3 3 -1.</_>
        <_>
          7 14 1 3 3.</_></rects>
      <tilted>0</tilted></_>
    <_>
      <rects>
        <_>
          6 15 2 1 -1.</_>
        <_>
          7 15 1 1 2.</_></rects>
      <tilted>0</tilted></_>
    <_>
      <rects>
        <_>
          6 17 6 3 -1.</_>
        <_>
          8 19 2 3 3.</_></rects>
      <tilted>1</tilted></_>
    <_>
      <rects>
        <_>
          6 18 2 2 -1.</_>
        <_>
          6 18 1 1 2.</_>
        <_>
          7 19 1 1 2.</_></rects>
      <tilted>0</tilted></_>
    <_>
      <rects>
        <_>
          6 18 3 2 -1.</_>
        <_>
          7 19 1 2 3.</_></rects>
      <tilted>1</tilted></_>
    <_>
      <rects>
        <_>
          6 18 2 3 -1.</_>
        <_>
          6 18 1 3 2.</_></rects>
      <tilted>1</tilted></_>
    <_>
      <rects>
        <_>
          6 18 6 6 -1.</_>
        <_>
          4 20 6 2 3.</_></rects>
      <tilted>1</tilted></_>
    <_>
      <rects>
        <_>
          6 19 1 3 -1.</_>
        <_>
          6 20 1 1 3.</_></rects>
      <tilted>0</tilted></_>
    <_>
      <rects>
        <_>
          6 19 2 2 -1.</_>
        <_>
          6 19 1 2 2.</_></rects>
      <tilted>1</tilted></_>
    <_>
      <rects>
        <_>
          6 20 2 2 -1.</_>
        <_>
          6 20 1 2 2.</_></rects>
      <tilted>1</tilted></_>
    <_>
      <rects>
        <_>
          6 20 3 2 -1.</_>
        <_>
          7 21 1 2 3.</_></rects>
      <tilted>1</tilted></_>
    <_>
      <rects>
        <_>
          6 20 4 6 -1.</_>
        <_>
          4 22 4 2 3.</_></rects>
      <tilted>1</tilted></_>
    <_>
      <rects>
        <_>
          6 21 5 4 -1.</_>
        <_>
          5 22 5 2 2.</_></rects>
      <tilted>1</tilted></_>
    <_>
      <rects>
        <_>
          7 0 6 7 -1.</_>
        <_>
          9 0 2 7 3.</_></rects>
      <tilted>0</tilted></_>
    <_>
      <rects>
        <_>
          7 0 8 10 -1.</_>
        <_>
          7 5 8 5 2.</_></rects>
      <tilted>0</tilted></_>
    <_>
      <rects>
        <_>
          7 1 2 1 -1.</_>
        <_>
          8 1 1 1 2.</_></rects>
      <tilted>0</tilted></_>
    <_>
      <rects>
        <_>
          7 1 4 6 -1.</_>
        <_>
          8 1 2 6 2.</_></rects>
      <tilted>0</tilted></_>
    <_>
      <rects>
        <_>
          7 1 4 6 -1.</_>
        <_>
          8 2 2 6 2.</_></rects>
      <tilted>1</tilted></_>
    <_>
      <rects>
        <_>
          7 1 9 8 -1.</_>
        <_>
          7 5 9 4 2.</_></rects>
      <tilted>0</tilted></_>
    <_>
      <rects>
        <_>
          7 2 1 2 -1.</_>
        <_>
          7 2 1 1 2.</_></rects>
      <tilted>1</tilted></_>
    <_>
      <rects>
        <_>
          7 2 10 6 -1.</_>
        <_>
          7 2 10 3 2.</_></rects>
      <tilted>1</tilted></_>
    <_>
      <rects>
        <_>
          7 3 1 3 -1.</_>
        <_>
          6 4 1 1 3.</_></rects>
      <tilted>1</tilted></_>
    <_>
      <rects>
        <_>
          7 3 12 18 -1.</_>
        <_>
          11 9 4 6 9.</_></rects>
      <tilted>0</tilted></_>
    <_>
      <rects>
        <_>
          7 3 12 20 -1.</_>
        <_>
          11 3 4 20 3.</_></rects>
      <tilted>0</tilted></_>
    <_>
      <rects>
        <_>
          7 4 2 4 -1.</_>
        <_>
          6 5 2 2 2.</_></rects>
      <tilted>1</tilted></_>
    <_>
      <rects>
        <_>
          7 4 3 3 -1.</_>
        <_>
          6 5 3 1 3.</_></rects>
      <tilted>1</tilted></_>
    <_>
      <rects>
        <_>
          7 8 6 2 -1.</_>
        <_>
          7 8 6 1 2.</_></rects>
      <tilted>1</tilted></_>
    <_>
      <rects>
        <_>
          7 13 2 3 -1.</_>
        <_>
          8 13 1 3 2.</_></rects>
      <tilted>0</tilted></_>
    <_>
      <rects>
        <_>
          7 14 4 15 -1.</_>
        <_>
          9 14 2 15 2.</_></rects>
      <tilted>0</tilted></_>
    <_>
      <rects>
        <_>
          7 16 5 2 -1.</_>
        <_>
          7 16 5 1 2.</_></rects>
      <tilted>1</tilted></_>
    <_>
      <rects>
        <_>
          7 17 2 3 -1.</_>
        <_>
          6 18 2 1 3.</_></rects>
      <tilted>1</tilted></_>
    <_>
      <rects>
        <_>
          7 18 2 2 -1.</_>
        <_>
          7 18 1 1 2.</_>
        <_>
          8 19 1 1 2.</_></rects>
      <tilted>0</tilted></_>
    <_>
      <rects>
        <_>
          7 18 3 3 -1.</_>
        <_>
          6 19 3 1 3.</_></rects>
      <tilted>1</tilted></_>
    <_>
      <rects>
        <_>
          7 19 2 2 -1.</_>
        <_>
          7 19 1 1 2.</_>
        <_>
          8 20 1 1 2.</_></rects>
      <tilted>0</tilted></_>
    <_>
      <rects>
        <_>
          7 20 3 3 -1.</_>
        <_>
          8 21 1 3 3.</_></rects>
      <tilted>1</tilted></_>
    <_>
      <rects>
        <_>
          7 20 3 3 -1.</_>
        <_>
          6 21 3 1 3.</_></rects>
      <tilted>1</tilted></_>
    <_>
      <rects>
        <_>
          7 22 3 2 -1.</_>
        <_>
          8 23 1 2 3.</_></rects>
      <tilted>1</tilted></_>
    <_>
      <rects>
        <_>
          8 0 4 7 -1.</_>
        <_>
          9 0 2 7 2.</_></rects>
      <tilted>0</tilted></_>
    <_>
      <rects>
        <_>
          8 0 4 7 -1.</_>
        <_>
          9 1 2 7 2.</_></rects>
      <tilted>1</tilted></_>
    <_>
      <rects>
        <_>
          8 0 3 30 -1.</_>
        <_>
          8 15 3 15 2.</_></rects>
      <tilted>0</tilted></_>
    <_>
      <rects>
        <_>
          8 0 12 4 -1.</_>
        <_>
          8 0 6 2 2.</_>
        <_>
          14 2 6 2 2.</_></rects>
      <tilted>0</tilted></_>
    <_>
      <rects>
        <_>
          8 0 12 6 -1.</_>
        <_>
          8 0 6 3 2.</_>
        <_>
          14 3 6 3 2.</_></rects>
      <tilted>0</tilted></_>
    <_>
      <rects>
        <_>
          8 2 3 3 -1.</_>
        <_>
          9 2 1 3 3.</_></rects>
      <tilted>0</tilted></_>
    <_>
      <rects>
        <_>
          8 6 10 8 -1.</_>
        <_>
          8 6 5 4 2.</_>
        <_>
          13 10 5 4 2.</_></rects>
      <tilted>0</tilted></_>
    <_>
      <rects>
        <_>
          8 7 12 5 -1.</_>
        <_>
          11 10 6 5 2.</_></rects>
      <tilted>1</tilted></_>
    <_>
      <rects>
        <_>
          8 7 4 3 -1.</_>
        <_>
          7 8 4 1 3.</_></rects>
      <tilted>1</tilted></_>
    <_>
      <rects>
        <_>
          8 8 6 6 -1.</_>
        <_>
          8 8 3 6 2.</_></rects>
      <tilted>1</tilted></_>
    <_>
      <rects>
        <_>
          8 8 12 7 -1.</_>
        <_>
          8 8 6 7 2.</_></rects>
      <tilted>1</tilted></_>
    <_>
      <rects>
        <_>
          8 9 4 5 -1.</_>
        <_>
          8 9 2 5 2.</_></rects>
      <tilted>1</tilted></_>
    <_>
      <rects>
        <_>
          8 11 1 2 -1.</_>
        <_>
          8 12 1 1 2.</_></rects>
      <tilted>0</tilted></_>
    <_>
      <rects>
        <_>
          8 11 2 2 -1.</_>
        <_>
          8 11 1 1 2.</_>
        <_>
          9 12 1 1 2.</_></rects>
      <tilted>0</tilted></_>
    <_>
      <rects>
        <_>
          8 11 3 1 -1.</_>
        <_>
          9 12 1 1 3.</_></rects>
      <tilted>1</tilted></_>
    <_>
      <rects>
        <_>
          8 12 4 6 -1.</_>
        <_>
          8 14 4 2 3.</_></rects>
      <tilted>0</tilted></_>
    <_>
      <rects>
        <_>
          8 14 2 1 -1.</_>
        <_>
          9 14 1 1 2.</_></rects>
      <tilted>0</tilted></_>
    <_>
      <rects>
        <_>
          8 14 10 6 -1.</_>
        <_>
          8 14 5 6 2.</_></rects>
      <tilted>1</tilted></_>
    <_>
      <rects>
        <_>
          8 14 7 6 -1.</_>
        <_>
          6 16 7 2 3.</_></rects>
      <tilted>1</tilted></_>
    <_>
      <rects>
        <_>
          8 15 5 3 -1.</_>
        <_>
          7 16 5 1 3.</_></rects>
      <tilted>1</tilted></_>
    <_>
      <rects>
        <_>
          8 16 2 3 -1.</_>
        <_>
          7 17 2 1 3.</_></rects>
      <tilted>1</tilted></_>
    <_>
      <rects>
        <_>
          8 17 3 8 -1.</_>
        <_>
          8 19 3 4 2.</_></rects>
      <tilted>0</tilted></_>
    <_>
      <rects>
        <_>
          8 19 3 3 -1.</_>
        <_>
          7 20 3 1 3.</_></rects>
      <tilted>1</tilted></_>
    <_>
      <rects>
        <_>
          8 19 5 4 -1.</_>
        <_>
          7 20 5 2 2.</_></rects>
      <tilted>1</tilted></_>
    <_>
      <rects>
        <_>
          8 21 3 3 -1.</_>
        <_>
          9 22 1 3 3.</_></rects>
      <tilted>1</tilted></_>
    <_>
      <rects>
        <_>
          9 8 3 4 -1.</_>
        <_>
          10 9 1 4 3.</_></rects>
      <tilted>1</tilted></_>
    <_>
      <rects>
        <_>
          9 8 6 5 -1.</_>
        <_>
          9 8 3 5 2.</_></rects>
      <tilted>1</tilted></_>
    <_>
      <rects>
        <_>
          9 10 2 2 -1.</_>
        <_>
          9 10 1 2 2.</_></rects>
      <tilted>1</tilted></_>
    <_>
      <rects>
        <_>
          9 12 2 4 -1.</_>
        <_>
          9 13 2 2 2.</_></rects>
      <tilted>0</tilted></_>
    <_>
      <rects>
        <_>
          9 14 4 3 -1.</_>
        <_>
          8 15 4 1 3.</_></rects>
      <tilted>1</tilted></_>
    <_>
      <rects>
        <_>
          9 14 5 6 -1.</_>
        <_>
          9 17 5 3 2.</_></rects>
      <tilted>0</tilted></_>
    <_>
      <rects>
        <_>
          9 15 2 2 -1.</_>
        <_>
          9 15 2 1 2.</_></rects>
      <tilted>1</tilted></_>
    <_>
      <rects>
        <_>
          9 15 3 4 -1.</_>
        <_>
          8 16 3 2 2.</_></rects>
      <tilted>1</tilted></_>
    <_>
      <rects>
        <_>
          9 15 5 3 -1.</_>
        <_>
          8 16 5 1 3.</_></rects>
      <tilted>1</tilted></_>
    <_>
      <rects>
        <_>
          9 23 2 5 -1.</_>
        <_>
          10 23 1 5 2.</_></rects>
      <tilted>0</tilted></_>
    <_>
      <rects>
        <_>
          10 0 10 6 -1.</_>
        <_>
          10 0 5 3 2.</_>
        <_>
          15 3 5 3 2.</_></rects>
      <tilted>0</tilted></_>
    <_>
      <rects>
        <_>
          10 9 3 3 -1.</_>
        <_>
          11 10 1 3 3.</_></rects>
      <tilted>1</tilted></_>
    <_>
      <rects>
        <_>
          10 11 10 9 -1.</_>
        <_>
          15 11 5 9 2.</_></rects>
      <tilted>0</tilted></_>
    <_>
      <rects>
        <_>
          10 12 10 7 -1.</_>
        <_>
          15 12 5 7 2.</_></rects>
      <tilted>0</tilted></_>
    <_>
      <rects>
        <_>
          10 13 2 6 -1.</_>
        <_>
          10 15 2 2 3.</_></rects>
      <tilted>0</tilted></_>
    <_>
      <rects>
        <_>
          10 13 8 6 -1.</_>
        <_>
          12 13 4 6 2.</_></rects>
      <tilted>0</tilted></_>
    <_>
      <rects>
        <_>
          10 15 2 6 -1.</_>
        <_>
          10 17 2 2 3.</_></rects>
      <tilted>0</tilted></_>
    <_>
      <rects>
        <_>
          10 15 8 5 -1.</_>
        <_>
          10 15 4 5 2.</_></rects>
      <tilted>1</tilted></_>
    <_>
      <rects>
        <_>
          11 1 2 9 -1.</_>
        <_>
          11 1 1 9 2.</_></rects>
      <tilted>1</tilted></_>
    <_>
      <rects>
        <_>
          11 8 8 18 -1.</_>
        <_>
          11 17 8 9 2.</_></rects>
      <tilted>0</tilted></_>
    <_>
      <rects>
        <_>
          11 12 2 2 -1.</_>
        <_>
          11 12 1 1 2.</_>
        <_>
          12 13 1 1 2.</_></rects>
      <tilted>0</tilted></_>
    <_>
      <rects>
        <_>
          11 14 3 7 -1.</_>
        <_>
          12 14 1 7 3.</_></rects>
      <tilted>0</tilted></_>
    <_>
      <rects>
        <_>
          11 14 8 8 -1.</_>
        <_>
          11 14 4 8 2.</_></rects>
      <tilted>1</tilted></_>
    <_>
      <rects>
        <_>
          11 15 4 2 -1.</_>
        <_>
          13 15 2 2 2.</_></rects>
      <tilted>0</tilted></_>
    <_>
      <rects>
        <_>
          12 1 8 8 -1.</_>
        <_>
          12 1 4 4 2.</_>
        <_>
          16 5 4 4 2.</_></rects>
      <tilted>0</tilted></_>
    <_>
      <rects>
        <_>
          12 4 8 18 -1.</_>
        <_>
          12 4 4 9 2.</_>
        <_>
          16 13 4 9 2.</_></rects>
      <tilted>0</tilted></_>
    <_>
      <rects>
        <_>
          12 4 8 12 -1.</_>
        <_>
          12 4 8 6 2.</_></rects>
      <tilted>1</tilted></_>
    <_>
      <rects>
        <_>
          12 11 1 4 -1.</_>
        <_>
          12 12 1 2 2.</_></rects>
      <tilted>0</tilted></_>
    <_>
      <rects>
        <_>
          12 11 2 4 -1.</_>
        <_>
          12 12 2 2 2.</_></rects>
      <tilted>0</tilted></_>
    <_>
      <rects>
        <_>
          12 11 3 4 -1.</_>
        <_>
          12 12 3 2 2.</_></rects>
      <tilted>0</tilted></_>
    <_>
      <rects>
        <_>
          12 11 6 10 -1.</_>
        <_>
          12 16 6 5 2.</_></rects>
      <tilted>0</tilted></_>
    <_>
      <rects>
        <_>
          12 12 2 2 -1.</_>
        <_>
          12 12 1 1 2.</_>
        <_>
          13 13 1 1 2.</_></rects>
      <tilted>0</tilted></_>
    <_>
      <rects>
        <_>
          12 12 3 4 -1.</_>
        <_>
          11 13 3 2 2.</_></rects>
      <tilted>1</tilted></_>
    <_>
      <rects>
        <_>
          12 13 2 2 -1.</_>
        <_>
          12 13 1 1 2.</_>
        <_>
          13 14 1 1 2.</_></rects>
      <tilted>0</tilted></_>
    <_>
      <rects>
        <_>
          12 13 3 3 -1.</_>
        <_>
          11 14 3 1 3.</_></rects>
      <tilted>1</tilted></_>
    <_>
      <rects>
        <_>
          12 13 8 5 -1.</_>
        <_>
          16 13 4 5 2.</_></rects>
      <tilted>0</tilted></_>
    <_>
      <rects>
        <_>
          12 13 8 6 -1.</_>
        <_>
          16 13 4 6 2.</_></rects>
      <tilted>0</tilted></_>
    <_>
      <rects>
        <_>
          12 14 1 2 -1.</_>
        <_>
          12 15 1 1 2.</_></rects>
      <tilted>0</tilted></_>
    <_>
      <rects>
        <_>
          12 14 3 3 -1.</_>
        <_>
          13 15 1 1 9.</_></rects>
      <tilted>0</tilted></_>
    <_>
      <rects>
        <_>
          12 14 4 1 -1.</_>
        <_>
          13 15 2 1 2.</_></rects>
      <tilted>1</tilted></_>
    <_>
      <rects>
        <_>
          12 14 2 2 -1.</_>
        <_>
          12 15 2 1 2.</_></rects>
      <tilted>0</tilted></_>
    <_>
      <rects>
        <_>
          12 15 3 3 -1.</_>
        <_>
          13 15 1 3 3.</_></rects>
      <tilted>0</tilted></_>
    <_>
      <rects>
        <_>
          13 0 4 6 -1.</_>
        <_>
          13 0 4 3 2.</_></rects>
      <tilted>1</tilted></_>
    <_>
      <rects>
        <_>
          13 5 6 14 -1.</_>
        <_>
          13 5 3 7 2.</_>
        <_>
          16 12 3 7 2.</_></rects>
      <tilted>0</tilted></_>
    <_>
      <rects>
        <_>
          13 7 7 4 -1.</_>
        <_>
          13 7 7 2 2.</_></rects>
      <tilted>1</tilted></_>
    <_>
      <rects>
        <_>
          13 7 7 10 -1.</_>
        <_>
          13 7 7 5 2.</_></rects>
      <tilted>1</tilted></_>
    <_>
      <rects>
        <_>
          13 12 1 3 -1.</_>
