<?xml version="1.0"?>
<opencv_storage>
<cascade>
  <stageType>BOOST</stageType>
  <featureType>LBP</featureType>
  <height>40</height>
  <width>20</width>
  <stageParams>
    <boostType>RAB</boostType>
    <minHitRate>9.9599999189376831e-01</minHitRate>
    <maxFalseAlarm>3.1999999284744263e-01</maxFalseAlarm>
    <weightTrimRate>9.4999999999999996e-01</weightTrimRate>
    <maxDepth>1</maxDepth>
    <maxWeakCount>100</maxWeakCount></stageParams>
  <featureParams>
    <maxCatCount>256</maxCatCount>
    <featSize>1</featSize></featureParams>
  <stageNum>9</stageNum>
  <stages>
    <!-- stage 0 -->
    <_>
      <maxWeakCount>16</maxWeakCount>
      <stageThreshold>-1.8002873659133911e+00</stageThreshold>
      <weakClassifiers>
        <_>
          <internalNodes>
            0 -1 47 -16781586 -286327058 -16843026 -285278466 -2 -1 -2
            -1</internalNodes>
          <leafValues>
            -9.3983912467956543e-01 1.4908385276794434e-01</leafValues></_>
        <_>
          <internalNodes>
            0 -1 289 -1073790977 -1 -1 -1 -1 -1 -1 1073627135</internalNodes>
          <leafValues>
            -3.3754408359527588e-01 5.1458424329757690e-01</leafValues></_>
        <_>
          <internalNodes>
            0 -1 377 -285282562 -2 -1 1879048190 -1 2147450879 -1
            23035903</internalNodes>
          <leafValues>
            -3.7225291132926941e-01 3.9942818880081177e-01</leafValues></_>
        <_>
          <internalNodes>
            0 -1 168 -286593880 -65538 -1963262216 1052278782 2147155896
            2147450751 236608760 238190586</internalNodes>
          <leafValues>
            -5.5527627468109131e-01 2.1964119374752045e-01</leafValues></_>
        <_>
          <internalNodes>
            0 -1 232 -253614560 -1771806 1660223202 2137748410 71320576
            1147433076 1431663680 1145374467</internalNodes>
          <leafValues>
            -8.6090576648712158e-01 1.8732921779155731e-01</leafValues></_>
        <_>
          <internalNodes>
            0 -1 134 -285294850 -1360068610 -1 788529151 -536870913
            1325399935 1610579967 1079859199</internalNodes>
          <leafValues>
            -4.1127121448516846e-01 2.6610606908798218e-01</leafValues></_>
        <_>
          <internalNodes>
            0 -1 146 799934384 1073692668 -2 1073741820 1073692156
            1073692669 1073690612 212599920</internalNodes>
          <leafValues>
            -7.2391843795776367e-01 1.5766528248786926e-01</leafValues></_>
        <_>
          <internalNodes>
            0 -1 449 -98305 -1 -1 -1 -1 -1 -1 -98305</internalNodes>
          <leafValues>
            -1.9083772599697113e-01 4.6919953823089600e-01</leafValues></_>
        <_>
          <internalNodes>
            0 -1 189 -386473246 -521113376 910043822 12595440 1088815332
            6313040 83107920 5263440</internalNodes>
          <leafValues>
            -1.1044408082962036e+00 1.1675090342760086e-01</leafValues></_>
        <_>
          <internalNodes>
            0 -1 30 -1 -268435457 -1 -1 -1 -1 -9 -1</internalNodes>
          <leafValues>
            -1.1070525646209717e-01 7.8170615434646606e-01</leafValues></_>
        <_>
          <internalNodes>
            0 -1 140 -521608478 1113744122 250544122 44756990 922240576
            36206202 1476288346 40504058</internalNodes>
          <leafValues>
            -8.4009116888046265e-01 1.1089815944433212e-01</leafValues></_>
        <_>
          <internalNodes>
            0 -1 270 -2030173152 1028537914 50211562 335096506 267665136
            369000182 74850096 275972146</internalNodes>
          <leafValues>
            -7.3304754495620728e-01 1.3108716905117035e-01</leafValues></_>
        <_>
          <internalNodes>
            0 -1 292 783811632 1073623039 -2 805060604 805257214
            -1073840129 1073643517 238558580</internalNodes>
          <leafValues>
            -6.3209974765777588e-01 1.2127732485532761e-01</leafValues></_>
        <_>
          <internalNodes>
            0 -1 103 -286332416 779021998 -486617598 6879982 2113818176
            1146052174 1996379730 1074462590</internalNodes>
          <leafValues>
            -7.7426475286483765e-01 1.0148967057466507e-01</leafValues></_>
        <_>
          <internalNodes>
            0 -1 438 -1 -1 -1 -1 -1 -1 -1 2147483647</internalNodes>
          <leafValues>
            9.9070526659488678e-02 -8.0156970024108887e-01</leafValues></_>
        <_>
          <internalNodes>
            0 -1 129 1861217794 36630382 -353375646 196586 1467971396
            1164935023 1979152228 1415544679</internalNodes>
          <leafValues>
            -8.4899222850799561e-01 9.0345740318298340e-02</leafValues></_></weakClassifiers></_>
    <!-- stage 1 -->
    <_>
      <maxWeakCount>28</maxWeakCount>
      <stageThreshold>-1.7103179693222046e+00</stageThreshold>
      <weakClassifiers>
        <_>
          <internalNodes>
            0 -1 100 -274 -1 -16847122 -16777474 -2 -1 -65538 -8388609</internalNodes>
          <leafValues>
            -7.6663267612457275e-01 7.7694877982139587e-02</leafValues></_>
        <_>
          <internalNodes>
            0 -1 178 -1073790977 -1 -1 -1 -1 -1 -1 1073684477</internalNodes>
          <leafValues>
            -3.0779790878295898e-01 4.1318386793136597e-01</leafValues></_>
        <_>
          <internalNodes>
            0 -1 299 -2 -65538 -1 -1 -1 2147450879 2147483647 57638911</internalNodes>
          <leafValues>
            -2.6347798109054565e-01 3.5571438074111938e-01</leafValues></_>
        <_>
          <internalNodes>
            0 -1 204 -21476104 -65538 -98306 1069449214 497687728
            1056866300 205004028 708460222</internalNodes>
          <leafValues>
            -4.9780634045600891e-01 1.5509103238582611e-01</leafValues></_>
        <_>
          <internalNodes>
            0 -1 22 786952160 -1360068626 -10 -2 260046847 1342177279
            1476360181 1442805245</internalNodes>
          <leafValues>
            -3.0510410666465759e-01 2.4652543663978577e-01</leafValues></_>
        <_>
          <internalNodes>
            0 -1 156 -598292 1969532390 1341066976 90178656 -536949676
            1442142036 1474255956 1431393360</internalNodes>
          <leafValues>
            -5.8406066894531250e-01 1.2349744141101837e-01</leafValues></_>
        <_>
          <internalNodes>
            0 -1 437 -114690 -1 -1 -1 -1 -1 -1 1073627134</internalNodes>
          <leafValues>
            -2.7392801642417908e-01 2.7260616421699524e-01</leafValues></_>
        <_>
          <internalNodes>
            0 -1 273 -18 -1 -2 -1 -1 -1 -1 -1</internalNodes>
          <leafValues>
            -1.4463144540786743e-01 5.6195175647735596e-01</leafValues></_>
        <_>
          <internalNodes>
            0 -1 339 686304768 15469772 989822830 9240570 754888637
            73415924 218062815 4543709</internalNodes>
          <leafValues>
            -6.6987019777297974e-01 1.1533542722463608e-01</leafValues></_>
        <_>
          <internalNodes>
            0 -1 325 800719920 1073627135 -1073774593 805224446
            1069498364 1073692671 1073643516 750263668</internalNodes>
          <leafValues>
            -6.0058373212814331e-01 1.0952261090278625e-01</leafValues></_>
        <_>
          <internalNodes>
            0 -1 239 -1078178568 -1073778692 -98626 2147368703
            1073635036 226385020 2147450718 393436535</internalNodes>
          <leafValues>
            -3.6964175105094910e-01 1.5836904942989349e-01</leafValues></_>
        <_>
          <internalNodes>
            0 -1 453 -1 -1 -1 -1 -1 -1 -1 2147483647</internalNodes>
          <leafValues>
            9.7201183438301086e-02 -7.2768241167068481e-01</leafValues></_>
        <_>
          <internalNodes>
            0 -1 51 -286282070 586088430 -285217054 49217518 -135301308
            1147142015 -134250986 1157103607</internalNodes>
          <leafValues>
            -7.0440989732742310e-01 1.1270567774772644e-01</leafValues></_>
        <_>
          <internalNodes>
            0 -1 442 -98305 -1 -1 -1 -1 -1 -1 -98305</internalNodes>
          <leafValues>
            -1.4526803791522980e-01 4.0031161904335022e-01</leafValues></_>
        <_>
          <internalNodes>
            0 -1 238 -1359082366 -837939680 2130345832 573713378
            1146492428 4477952 24204564 5260598</internalNodes>
          <leafValues>
            -9.3509787321090698e-01 7.4679180979728699e-02</leafValues></_>
        <_>
          <internalNodes>
            0 -1 69 -285217270 577699430 -352327954 41090814 -35001
            1467447159 -134219913 1081311095</internalNodes>
          <leafValues>
            -5.6868278980255127e-01 1.0031393915414810e-01</leafValues></_>
        <_>
          <internalNodes>
            0 -1 337 -290454528 -72212984 1610112752 536481536 540040608
            292959856 340801000 7344240</internalNodes>
          <leafValues>
            -7.2211778163909912e-01 8.0473057925701141e-02</leafValues></_>
        <_>
          <internalNodes>
            0 -1 94 -22093078 -298915102 -354000160 1617044066 -8951996
            2139061877 1953981508 2004317559</internalNodes>
          <leafValues>
            -5.9709411859512329e-01 1.0008383542299271e-01</leafValues></_>
        <_>
          <internalNodes>
            0 -1 10 737062816 -1073741826 -1 -1 2147483644 1073741823
            1610579956 268371428</internalNodes>
          <leafValues>
            -3.3525681495666504e-01 1.7230860888957977e-01</leafValues></_>
        <_>
          <internalNodes>
            0 -1 424 -1 -1 -1 -1 -1 -1 -1 2147483647</internalNodes>
          <leafValues>
            9.0296573936939240e-02 -7.0242524147033691e-01</leafValues></_>
        <_>
          <internalNodes>
            0 -1 193 -1073861492 -1342275714 2147380970 1610579710
            1585413708 1602183039 1602180958 391348085</internalNodes>
          <leafValues>
            -3.7651479244232178e-01 1.4800606667995453e-01</leafValues></_>
        <_>
          <internalNodes>
            0 -1 284 -1359038792 1862196990 2147385342 2147123198
            1606352376 536772607 536510460 247103486</internalNodes>
          <leafValues>
            -3.4566065669059753e-01 1.6263833642005920e-01</leafValues></_>
        <_>
          <internalNodes>
            0 -1 59 -49156 -1 -1 -1 -1 -1 -1 -1</internalNodes>
          <leafValues>
            -1.2320782989263535e-01 4.4725295901298523e-01</leafValues></_>
        <_>
          <internalNodes>
            0 -1 265 -1342177366 -286326802 -14 -2 1879048183 1728053119
            2013263735 1476359669</internalNodes>
          <leafValues>
            -2.8588649630546570e-01 1.9134366512298584e-01</leafValues></_>
        <_>
          <internalNodes>
            0 -1 15 8945864 70184656 854128832 351063840 50210008
            15920848 542913748 -2072769468</internalNodes>
          <leafValues>
            -5.7785379886627197e-01 9.6050053834915161e-02</leafValues></_>
        <_>
          <internalNodes>
            0 -1 268 -1440608768 1042970712 2117081616 112734562
            640819216 41031186 119539490 1053458</internalNodes>
          <leafValues>
            -1.0829179286956787e+00 6.1396215111017227e-02</leafValues></_>
        <_>
          <internalNodes>
            0 -1 394 1052247088 1073485820 -1077985282 1073231356
            1073627132 1073627134 1073618942 674235408</internalNodes>
          <leafValues>
            -8.1458526849746704e-01 7.6038524508476257e-02</leafValues></_>
        <_>
          <internalNodes>
            0 -1 36 -1343312352 787414954 -4124 -419430418 1879043858
            1207959543 125785968 1165325685</internalNodes>
          <leafValues>
            -4.9535512924194336e-01 1.1294569075107574e-01</leafValues></_></weakClassifiers></_>
    <!-- stage 2 -->
    <_>
      <maxWeakCount>37</maxWeakCount>
      <stageThreshold>-1.6788667440414429e+00</stageThreshold>
      <weakClassifiers>
        <_>
          <internalNodes>
            0 -1 82 -264 -2 -2 -2 -6 -1 -2 -1</internalNodes>
          <leafValues>
            -7.0807969570159912e-01 1.2493371963500977e-01</leafValues></_>
        <_>
          <internalNodes>
            0 -1 431 -1 -1 -1 -1 -1 -1 -1 2147483647</internalNodes>
          <leafValues>
            1.1000426858663559e-01 -8.4687638282775879e-01</leafValues></_>
        <_>
          <internalNodes>
            0 -1 6 805289970 -1 -1 -2 -1 2147483647 2147448821 267851252</internalNodes>
          <leafValues>
            -2.8669589757919312e-01 3.0018806457519531e-01</leafValues></_>
        <_>
          <internalNodes>
            0 -1 52 -18 -286261266 -274 -285212674 -34 -1 -1 -134217729</internalNodes>
          <leafValues>
            -3.0857911705970764e-01 2.0528422296047211e-01</leafValues></_>
        <_>
          <internalNodes>
            0 -1 357 -1 -1 -1 -1 -1 -1 2147483647 1442807807</internalNodes>
          <leafValues>
            -1.5062029659748077e-01 4.9260348081588745e-01</leafValues></_>
        <_>
          <internalNodes>
            0 -1 351 -1 -1 -1 -1 -1 -1 -1 -1073774593</internalNodes>
          <leafValues>
            -1.5033869445323944e-01 5.0105106830596924e-01</leafValues></_>
        <_>
          <internalNodes>
            0 -1 418 -32769 -1 -1 -1 -1 -1 -1 -98305</internalNodes>
          <leafValues>
            -8.8564820587635040e-02 4.5778140425682068e-01</leafValues></_>
        <_>
          <internalNodes>
            0 -1 405 -1930786816 -923005108 -8524018 659278 -1895829588
            12398591 -1342185602 1908734</internalNodes>
          <leafValues>
            -5.5732870101928711e-01 8.4457680583000183e-02</leafValues></_>
        <_>
          <internalNodes>
            0 -1 123 -1 -1 -1 -1 -1 -1 -1 2147483647</internalNodes>
          <leafValues>
            6.5533429384231567e-02 -8.2156497240066528e-01</leafValues></_>
        <_>
          <internalNodes>
            0 -1 191 -18 -2 -2 2147483646 -1 2147483647 2139095039
            2004353023</internalNodes>
          <leafValues>
            -1.7036268115043640e-01 3.8326731324195862e-01</leafValues></_>
        <_>
          <internalNodes>
            0 -1 45 -32771 -1 -1 -1 -1 -1 -1 -1</internalNodes>
          <leafValues>
            -1.2359844148159027e-01 5.1270914077758789e-01</leafValues></_>
        <_>
          <internalNodes>
            0 -1 88 -268435474 -268435458 -2 -1 -1 1610612735 2013263733
            2013265911</internalNodes>
          <leafValues>
            -2.1853883564472198e-01 2.6169458031654358e-01</leafValues></_>
        <_>
          <internalNodes>
            0 -1 366 -1 -1 -1 -1 -1 -1 -1 2147483647</internalNodes>
          <leafValues>
            5.9882294386625290e-02 -7.2723031044006348e-01</leafValues></_>
        <_>
          <internalNodes>
            0 -1 267 -286593376 -1378462 1995635362 2012970858
            1684069888 644022096 393504614 1148274549</internalNodes>
          <leafValues>
            -5.1752370595932007e-01 1.3493905961513519e-01</leafValues></_>
        <_>
          <internalNodes>
            0 -1 311 -1359061252 2147385342 -32769 1073381374 -32770
            2147450879 -1 1044021246</internalNodes>
          <leafValues>
            -2.7886882424354553e-01 2.0690059661865234e-01</leafValues></_>
        <_>
          <internalNodes>
            0 -1 107 -488447326 1652223722 -386203920 585821950
            1996154432 49969146 1476065274 41027442</internalNodes>
          <leafValues>
            -6.1213994026184082e-01 6.1006169766187668e-02</leafValues></_>
        <_>
          <internalNodes>
            0 -1 380 687374336 15755936 -822211912 10547058 788475560
            1081318 46087738 2127394</internalNodes>
          <leafValues>
            -7.1411573886871338e-01 7.8647643327713013e-02</leafValues></_>
        <_>
          <internalNodes>
            0 -1 181 170393600 788409972 1073741757 805256564 267337213
            1073692669 536811004 229114928</internalNodes>
          <leafValues>
            -7.0629894733428955e-01 7.9536154866218567e-02</leafValues></_>
        <_>
          <internalNodes>
            0 -1 234 -1431361534 36367978 1677355520 577437474
            1734309700 89030468 1988065028 1349743956</internalNodes>
          <leafValues>
            -8.1451076269149780e-01 6.7824617028236389e-02</leafValues></_>
        <_>
          <internalNodes>
            0 -1 445 -1 -1 -1 -1 -1 -1 -1 2147483647</internalNodes>
          <leafValues>
            8.3027869462966919e-02 -6.7353361845016479e-01</leafValues></_>
        <_>
          <internalNodes>
            0 -1 391 -16863572 1996423167 -65538 939524095 -1073741826
            1056964607 -1 192888831</internalNodes>
          <leafValues>
            -2.2247275710105896e-01 2.3314933478832245e-01</leafValues></_>
        <_>
          <internalNodes>
            0 -1 336 -287281664 -200712 -268435472 -167805836 1711072356
            939423734 1979185151 87521079</internalNodes>
          <leafValues>
            -3.6030888557434082e-01 1.0937272757291794e-01</leafValues></_>
        <_>
          <internalNodes>
            0 -1 202 184420360 552492262 587082272 44728046 736054788
            72252992 922007044 4382550</internalNodes>
          <leafValues>
            -8.3305472135543823e-01 6.7807950079441071e-02</leafValues></_>
        <_>
          <internalNodes>
            0 -1 305 212632096 552349358 787229416 150761214 2138857466
            880562114 419236650 3936313</internalNodes>
          <leafValues>
            -5.8148014545440674e-01 7.8552916646003723e-02</leafValues></_>
        <_>
          <internalNodes>
            0 -1 310 -1 -1 -1 -1 -1 -1 -1 2147483647</internalNodes>
          <leafValues>
            8.5585944354534149e-02 -5.7067590951919556e-01</leafValues></_>
        <_>
          <internalNodes>
            0 -1 260 -6 -2 -2 -1 -1 2147483647 2147450879 1476360191</internalNodes>
          <leafValues>
            -1.5159729123115540e-01 3.3176660537719727e-01</leafValues></_>
        <_>
          <internalNodes>
            0 -1 240 -1157738930 -353701906 -16778656 1659568110 -45500
            1182236543 2013200192 1366751095</internalNodes>
          <leafValues>
            -4.9668917059898376e-01 8.1697180867195129e-02</leafValues></_>
        <_>
          <internalNodes>
            0 -1 352 800866172 1073643516 -2 1073627132 -1073987585
            -1073774593 805191676 205262204</internalNodes>
          <leafValues>
            -5.8727967739105225e-01 8.9913278818130493e-02</leafValues></_>
        <_>
          <internalNodes>
            0 -1 83 -2 -1 -1 -1 -1 -1 -1 2147483647</internalNodes>
          <leafValues>
            7.8889235854148865e-02 -6.2619441747665405e-01</leafValues></_>
        <_>
          <internalNodes>
            0 -1 125 -1364547456 -520306962 787457766 6562912 -553726756
            217894004 1291836876 1081360452</internalNodes>
          <leafValues>
            -6.0027819871902466e-01 1.0408744961023331e-01</leafValues></_>
        <_>
          <internalNodes>
            0 -1 0 -1 -1 -1 -1 -1 -1 -1 1073709055</internalNodes>
          <leafValues>
            -1.4197911322116852e-01 3.5044598579406738e-01</leafValues></_>
        <_>
          <internalNodes>
            0 -1 169 748162176 -22249734 783830264 234888446 201333984
            251022708 201328784 33562398</internalNodes>
          <leafValues>
            -9.4773560762405396e-01 4.4051449745893478e-02</leafValues></_>
        <_>
          <internalNodes>
            0 -1 345 -1 -1 -1 -1 -1 -1 -1 2147483647</internalNodes>
          <leafValues>
            8.1157252192497253e-02 -5.9752124547958374e-01</leafValues></_>
        <_>
          <internalNodes>
            0 -1 242 -4260100 -1 -2 -1 -1073807364 -32770 2147483647
            2004844415</internalNodes>
          <leafValues>
            -1.7000377178192139e-01 2.9230311512947083e-01</leafValues></_>
        <_>
          <internalNodes>
            0 -1 197 1255418432 769534960 1929276150 2004766190
            112592464 1548832342 351540560 5587814</internalNodes>
          <leafValues>
            -6.8828421831130981e-01 5.4160762578248978e-02</leafValues></_>
        <_>
          <internalNodes>
            0 -1 338 1625858048 576512 821950256 1156401232 1212448772
            4456528 1089949954 9480</internalNodes>
          <leafValues>
            -9.7808426618576050e-01 6.0471970587968826e-02</leafValues></_>
        <_>
          <internalNodes>
            0 -1 78 36053024 116305576 805254388 -1343265748 122626340
            234700788 125175268 86769760</internalNodes>
          <leafValues>
            -9.3946450948715210e-01 5.8054666966199875e-02</leafValues></_></weakClassifiers></_>
    <!-- stage 3 -->
    <_>
      <maxWeakCount>45</maxWeakCount>
      <stageThreshold>-1.4564443826675415e+00</stageThreshold>
      <weakClassifiers>
        <_>
          <internalNodes>
            0 -1 165 -258 -1 -65794 -1 -2 -1 -65538 -1</internalNodes>
          <leafValues>
            -6.3197165727615356e-01 9.1238729655742645e-02</leafValues></_>
        <_>
          <internalNodes>
            0 -1 109 -274 -1 -16842753 -16777217 -1 -1 -1 -1</internalNodes>
          <leafValues>
            -1.3929773867130280e-01 4.2054569721221924e-01</leafValues></_>
        <_>
          <internalNodes>
            0 -1 115 -16450 -1 -1 -1 -1 -1 -1 888438775</internalNodes>
          <leafValues>
            -1.8775416910648346e-01 2.7166804671287537e-01</leafValues></_>
        <_>
          <internalNodes>
            0 -1 227 -1117664 -268501254 -270 2013263602 2004287348
            1736439679 1467447286 1173845239</internalNodes>
          <leafValues>
            -3.4888070821762085e-01 1.4437767863273621e-01</leafValues></_>
        <_>
          <internalNodes>
            0 -1 264 -2 -1 -1 -1 -2 -1 -1 -1</internalNodes>
          <leafValues>
            -3.8254853338003159e-02 6.5029257535934448e-01</leafValues></_>
        <_>
          <internalNodes>
            0 -1 118 -16878864 -589826 -1 -589825 -65538 -2 -1 -524289</internalNodes>
          <leafValues>
            -1.7942246794700623e-01 2.8371289372444153e-01</leafValues></_>
        <_>
          <internalNodes>
            0 -1 30 -269484062 1861222398 -10 -268435458 2147483511
            2147483647 2013263733 2013265911</internalNodes>
          <leafValues>
            -2.9764470458030701e-01 1.5954695641994476e-01</leafValues></_>
        <_>
          <internalNodes>
            0 -1 306 -1 -1 -1 -1 -1 -1 -1 2147483647</internalNodes>
          <leafValues>
            7.8999109566211700e-02 -5.7401943206787109e-01</leafValues></_>
        <_>
          <internalNodes>
            0 -1 203 -65794 -1 -16777474 -1 -2 2139062271 -1 2004320127</internalNodes>
          <leafValues>
            -1.8793135881423950e-01 2.9763936996459961e-01</leafValues></_>
        <_>
          <internalNodes>
            0 -1 3 805289980 -1073741825 -1 -1 2147483647 -1 2147483647
            268373484</internalNodes>
          <leafValues>
            -2.5021943449974060e-01 1.7704121768474579e-01</leafValues></_>
        <_>
          <internalNodes>
            0 -1 72 -466 -285212689 -16777474 721354750 -32939
            2004877183 -129 1995964415</internalNodes>
          <leafValues>
            -3.2858180999755859e-01 1.2346629798412323e-01</leafValues></_>
        <_>
          <internalNodes>
            0 -1 409 -1461452800 134154 -822435188 27168 -1997762904
            798510 1727850214 278024</internalNodes>
          <leafValues>
            -9.6783310174942017e-01 6.2799870967864990e-02</leafValues></_>
        <_>
          <internalNodes>
            0 -1 426 -1 -1 -1 -1 -1 -1 -1 2147483647</internalNodes>
          <leafValues>
            6.8569660186767578e-02 -6.2640261650085449e-01</leafValues></_>
        <_>
          <internalNodes>
            0 -1 328 -1427194130 -1124139010 -285278210 -839974914
            1056911103 -1 83688637 74841342</internalNodes>
          <leafValues>
            -2.9058417677879333e-01 1.3502980768680573e-01</leafValues></_>
        <_>
          <internalNodes>
            0 -1 451 -32769 -1 -1 -1 -1 -1 -1 -65537</internalNodes>
          <leafValues>
            -9.7105681896209717e-02 4.3107891082763672e-01</leafValues></_>
        <_>
          <internalNodes>
            0 -1 274 -1130774 -1 2147483390 1610612479 2147450878
            2147450879 1342136187 1366651775</internalNodes>
          <leafValues>
            -2.3646847903728485e-01 1.7076788842678070e-01</leafValues></_>
        <_>
          <internalNodes>
            0 -1 207 -16843014 -65538 -1 -1 -65542 2147483647 2147418110
            788201471</internalNodes>
          <leafValues>
            -1.7813007533550262e-01 2.2340795397758484e-01</leafValues></_>
        <_>
          <internalNodes>
            0 -1 254 35651584 536616444 1073741823 939288316 536813564
            1073709053 503258620 233837616</internalNodes>
          <leafValues>
            -6.6827225685119629e-01 5.4630212485790253e-02</leafValues></_>
        <_>
          <internalNodes>
            0 -1 99 -268439894 787480558 -16845086 587137023 2147483460
            1197473759 2013263734 1451229055</internalNodes>
          <leafValues>
            -3.3186691999435425e-01 1.1687758564949036e-01</leafValues></_>
        <_>
          <internalNodes>
            0 -1 358 -1 -1 -1 -1 -1 -1 -1 2147483647</internalNodes>
          <leafValues>
            6.9671005010604858e-02 -5.6814640760421753e-01</leafValues></_>
        <_>
          <internalNodes>
            0 -1 54 -1358959094 787415022 -285217050 586874622 -186
            1197473791 2013230966 1197473791</internalNodes>
          <leafValues>
            -3.4388527274131775e-01 1.0861694067716599e-01</leafValues></_>
        <_>
          <internalNodes>
            0 -1 81 33555008 838921824 35716960 -350027934 100674752
            774962912 124026836 169045829</internalNodes>
          <leafValues>
            -6.0995334386825562e-01 6.0537490993738174e-02</leafValues></_>
        <_>
          <internalNodes>
            0 -1 288 16 805191676 -1073741825 1005862780 1073495932 -2
            1073627135 2104336</internalNodes>
          <leafValues>
            -5.6643337011337280e-01 6.5805204212665558e-02</leafValues></_>
        <_>
          <internalNodes>
            0 -1 179 1073512444 -1 -1 -1 -1 -1 -1 2147319804</internalNodes>
          <leafValues>
            1.6252042353153229e-01 -2.2445517778396606e-01</leafValues></_>
        <_>
          <internalNodes>
            0 -1 237 787352074 577433454 1727981088 1651177312
            1870617158 1147567965 1727428352 1079473460</internalNodes>
          <leafValues>
            -6.9993066787719727e-01 5.3328908979892731e-02</leafValues></_>
        <_>
          <internalNodes>
            0 -1 14 44180512 788447228 -1342177284 805289980 268318700
            -1476395011 134157652 234623028</internalNodes>
          <leafValues>
            -5.7144635915756226e-01 6.3648246228694916e-02</leafValues></_>
        <_>
          <internalNodes>
            0 -1 221 1911079104 812171776 1600090112 50336256 1968608368
            1970554896 1431569684 20971776</internalNodes>
          <leafValues>
            -7.4603104591369629e-01 5.4296635091304779e-02</leafValues></_>
        <_>
          <internalNodes>
            0 -1 236 148409544 36204074 2139029366 145551086 -990053156
            39214408 519921019 67902620</internalNodes>
          <leafValues>
            -5.1461726427078247e-01 7.0422440767288208e-02</leafValues></_>
        <_>
          <internalNodes>
            0 -1 385 -65540 -1 -1 -1 -1 -1 -1 -32769</internalNodes>
          <leafValues>
            -8.5675172507762909e-02 4.0343531966209412e-01</leafValues></_>
        <_>
          <internalNodes>
            0 -1 253 238551040 1073618936 -1073889284 804789756
            805124092 1073504252 939401208 136839216</internalNodes>
          <leafValues>
            -9.4671452045440674e-01 4.2533401399850845e-02</leafValues></_>
        <_>
          <internalNodes>
            0 -1 237 -1 -1 -1 -1 -1 -1 -1 2147483647</internalNodes>
          <leafValues>
            6.6514112055301666e-02 -5.3658878803253174e-01</leafValues></_>
        <_>
          <internalNodes>
            0 -1 387 -1359024404 2147467134 -3 1073479679 1073741820
            1073692671 2147434431 100480447</internalNodes>
          <leafValues>
            -2.5544548034667969e-01 1.6609038412570953e-01</leafValues></_>
        <_>
          <internalNodes>
            0 -1 95 1726631432 170552874 1848534624 577662498 1599489540
            1333679944 1953789764 1381988213</internalNodes>
          <leafValues>
            -7.6681578159332275e-01 5.2330013364553452e-02</leafValues></_>
        <_>
          <internalNodes>
            0 -1 206 -1095082824 -327682 -98306 1056604158 507161808
            2147385212 471482360 170024638</internalNodes>
          <leafValues>
            -3.6323782801628113e-01 9.5486834645271301e-02</leafValues></_>
        <_>
          <internalNodes>
            0 -1 108 116000768 2886668 1256890914 133280 -17167360
            68570112 343433728 23578</internalNodes>
          <leafValues>
            -1.3292826414108276e+00 3.7639040499925613e-02</leafValues></_>
        <_>
          <internalNodes>
            0 -1 222 442165952 706903616 1743254848 35676192 1684075588
            71581264 72369156 17408</internalNodes>
          <leafValues>
            -8.9409619569778442e-01 4.3577183037996292e-02</leafValues></_>
        <_>
          <internalNodes>
            0 -1 20 2105344 149860076 545219872 209069616 91300992
            124223348 91554160 86967396</internalNodes>
          <leafValues>
            -1.0552392005920410e+00 3.8723021745681763e-02</leafValues></_>
        <_>
          <internalNodes>
            0 -1 419 482083888 1073626620 -1073840129 1040064511
            1073627134 2147450879 1073495804 775689528</internalNodes>
          <leafValues>
            -6.3384538888931274e-01 5.2953347563743591e-02</leafValues></_>
        <_>
          <internalNodes>
            0 -1 395 1073512444 -1 -1 -1 -1 -1 -1 1073545213</internalNodes>
          <leafValues>
            2.1720856428146362e-01 -1.5319606661796570e-01</leafValues></_>
        <_>
          <internalNodes>
            0 -1 301 -286331168 -65794 -65798 -32898 1861643852
            1878458366 1475739646 107439527</internalNodes>
          <leafValues>
            -2.5821119546890259e-01 1.2514093518257141e-01</leafValues></_>
        <_>
          <internalNodes>
            0 -1 355 -1 -1 -1 -1 -1 -1 -1 2147483647</internalNodes>
          <leafValues>
            6.4048118889331818e-02 -5.6858718395233154e-01</leafValues></_>
        <_>
          <internalNodes>
            0 -1 359 -16777474 -16842754 -2 2147483646 -2 -1 -1
            393740286</internalNodes>
          <leafValues>
            -1.5055674314498901e-01 2.1698032319545746e-01</leafValues></_>
        <_>
          <internalNodes>
            0 -1 93 38773250 40300142 587131392 44761070 75449348
            5205606 1207396160 73760599</internalNodes>
          <leafValues>
            -1.1078382730484009e+00 3.8404382765293121e-02</leafValues></_>
        <_>
          <internalNodes>
            0 -1 403 -1394029568 1282698468 -554238084 322729844
            -302388100 1971191677 1593597437 7619957</internalNodes>
          <leafValues>
            -3.8664075732231140e-01 8.2370139658451080e-02</leafValues></_>
        <_>
          <internalNodes>
            0 -1 101 -1364538752 -1431377222 170568192 36351522
            1064894000 472866676 439373904 573726288</internalNodes>
          <leafValues>
            -6.9541269540786743e-01 5.0350807607173920e-02</leafValues></_></weakClassifiers></_>
    <!-- stage 4 -->
    <_>
      <maxWeakCount>56</maxWeakCount>
      <stageThreshold>-1.5030000209808350e+00</stageThreshold>
      <weakClassifiers>
        <_>
          <internalNodes>
            0 -1 279 -4 -1 -1 -1 -65538 -1 -65537 -1</internalNodes>
          <leafValues>
            -5.7012760639190674e-01 1.2861500680446625e-01</leafValues></_>
        <_>
          <internalNodes>
            0 -1 166 -18 -1 -18 -1 -1 -1 -1 -134217729</internalNodes>
          <leafValues>
            -1.6004252433776855e-01 3.8190126419067383e-01</leafValues></_>
        <_>
          <internalNodes>
            0 -1 63 -18 -285212673 -16777490 -285212673 -1 -1 -1 -1</internalNodes>
          <leafValues>
            -2.4511484801769257e-01 1.9310751557350159e-01</leafValues></_>
        <_>
          <internalNodes>
            0 -1 273 -18 -1 -2 -1 -1 -1 -1 -1</internalNodes>
          <leafValues>
            -1.1031841486692429e-01 4.0712100267410278e-01</leafValues></_>
        <_>
          <internalNodes>
            0 -1 273 -18 -1 -2 -1 -1 2147483647 -9 2013265919</internalNodes>
          <leafValues>
            1.5987525880336761e-01 -2.4279223382472992e-01</leafValues></_>
        <_>
          <internalNodes>
            0 -1 199 -258 -1 -2 -1 -2 2139094911 -1 2004320127</internalNodes>
          <leafValues>
            -1.4646475017070770e-01 3.6517065763473511e-01</leafValues></_>
        <_>
          <internalNodes>
            0 -1 320 -1 -1 -1 -1 -1 -1 -1 -1073774593</internalNodes>
          <leafValues>
            -1.5388371050357819e-01 3.3939152956008911e-01</leafValues></_>
        <_>
          <internalNodes>
            0 -1 114 800728496 1073741820 -1 -1073774596 1073692668
            1073741823 1073692669 213648416</internalNodes>
          <leafValues>
            -4.3856671452522278e-01 1.1192787438631058e-01</leafValues></_>
        <_>
          <internalNodes>
            0 -1 454 -1 -1 -1 -1 -1 -1 -1 2147483647</internalNodes>
          <leafValues>
            4.6571936458349228e-02 -6.4552432298660278e-01</leafValues></_>
        <_>
          <internalNodes>
            0 -1 201 -65810 -1 -1 -1 -65538 2147483647 1610571775
            1476286335</internalNodes>
          <leafValues>
            -1.7011152207851410e-01 2.4375359714031219e-01</leafValues></_>
        <_>
          <internalNodes>
            0 -1 112 -4242 -285212673 -16777474 -486539265 -139
            2004877183 -1 2004877303</internalNodes>
          <leafValues>
            -2.7148073911666870e-01 1.5624131262302399e-01</leafValues></_>
        <_>
          <internalNodes>
            0 -1 414 -114689 -1 -1 -1 -1 -1 -1 1073643519</internalNodes>
          <leafValues>
            -1.7710825800895691e-01 1.8118382990360260e-01</leafValues></_>
        <_>
          <internalNodes>
            0 -1 21 -1343242592 -1343291394 -2 -2 1879048183 1879048191
            2013263733 1342177268</internalNodes>
          <leafValues>
            -2.2741404175758362e-01 1.4624115824699402e-01</leafValues></_>
        <_>
          <internalNodes>
            0 -1 39 -1 -1 -1 -1 -1 -1 -1 2147418111</internalNodes>
          <leafValues>
            7.6855383813381195e-02 -4.5085433125495911e-01</leafValues></_>
        <_>
          <internalNodes>
            0 -1 246 1052400808 1073282940 2147385340 1073643519
            485121264 536772607 473595384 171581438</internalNodes>
          <leafValues>
            -3.7399920821189880e-01 9.3146495521068573e-02</leafValues></_>
        <_>
          <internalNodes>
            0 -1 130 -522018304 -93691294 610410530 4325952 1431372800
            1462129925 1148469316 1145533526</internalNodes>
          <leafValues>
            -8.2386302947998047e-01 4.3595660477876663e-02</leafValues></_>
        <_>
          <internalNodes>
            0 -1 405 -16847122 -16777217 -1 1006632959 -1 -1 -1
            100663295</internalNodes>
          <leafValues>
            -1.6287955641746521e-01 1.9234019517898560e-01</leafValues></_>
        <_>
          <internalNodes>
            0 -1 416 -1 -1 -1 -1 -1 -1 -1 2147483647</internalNodes>
          <leafValues>
            5.7024821639060974e-02 -5.8167588710784912e-01</leafValues></_>
        <_>
          <internalNodes>
            0 -1 230 -18 -2 -14 -2 2147483647 2147483647 2013231095
            2013231095</internalNodes>
          <leafValues>
            -2.0308175683021545e-01 1.8955947458744049e-01</leafValues></_>
        <_>
          <internalNodes>
            0 -1 372 145752064 916067860 1056845822 716713532 918429212
            788283388 1073626236 538968112</internalNodes>
          <leafValues>
            -1.0225417613983154e+00 3.2281115651130676e-02</leafValues></_>
        <_>
          <internalNodes>
            0 -1 342 -1359475696 721039288 -822599696 136449328
            778853724 922386366 217324816 3146800</internalNodes>
          <leafValues>
            -7.7789241075515747e-01 4.3877281248569489e-02</leafValues></_>
        <_>
          <internalNodes>
            0 -1 53 -18 -268435457 -268439826 -285212673 -129 2147483647
            -9 2013265919</internalNodes>
          <leafValues>
            1.8194966018199921e-01 -1.6151285171508789e-01</leafValues></_>
        <_>
          <internalNodes>
            0 -1 28 -1342197856 -1358954498 -2 -2 2147483647 2147483647
            2147483637 2013265396</internalNodes>
          <leafValues>
            -1.9857475161552429e-01 1.5929779410362244e-01</leafValues></_>
        <_>
          <internalNodes>
            0 -1 138 -285340636 49204838 -352661918 2252526 2147372608
            105139276 1459251062 33750902</internalNodes>
          <leafValues>
            -6.1302781105041504e-01 5.0663065165281296e-02</leafValues></_>
        <_>
          <internalNodes>
            0 -1 106 -4114 -268435457 -18 -285212673 -129 2147483647
            -137 2013265919</internalNodes>
          <leafValues>
            1.9124586880207062e-01 -1.5869519114494324e-01</leafValues></_>
        <_>
          <internalNodes>
            0 -1 261 -89520096 939565058 -1363271136 436862976 46006272
            3278336 70389760 268435456</internalNodes>
          <leafValues>
            -1.2801436185836792e+00 3.4431517124176025e-02</leafValues></_>
        <_>
          <internalNodes>
            0 -1 66 -49284 2147450879 -1 1073643519 -32769 -1 2147450879
            2138996735</internalNodes>
          <leafValues>
            -1.6092899441719055e-01 1.8313641846179962e-01</leafValues></_>
        <_>
          <internalNodes>
            0 -1 58 577634818 7269930 586049056 4782830 2130661184
            1078877774 1459508736 5406574</internalNodes>
          <leafValues>
            -7.3246932029724121e-01 4.2318575084209442e-02</leafValues></_>
        <_>
          <internalNodes>
            0 -1 265 -1 -1 -1 -1 -1 -1 -1 2147483647</internalNodes>
          <leafValues>
            7.1073405444622040e-02 -5.4645460844039917e-01</leafValues></_>
        <_>
          <internalNodes>
            0 -1 265 -1342181718 -1360068626 -30 2147483632 1879048055
            1191182207 1744795510 1475835893</internalNodes>
          <leafValues>
            -2.7780497074127197e-01 1.1421447247266769e-01</leafValues></_>
        <_>
          <internalNodes>
            0 -1 309 67897352 544268 2130509818 201915628 1157369310
            23820 1568431995 2540</internalNodes>
          <leafValues>
            -7.6590383052825928e-01 4.4048544019460678e-02</leafValues></_>
        <_>
          <internalNodes>
            0 -1 286 753536124 1862163708 -1073807362 419060988
            -1074111376 2147377022 1056595964 203430996</internalNodes>
          <leafValues>
            -4.3982294201850891e-01 6.5206512808799744e-02</leafValues></_>
        <_>
          <internalNodes>
            0 -1 330 -51450134 108591296 -16843936 237698736 1459400958
            74513732 22157400 262144</internalNodes>
          <leafValues>
            -4.4283932447433472e-01 6.1551399528980255e-02</leafValues></_>
        <_>
          <internalNodes>
            0 -1 381 739249152 935091284 536108536 -1112269456 208936308
            1023311733 94403956 87098677</internalNodes>
          <leafValues>
            -4.8425549268722534e-01 6.0145895928144455e-02</leafValues></_>
        <_>
          <internalNodes>
            0 -1 375 -65540 -1 -1 -1 -1 -1 -1 1073512444</internalNodes>
          <leafValues>
            1.5658926963806152e-01 -1.7746622860431671e-01</leafValues></_>
        <_>
          <internalNodes>
            0 -1 290 245366800 803880948 1073641468 721305076 1039941108
            1073504253 1073627132 136315152</internalNodes>
          <leafValues>
            -8.5181403160095215e-01 4.0047042071819305e-02</leafValues></_>
        <_>
          <internalNodes>
            0 -1 40 1850404362 168439374 1848566338 35813902 241583108
            138692420 1147162692 1145468790</internalNodes>
          <leafValues>
            -8.7151324748992920e-01 3.3721454441547394e-02</leafValues></_>
        <_>
          <internalNodes>
            0 -1 210 -1465342944 -357931858 1210731232 16385398
            134758400 49828932 69750290 36177000</internalNodes>
          <leafValues>
            -8.8540393114089966e-01 3.7826344370841980e-02</leafValues></_>
        <_>
          <internalNodes>
            0 -1 384 -1 -1 -1 -1 -1 -1 -1 2147483647</internalNodes>
          <leafValues>
            5.8631196618080139e-02 -4.8971772193908691e-01</leafValues></_>
        <_>
          <internalNodes>
            0 -1 378 -16842892 -1 -1 -1 -1 -1 2147483647 1065303935</internalNodes>
          <leafValues>
            -1.3177847862243652e-01 2.2037467360496521e-01</leafValues></_>
        <_>
          <internalNodes>
            0 -1 327 145549472 1290332200 926936828 270400 578750600
            33046528 87957552 1048576</internalNodes>
          <leafValues>
            -1.0290821790695190e+00 3.0927769839763641e-02</leafValues></_>
        <_>
          <internalNodes>
            0 -1 432 -1 -1 -1 -16777217 -129 -1 -1 -1</internalNodes>
          <leafValues>
            -6.5189369022846222e-02 4.1190883517265320e-01</leafValues></_>
        <_>
          <internalNodes>
            0 -1 9 -1 -1 -1 -1 -1 -1 -1 1073709055</internalNodes>
          <leafValues>
            -1.0849533975124359e-01 2.4121566116809845e-01</leafValues></_>
        <_>
          <internalNodes>
            0 -1 19 44179488 715845350 788493920 805240416 50209184
            125304820 133645680 24461776</internalNodes>
          <leafValues>
            -6.9004201889038086e-01 4.0840256959199905e-02</leafValues></_>
        <_>
          <internalNodes>
            0 -1 124 -1 -1 -1 -1 -1 -1 -1 2147483647</internalNodes>
          <leafValues>
            5.4166153073310852e-02 -5.3443855047225952e-01</leafValues></_>
        <_>
          <internalNodes>
            0 -1 31 33989120 2109026 712927744 40038944 70070020
            71716678 90522884 71783781</internalNodes>
          <leafValues>
            -1.2418066263198853e+00 3.2608684152364731e-02</leafValues></_>
        <_>
          <internalNodes>
            0 -1 280 -65540 -1 -2 -1 -32772 -32769 -32769 2004320255</internalNodes>
          <leafValues>
            -1.2460317462682724e-01 2.1114629507064819e-01</leafValues></_>
        <_>
          <internalNodes>
            0 -1 300 572662272 706776224 116858912 100811936 247741956
            67395174 24581184 71652432</internalNodes>
          <leafValues>
            -1.1212682723999023e+00 2.7953481301665306e-02</leafValues></_>
        <_>
          <internalNodes>
            0 -1 308 -2 -1 -1 -1 -1 -1 -1 -1</internalNodes>
          <leafValues>
            -5.3485315293073654e-02 5.1585716009140015e-01</leafValues></_>
        <_>
          <internalNodes>
            0 -1 155 310728704 538976802 -649237916 74457104 1561741316
            1398175252 1966372688 1053952</internalNodes>
          <leafValues>
            -6.9920051097869873e-01 4.3931521475315094e-02</leafValues></_>
        <_>
          <internalNodes>
            0 -1 321 1073512444 -1 -1 -1 -1 -1 -1 1073512444</internalNodes>
          <leafValues>
            1.6981391608715057e-01 -1.5030753612518311e-01</leafValues></_>
        <_>
          <internalNodes>
            0 -1 421 1056709648 1073643518 -1 796819455 2147450879 -1
            2147385342 1065254782</internalNodes>
          <leafValues>
            -2.9261073470115662e-01 1.0084556043148041e-01</leafValues></_>
        <_>
          <internalNodes>
            0 -1 174 1793517282 543206062 -286332182 192174 1457803072
            6575710 1717988938 526892</internalNodes>
          <leafValues>
            -8.1405156850814819e-01 4.0415618568658829e-02</leafValues></_>
        <_>
          <internalNodes>
            0 -1 252 134218752 997736316 1072611327 774376884 447755412
            -1107525764 586694396 32</internalNodes>
          <leafValues>
            -7.6972830295562744e-01 3.8641560822725296e-02</leafValues></_>
        <_>
          <internalNodes>
            0 -1 35 -1561679328 585638506 705362666 66 -1409617360
            7757908 1073476336 5390336</internalNodes>
          <leafValues>
            -5.8916419744491577e-01 4.7994147986173630e-02</leafValues></_>
        <_>
          <internalNodes>
            0 -1 295 -98308 -1 -1 -1 -1 -1 -1 1073512444</internalNodes>
          <leafValues>
            1.8434484302997589e-01 -1.4454647898674011e-01</leafValues></_></weakClassifiers></_>
    <!-- stage 5 -->
    <_>
      <maxWeakCount>68</maxWeakCount>
      <stageThreshold>-1.4986068010330200e+00</stageThreshold>
      <weakClassifiers>
        <_>
          <internalNodes>
            0 -1 346 -65540 -1 -1 -1 -1 -1 -1 -1</internalNodes>
          <leafValues>
            -5.4401707649230957e-01 -1.9446896389126778e-02</leafValues></_>
        <_>
          <internalNodes>
            0 -1 239 -65540 -1 -1 -1 -4 1610571772 -1 2004844415</internalNodes>
          <leafValues>
            -1.9285398721694946e-01 2.2612984478473663e-01</leafValues></_>
        <_>
          <internalNodes>
            0 -1 401 -4 -1 -1 -1 -1 -1 -1 -1</internalNodes>
          <leafValues>
            -6.5677754580974579e-02 5.5519634485244751e-01</leafValues></_>
        <_>
          <internalNodes>
            0 -1 27 -2 -2 -2 -2 -2 -2 -1 -8388609</internalNodes>
          <leafValues>
            -1.1184111237525940e-01 3.2791328430175781e-01</leafValues></_>
        <_>
          <internalNodes>
            0 -1 55 -18 -1 -2 -1 -1 -1 -1 -1</internalNodes>
          <leafValues>
            -1.2107860296964645e-01 2.6783949136734009e-01</leafValues></_>
        <_>
          <internalNodes>
            0 -1 441 -114689 -1 -1 -1 -1 -1 -1 1073627134</internalNodes>
          <leafValues>
            -1.9984988868236542e-01 1.6340175271034241e-01</leafValues></_>
        <_>
          <internalNodes>
            0 -1 12 -2 -1 -1 -1 -1 -1 -1 -3</internalNodes>
          <leafValues>
            -4.4065538793802261e-02 4.6813294291496277e-01</leafValues></_>
        <_>
          <internalNodes>
            0 -1 216 1069430704 1073725439 -1 788414463 1073709055
            1073741823 2147450879 247340856</internalNodes>
          <leafValues>
            -3.3815771341323853e-01 9.4046339392662048e-02</leafValues></_>
        <_>
          <internalNodes>
            0 -1 301 -65538 -1 -1 -1 -1 -1 -1 -1</internalNodes>
          <leafValues>
            -7.2758451104164124e-02 4.2265856266021729e-01</leafValues></_>
        <_>
          <internalNodes>
            0 -1 172 -1431696728 1868197882 788200186 707407866 41042944
            119070719 1448247167 35815423</internalNodes>
          <leafValues>
            -4.1890558600425720e-01 8.9798651635646820e-02</leafValues></_>
        <_>
          <internalNodes>
            0 -1 71 -268435666 1861156846 -16777490 1660878846 -137
            2004844415 2147483647 2004353023</internalNodes>
          <leafValues>
            -2.8211468458175659e-01 9.3546383082866669e-02</leafValues></_>
        <_>
          <internalNodes>
            0 -1 162 -18 -1 -2 -1 -137 2147483647 2147483511 2013265919</internalNodes>
          <leafValues>
            1.5604655444622040e-01 -1.8346504867076874e-01</leafValues></_>
        <_>
          <internalNodes>
            0 -1 349 -1 -1 -1 -1 -1 -1 -1 -1073774593</internalNodes>
          <leafValues>
            -7.4851520359516144e-02 3.5309892892837524e-01</leafValues></_>
        <_>
          <internalNodes>
            0 -1 364 -16847122 2147483646 -2 2147483647 2147483647
            469712895 2147450879 33521663</internalNodes>
          <leafValues>
            -1.8312755227088928e-01 1.4616197347640991e-01</leafValues></_>
        <_>
          <internalNodes>
            0 -1 283 -1 -1 -1 -1 -1 -1 -1 2147483647</internalNodes>
          <leafValues>
            5.5950872600078583e-02 -5.1721090078353882e-01</leafValues></_>
        <_>
          <internalNodes>
            0 -1 113 -285225472 548339686 -419503392 552271850
            1207904000 1149204342 1467422548 7862135</internalNodes>
          <leafValues>
            -6.0227990150451660e-01 4.5988004654645920e-02</leafValues></_>
        <_>
          <internalNodes>
            0 -1 194 271065600 552118368 1391354594 1370882666 47185984
            18089024 273695856 5260368</internalNodes>
          <leafValues>
            -1.0283602476119995e+00 3.6181706935167313e-02</leafValues></_>
        <_>
          <internalNodes>
            0 -1 132 753404608 719866598 145235976 6431244 1824312392
            75390974 1088423424 1140866926</internalNodes>
          <leafValues>
            -7.7719467878341675e-01 3.8571562618017197e-02</leafValues></_>
        <_>
          <internalNodes>
            0 -1 2 805289968 -1 -1 -2 -1 -1 -11 234182644</internalNodes>
          <leafValues>
            -1.8694473803043365e-01 1.3521941006183624e-01</leafValues></_>
        <_>
          <internalNodes>
            0 -1 318 134220832 1055403380 2147450878 524036148 212868600
            -1073807361 775429364 2097168</internalNodes>
          <leafValues>
            -8.3549118041992188e-01 3.4912310540676117e-02</leafValues></_>
        <_>
          <internalNodes>
            0 -1 196 -1 -1 -2 -1 -1 -1 -1 -134217729</internalNodes>
          <leafValues>
            -5.7004988193511963e-02 4.6481168270111084e-01</leafValues></_>
        <_>
          <internalNodes>
            0 -1 235 184462058 83782770 117403386 11351806 402020080
            352214898 376854130 6770802</internalNodes>
          <leafValues>
            -4.7941651940345764e-01 6.0842271894216537e-02</leafValues></_>
        <_>
          <internalNodes>
            0 -1 161 -2 -1 -1 -1 -1 -1 -1 -8388609</internalNodes>
          <leafValues>
            -5.6435305625200272e-02 4.8568457365036011e-01</leafValues></_>
        <_>
          <internalNodes>
            0 -1 258 47119554 -1997734794 50213552 14954736 33402864
            636321648 7427184 5248000</internalNodes>
          <leafValues>
            -5.9493154287338257e-01 4.1183643043041229e-02</leafValues></_>
        <_>
          <internalNodes>
            0 -1 243 -2 -1 -1 -1 -1 -1 -1 -1</internalNodes>
          <leafValues>
            -4.3185945600271225e-02 5.9650510549545288e-01</leafValues></_>
        <_>
          <internalNodes>
            0 -1 104 -1 -1 -1 -1 -1 -1 -1 -262145</internalNodes>
          <leafValues>
            -3.1379740685224533e-02 1.2026432752609253e+00</leafValues></_>
        <_>
          <internalNodes>
            0 -1 369 134224896 546852212 -1073807372 213396860 146282452
            1073627135 245892156 203948248</internalNodes>
          <leafValues>
            -8.0323332548141479e-01 3.5208411514759064e-02</leafValues></_>
        <_>
          <internalNodes>
            0 -1 164 -18 -1 -2 -1 -1 2147483647 -1 -134217729</internalNodes>
          <leafValues>
            -1.0262636840343475e-01 2.5773787498474121e-01</leafValues></_>
        <_>
          <internalNodes>
            0 -1 18 2098176 720137916 1073733340 141249772 83627592
            83734526 69143900 72549456</internalNodes>
          <leafValues>
            -7.9362183809280396e-01 3.4764643758535385e-02</leafValues></_>
        <_>
          <internalNodes>
            0 -1 272 -2 -1 -1 -1 -1 -1 -1 -1</internalNodes>
          <leafValues>
            -4.5844428241252899e-02 5.7330703735351563e-01</leafValues></_>
        <_>
          <internalNodes>
            0 -1 80 -2 -1 -1 -1 -1 -1 2147483647 -1</internalNodes>
          <leafValues>
            -5.2053909748792648e-02 5.1339101791381836e-01</leafValues></_>
        <_>
          <internalNodes>
            0 -1 383 -285217042 -2 -1 1073741823 -1 2113929215 -1
            33554431</internalNodes>
          <leafValues>
            -1.5922892093658447e-01 1.4831639826297760e-01</leafValues></_>
        <_>
          <internalNodes>
            0 -1 267 -1562328928 -1843223966 1113769984 1109578786
            4213760 140288 67110434 4211712</internalNodes>
          <leafValues>
            -1.1352282762527466e+00 2.8888911008834839e-02</leafValues></_>
        <_>
          <internalNodes>
            0 -1 425 -1 -1 -1 -1 -1 -1 -1 2147483647</internalNodes>
          <leafValues>
            4.8366583883762360e-02 -5.3557312488555908e-01</leafValues></_>
        <_>
          <internalNodes>
            0 -1 90 -1342181470 -1360003090 -18 -2 -137 2147483647
            2013263733 1476394997</internalNodes>
          <leafValues>
            -2.1150523424148560e-01 1.3257199525833130e-01</leafValues></_>
        <_>
          <internalNodes>
            0 -1 287 212336688 1069292648 2147418110 405804272 246957740
            2147237885 204479996 1072</internalNodes>
          <leafValues>
            -7.7537804841995239e-01 3.7212867289781570e-02</leafValues></_>
        <_>
          <internalNodes>
            0 -1 145 262280112 1073725439 -1073741825 805257213
            1073709051 -1073741825 1073709044 136839168</internalNodes>
          <leafValues>
            -4.0838056802749634e-01 6.1069265007972717e-02</leafValues></_>
        <_>
          <internalNodes>
            0 -1 257 -65540 -1 -1 -1 -1 -1 -1 2147385341</internalNodes>
          <leafValues>
            1.2847428023815155e-01 -1.7780409753322601e-01</leafValues></_>
        <_>
          <internalNodes>
            0 -1 137 -16843026 -65537 -1 -1 -130 2013200382 -1
            2013233151</internalNodes>
          <leafValues>
            -1.3897766172885895e-01 1.6838884353637695e-01</leafValues></_>
        <_>
          <internalNodes>
            0 -1 276 -2 -1 -1 -1 -1 -1 -1 -134217729</internalNodes>
          <leafValues>
            -5.9352759271860123e-02 4.1630467772483826e-01</leafValues></_>
        <_>
          <internalNodes>
            0 -1 212 167928512 11167746 -353698206 28224 -966114816 5632
            -520475968 657920</internalNodes>
          <leafValues>
            -8.1612545251846313e-01 3.4902732819318771e-02</leafValues></_>
        <_>
          <internalNodes>
            0 -1 448 -32769 -1 -1 -1 -1 -1 -1 -98305</internalNodes>
          <leafValues>
            -8.9526243507862091e-02 2.6369351148605347e-01</leafValues></_>
        <_>
          <internalNodes>
            0 -1 332 -1346437216 -269549570 -12 2147418100 1879048175
            1342177279 1476360181 99964405</internalNodes>
          <leafValues>
            -2.0973923802375793e-01 1.1219016462564468e-01</leafValues></_>
        <_>
          <internalNodes>
            0 -1 126 705325058 34261542 772417056 537143842 123145732
            72308550 114111552 4523607</internalNodes>
          <leafValues>
            -8.6479872465133667e-01 3.1860627233982086e-02</leafValues></_>
        <_>
          <internalNodes>
            0 -1 446 -1 -1 -1 -1 -1 -1 -1 2147483647</internalNodes>
          <leafValues>
            4.9790404736995697e-02 -5.0734531879425049e-01</leafValues></_>
        <_>
          <internalNodes>
            0 -1 228 -134 -1 -2 -1 -1 2139095039 2146959359 1467482111</internalNodes>
          <leafValues>
            -1.2334808707237244e-01 2.0034550130367279e-01</leafValues></_>
        <_>
          <internalNodes>
            0 -1 249 48892928 209325308 1794801406 70257912 955927616
            1600003676 1031413240 48</internalNodes>
          <leafValues>
            -7.3954945802688599e-01 3.8151603192090988e-02</leafValues></_>
        <_>
          <internalNodes>
            0 -1 396 1073545212 -1 -1 -1 -1 -1 -1 536641535</internalNodes>
          <leafValues>
            1.5287236869335175e-01 -1.5257060527801514e-01</leafValues></_>
        <_>
          <internalNodes>
            0 -1 329 532522 210292460 8440516 552188 168102954 3132732
            262156 1276</internalNodes>
          <leafValues>
            -9.9601709842681885e-01 2.9010051861405373e-02</leafValues></_>
        <_>
          <internalNodes>
            0 -1 11 115606048 102933026 -806419408 632071776 199688480
            21315536 1165427008 4457488</internalNodes>
          <leafValues>
            -1.0179729461669922e+00 2.9188983142375946e-02</leafValues></_>
        <_>
          <internalNodes>
            0 -1 282 -2 -1 -1 -1 -1 -1 -1 -1</internalNodes>
          <leafValues>
            -3.9455559104681015e-02 6.1545014381408691e-01</leafValues></_>
        <_>
          <internalNodes>
            0 -1 429 3145728 938487116 1072578046 805050876 77348284
            1065254654 249306988 0</internalNodes>
          <leafValues>
            -1.0971211194992065e+00 2.8404781594872475e-02</leafValues></_>
        <_>
          <internalNodes>
            0 -1 297 -65632 -65554 -2 -4 -4 2147483647 1610055671
            391470559</internalNodes>
          <leafValues>
            -1.5731126070022583e-01 1.3778814673423767e-01</leafValues></_>
        <_>
          <internalNodes>
            0 -1 332 -1 -1 -1 -1 -1 -1 -1 2147483647</internalNodes>
          <leafValues>
            5.5800050497055054e-02 -4.6859315037727356e-01</leafValues></_>
        <_>
          <internalNodes>
            0 -1 209 178275360 1795055470 -1200981392 1786273406
            172638272 1446999412 545416 1754</internalNodes>
          <leafValues>
            -6.1528539657592773e-01 4.2551204562187195e-02</leafValues></_>
        <_>
          <internalNodes>
            0 -1 398 35651584 792469140 805060084 712517236 808197600
            1073496060 637276088 2097152</internalNodes>
          <leafValues>
            -1.1252639293670654e+00 2.7326606214046478e-02</leafValues></_>
        <_>
          <internalNodes>
            0 -1 380 -16777234 -2 -1 2147483647 -1 -1 -1 938999807</internalNodes>
          <leafValues>
            -1.0482265055179596e-01 2.2231054306030273e-01</leafValues></_>
        <_>
          <internalNodes>
            0 -1 46 -32769 -1 -1 -1 -1 -1 -1 -1</internalNodes>
          <leafValues>
            -4.0349315851926804e-02 6.5353769063949585e-01</leafValues></_>
        <_>
          <internalNodes>
            0 -1 245 76021760 619373746 778711562 1119365234 4587584
            74728200 1148982098 1130576</internalNodes>
          <leafValues>
            -1.0857987403869629e+00 2.8773237019777298e-02</leafValues></_>
        <_>
          <internalNodes>
            0 -1 269 1176250476 174878446 1056763902 137146046 209477116
            75193724 490020153 2627704</internalNodes>
          <leafValues>
            -5.1721549034118652e-01 4.6276912093162537e-02</leafValues></_>
        <_>
          <internalNodes>
            0 -1 362 103286784 773991168 721290240 640683056 37226256
            70549494 95307121 2561360</internalNodes>
          <leafValues>
            -6.9474744796752930e-01 3.5600703209638596e-02</leafValues></_>
        <_>
          <internalNodes>
            0 -1 433 -1 -1 -1 -1 -1 -1 -1 2147483647</internalNodes>
          <leafValues>
            4.9018301069736481e-02 -4.8693570494651794e-01</leafValues></_>
        <_>
          <internalNodes>
            0 -1 182 -268435458 -1 -1 -1 -1 -1 2147483647 -1</internalNodes>
          <leafValues>
            -5.5954832583665848e-02 4.6248897910118103e-01</leafValues></_>
        <_>
          <internalNodes>
            0 -1 260 -30 -2 -2 -1 -1 2147483647 2147450879 1467963391</internalNodes>
          <leafValues>
            -1.2674161791801453e-01 1.8750064074993134e-01</leafValues></_>
        <_>
          <internalNodes>
            0 -1 317 715927072 547139432 1073622944 737556916 1073622264
            216817532 787884144 1104</internalNodes>
          <leafValues>
            -5.2980452775955200e-01 4.6451654285192490e-02</leafValues></_>
        <_>
          <internalNodes>
            0 -1 121 16480 192032 1073770496 287341824 573603872
            107277360 1459672432 54556416</internalNodes>
          <leafValues>
            -8.4206044673919678e-01 3.2647818326950073e-02</leafValues></_>
        <_>
          <internalNodes>
            0 -1 77 788279032 -2 -1 -1 -2 -1 -2 1073627132</internalNodes>
          <leafValues>
            1.7394743859767914e-01 -1.3613906502723694e-01</leafValues></_>
        <_>
          <internalNodes>
            0 -1 180 136314896 536624380 788512764 401882940 251478012
            536641469 796661692 73402384</internalNodes>
          <leafValues>
            -7.8190904855728149e-01 3.7779428064823151e-02</leafValues></_></weakClassifiers></_>
    <!-- stage 6 -->
    <_>
      <maxWeakCount>73</maxWeakCount>
      <stageThreshold>-1.3675669431686401e+00</stageThreshold>
      <weakClassifiers>
        <_>
          <internalNodes>
            0 -1 208 -258 -1 -65538 -1 -2 -1 -65538 -1</internalNodes>
          <leafValues>
            -5.6046193838119507e-01 -3.6983225494623184e-02</leafValues></_>
        <_>
          <internalNodes>
            0 -1 56 -274 -268435458 -16777474 -16777218 -1 -1 -1 -1</internalNodes>
          <leafValues>
            -1.8325786292552948e-01 1.9576378166675568e-01</leafValues></_>
        <_>
          <internalNodes>
            0 -1 4 -2 -1 -1 -1 -1 -1 -1 1979056117</internalNodes>
          <leafValues>
            -1.1974476277828217e-01 2.4959389865398407e-01</leafValues></_>
        <_>
          <internalNodes>
            0 -1 164 -18 -1 -18 -1 -1 -1 -1 -134217729</internalNodes>
          <leafValues>
            -1.1768413335084915e-01 2.5308826565742493e-01</leafValues></_>
        <_>
          <internalNodes>
            0 -1 417 788278816 788463614 -2 788463614 2147450740
            2147483647 2147450740 74743668</internalNodes>
          <leafValues>
            3.2232418656349182e-01 -9.0289168059825897e-02</leafValues></_>
        <_>
          <internalNodes>
            0 -1 273 -18 -1 -2 -1 -1 -1 -1 -1</internalNodes>
          <leafValues>
            -9.0222567319869995e-02 2.9141956567764282e-01</leafValues></_>
        <_>
          <internalNodes>
            0 -1 117 -268439762 2147483647 -1 -1090519041 2147483647
            2147483647 2147450879 922714111</internalNodes>
          <leafValues>
            -1.6634596884250641e-01 1.5923139452934265e-01</leafValues></_>
        <_>
          <internalNodes>
            0 -1 23 -1343226208 -1342177282 -2 -2 2147483647 2147483647
            2013263861 2147483637</internalNodes>
          <leafValues>
            -1.5300711989402771e-01 1.6498751938343048e-01</leafValues></_>
        <_>
          <internalNodes>
            0 -1 382 -16843072 -4108 -130 2113929215 -140 2147483517
            -129 360150911</internalNodes>
          <leafValues>
            -1.4539046585559845e-01 1.6037686169147491e-01</leafValues></_>
        <_>
          <internalNodes>
            0 -1 434 -1 -1 -1 -1 -1 -1 -1 2147483647</internalNodes>
          <leafValues>
            3.9581969380378723e-02 -5.4928553104400635e-01</leafValues></_>
        <_>
          <internalNodes>
            0 -1 111 -402 -285278226 -16777474 1660878846 -137
            2004877183 2147483647 2004353023</internalNodes>
          <leafValues>
            -2.2220431268215179e-01 1.2184850126504898e-01</leafValues></_>
        <_>
          <internalNodes>
            0 -1 427 788409888 788463614 -2 788463614 2147450740
            2147483647 2147450740 74743668</internalNodes>
          <leafValues>
            2.7485531568527222e-01 -8.4452256560325623e-02</leafValues></_>
        <_>
          <internalNodes>
            0 -1 304 -1363538392 -98306 1056604088 226115194 1073381304
            1073381247 2138062648 288372282</internalNodes>
          <leafValues>
            -3.1356227397918701e-01 7.7543169260025024e-02</leafValues></_>
        <_>
          <internalNodes>
            0 -1 60 1073626748 1073709054 1073627134 1073643519
            1073709052 2147483647 2147385343 1064599551</internalNodes>
          <leafValues>
            -2.1509838104248047e-01 1.1248046159744263e-01</leafValues></_>
        <_>
          <internalNodes>
            0 -1 152 -2 -1 -1 -1 -1 -1 -1 2147483647</internalNodes>
          <leafValues>
            5.3656384348869324e-02 -4.7757431864738464e-01</leafValues></_>
        <_>
          <internalNodes>
            0 -1 49 -268439890 787480558 -16777498 587137023 -178
            1207959551 2013263735 1468006399</internalNodes>
          <leafValues>
            -2.2206874191761017e-01 9.2831678688526154e-02</leafValues></_>
        <_>
          <internalNodes>
            0 -1 345 -1 -1 -1 -1 -1 -1 -1 2147483647</internalNodes>
          <leafValues>
            4.9347609281539917e-02 -5.0794529914855957e-01</leafValues></_>
        <_>
          <internalNodes>
            0 -1 196 -18 -1 -2 -1 -1 2147483647 -134217729 2013265919</internalNodes>
          <leafValues>
            -1.2447335571050644e-01 2.1239419281482697e-01</leafValues></_>
        <_>
          <internalNodes>
            0 -1 154 83421376 11588800 16131168 7356608 83684596
            1174197312 72631376 1075119184</internalNodes>
          <leafValues>
            -7.4524194002151489e-01 3.3205442130565643e-02</leafValues></_>
        <_>
          <internalNodes>
            0 -1 428 -32769 -1 -1 -1 -1 -1 -1 -98305</internalNodes>
          <leafValues>
            -9.2537827789783478e-02 2.5957435369491577e-01</leafValues></_>
        <_>
          <internalNodes>
            0 -1 363 1794549248 1056878320 -491728 -83984716 83144452
            1031745124 33035520 3158272</internalNodes>
          <leafValues>
            -4.2460477352142334e-01 5.4826617240905762e-02</leafValues></_>
        <_>
          <internalNodes>
            0 -1 263 -65558 -2 -2 -1 -2 2147483647 2012741631 1476351999</internalNodes>
          <leafValues>
            -1.2165109813213348e-01 1.8454302847385406e-01</leafValues></_>
        <_>
          <internalNodes>
            0 -1 120 -1 -1 -1 -1 -1 -1 2147483647 -1</internalNodes>
          <leafValues>
            -3.5022191703319550e-02 8.7969404458999634e-01</leafValues></_>
        <_>
          <internalNodes>
            0 -1 136 -358070136 988290794 178306672 134221438 792083828
            2147254134 101728344 33561918</internalNodes>
          <leafValues>
            -5.7122951745986938e-01 4.2426057159900665e-02</leafValues></_>
        <_>
          <internalNodes>
            0 -1 163 720170734 788328431 -257 805273599 -16986372
            83656702 1591566303 74990431</internalNodes>
          <leafValues>
            -2.7487516403198242e-01 8.0739378929138184e-02</leafValues></_>
        <_>
          <internalNodes>
            0 -1 187 451834754 782432834 1458729024 33574144 2004711124
            108396406 1465218832 50484485</internalNodes>
          <leafValues>
            -4.3367224931716919e-01 5.1430121064186096e-02</leafValues></_>
        <_>
          <internalNodes>
            0 -1 335 -1 -1 -1 -1 -1 -1 -1 2147483647</internalNodes>
          <leafValues>
            5.8837477117776871e-02 -4.3295523524284363e-01</leafValues></_>
        <_>
          <internalNodes>
            0 -1 334 1822949888 1857711648 1073657634 872178000
            1866088448 640618282 1730692904 16779009</internalNodes>
          <leafValues>
            -4.3484932184219360e-01 5.7545643299818039e-02</leafValues></_>
        <_>
          <internalNodes>
            0 -1 26 44564480 183434988 -260 661552884 197082996
            503316479 125785460 91558992</internalNodes>
          <leafValues>
            -4.5573371648788452e-01 5.0497032701969147e-02</leafValues></_>
        <_>
          <internalNodes>
            0 -1 259 -2001957216 -2077472702 1308235942 524314 168335536
            36196896 5243056 16</internalNodes>
          <leafValues>
            -1.0885130167007446e+00 2.5243042036890984e-02</leafValues></_>
        <_>
          <internalNodes>
            0 -1 64 585293856 585785888 573596192 2286122 1442510096
            259216241 1414554704 812672122</internalNodes>
          <leafValues>
            -7.4473148584365845e-01 3.2926250249147415e-02</leafValues></_>
        <_>
          <internalNodes>
            0 -1 303 682232904 505945852 2147098620 263720728 1056707964
            1031544636 1052645236 3157298</internalNodes>
          <leafValues>
            -5.0262224674224854e-01 4.3930761516094208e-02</leafValues></_>
        <_>
          <internalNodes>
            0 -1 439 788409888 788463614 -2 788463614 2147450740
            2147483647 2147450740 74743668</internalNodes>
          <leafValues>
            2.8250327706336975e-01 -7.5947590172290802e-02</leafValues></_>
        <_>
          <internalNodes>
            0 -1 316 -2 -1 -1 -1 -1 -1 -1 -1</internalNodes>
          <leafValues>
            -4.3472811579704285e-02 5.1884216070175171e-01</leafValues></_>
        <_>
          <internalNodes>
            0 -1 244 -1363277824 184434670 -1027708864 572717816
            1610501120 1146576710 1182533136 4390774</internalNodes>
          <leafValues>
            -5.4885208606719971e-01 3.7775479257106781e-02</leafValues></_>
        <_>
          <internalNodes>
            0 -1 393 -1073741825 -1 -1 -1 -1 -1 -1 -1073741827</internalNodes>
          <leafValues>
            -5.9913568198680878e-02 3.8131803274154663e-01</leafValues></_>
        <_>
          <internalNodes>
            0 -1 368 -69652 2147483647 -2 2147418111 -1 1879048191 -1
            1073741823</internalNodes>
          <leafValues>
            -1.1460778862237930e-01 1.8439204990863800e-01</leafValues></_>
        <_>
          <internalNodes>
            0 -1 436 788278816 788463614 -2 788463614 2147450740
            2147483647 2147450740 74743668</internalNodes>
          <leafValues>
            2.9090231657028198e-01 -7.8510172665119171e-02</leafValues></_>
        <_>
          <internalNodes>
            0 -1 68 15335424 40511010 720005632 1189486 2004222464
            7759733 372909314 161654</internalNodes>
          <leafValues>
            -8.3325582742691040e-01 3.1672425568103790e-02</leafValues></_>
        <_>
          <internalNodes>
            0 -1 407 -1 -1 -1 -1 -1 -1 -1 2147483647</internalNodes>
          <leafValues>
            5.0562128424644470e-02 -4.2534384131431580e-01</leafValues></_>
        <_>
          <internalNodes>
            0 -1 402 -285278212 -1 -1 -1 -3 -1 -3 1073708927</internalNodes>
          <leafValues>
            -1.1840799450874329e-01 1.9290265440940857e-01</leafValues></_>
        <_>
          <internalNodes>
            0 -1 16 3145768 1056767996 -1073807364 1073741820 251407860
            -1073741825 217978748 5243988</internalNodes>
          <leafValues>
            -5.5197370052337646e-01 3.7152145057916641e-02</leafValues></_>
        <_>
          <internalNodes>
            0 -1 400 14845960 -2005364916 13127500 4755342 -855863794
            78180332 75120954 5526</internalNodes>
          <leafValues>
            -5.5586779117584229e-01 3.8850560784339905e-02</leafValues></_>
        <_>
          <internalNodes>
            0 -1 48 -2031178080 5005566 653411042 2106946 1568621632
            7818868 1425362116 4669508</internalNodes>
          <leafValues>
            -7.1615713834762573e-01 3.3225432038307190e-02</leafValues></_>
        <_>
          <internalNodes>
            0 -1 411 -1 -1 -1 -1 -1 -1 -1 2147483647</internalNodes>
          <leafValues>
            4.9380294978618622e-02 -4.3156436085700989e-01</leafValues></_>
        <_>
          <internalNodes>
            0 -1 262 -1342177374 -269484038 -14 -4 -137 1610612735
            2147481591 1476392949</internalNodes>
          <leafValues>
            -1.6122148931026459e-01 1.4303053915500641e-01</leafValues></_>
        <_>
          <internalNodes>
            0 -1 185 841117696 538968064 1193981024 275795968 930305024
            1113748050 1998878320 1130496</internalNodes>
          <leafValues>
            -7.5194728374481201e-01 3.0833521857857704e-02</leafValues></_>
        <_>
          <internalNodes>
            0 -1 285 -1935008224 183118968 1023297256 742026484
            209196304 502947698 68703312 134761584</internalNodes>
          <leafValues>
            -5.7661432027816772e-01 4.1242077946662903e-02</leafValues></_>
        <_>
          <internalNodes>
            0 -1 7 804138730 1073741823 -1 1073741823 2147483646
            1073741823 2147450876 134153700</internalNodes>
          <leafValues>
            -2.4384686350822449e-01 8.1275723874568939e-02</leafValues></_>
        <_>
          <internalNodes>
            0 -1 116 -65537 -1 -1 -1 -1 -1 -1 -1</internalNodes>
          <leafValues>
            5.6118387728929520e-02 -3.7686342000961304e-01</leafValues></_>
        <_>
          <internalNodes>
            0 -1 276 -2 -1 -1 -1 -1 -1 -1 -1</internalNodes>
          <leafValues>
            -3.7127897143363953e-02 6.2601143121719360e-01</leafValues></_>
        <_>
          <internalNodes>
            0 -1 159 887242752 1858432226 1178600032 117589538 342230080
            71565392 5523024 68419652</internalNodes>
          <leafValues>
            -9.0866076946258545e-01 2.6629347354173660e-02</leafValues></_>
        <_>
          <internalNodes>
            0 -1 356 -1073840132 -1 -1 -1 -1 -1 -3 1073496060</internalNodes>
          <leafValues>
            1.7110840976238251e-01 -1.1676782369613647e-01</leafValues></_>
        <_>
          <internalNodes>
            0 -1 44 -1461015904 48246400 586031778 10625568 -1359428480
            7891542 805175344 6308874</internalNodes>
          <leafValues>
            -6.7275804281234741e-01 3.5582359880208969e-02</leafValues></_>
        <_>
          <internalNodes>
            0 -1 272 -2 -1 -1 -1 -1 -1 -1 -1</internalNodes>
          <leafValues>
            -4.4486563652753830e-02 4.8128569126129150e-01</leafValues></_>
        <_>
          <internalNodes>
            0 -1 149 0 8422512 134163700 358439988 187498800 637474237
            190647604 262160</internalNodes>
          <leafValues>
            -1.2738115787506104e+00 2.2543530911207199e-02</leafValues></_>
        <_>
          <internalNodes>
            0 -1 319 136839168 707006288 1073709036 8924980 486285300
            1073577981 804797816 2098192</internalNodes>
          <leafValues>
            -5.8808767795562744e-01 3.7632606923580170e-02</leafValues></_>
        <_>
          <internalNodes>
            0 -1 105 -286390776 36318318 -1427182944 577198 1610505216
            55526982 1992193872 548702</internalNodes>
          <leafValues>
            -6.4751350879669189e-01 3.5769496113061905e-02</leafValues></_>
        <_>
          <internalNodes>
            0 -1 262 -1 -1 -1 -1 -1 -1 -1 2147483647</internalNodes>
          <leafValues>
            4.8919595777988434e-02 -4.4211703538894653e-01</leafValues></_>
        <_>
          <internalNodes>
            0 -1 379 -16843024 -6 -6 2113929215 -10 2147483647 -1
            91717503</internalNodes>
          <leafValues>
            -1.5011626482009888e-01 1.6213576495647430e-01</leafValues></_>
        <_>
          <internalNodes>
            0 -1 367 2098176 675037168 -16876228 1114644084 268196920
            914325371 473433120 70255664</internalNodes>
          <leafValues>
            -7.2680306434631348e-01 3.1394816935062408e-02</leafValues></_>
        <_>
          <internalNodes>
            0 -1 268 -1440740864 237131776 472908304 3149832 572653568
            1049618 102762242 1054226</internalNodes>
          <leafValues>
            -1.3349537849426270e+00 2.1113630384206772e-02</leafValues></_>
        <_>
          <internalNodes>
            0 -1 428 13108224 216538492 520003070 209587292 1069309434
            268058620 805182908 134218760</internalNodes>
          <leafValues>
            -9.7638875246047974e-01 2.5792436674237251e-02</leafValues></_>
        <_>
          <internalNodes>
            0 -1 33 -1427117536 183431150 -419436832 585826302
            1476359940 25165671 1165456981 91717494</internalNodes>
          <leafValues>
            -5.1709169149398804e-01 4.0403585880994797e-02</leafValues></_>
        <_>
          <internalNodes>
            0 -1 98 -1431691264 720241768 715563522 539910176 1928462416
            16254568 1785349648 33702976</internalNodes>
          <leafValues>
            -8.3182376623153687e-01 2.7136554941534996e-02</leafValues></_>
        <_>
          <internalNodes>
            0 -1 231 -1909322752 511343202 639639072 154341178 7738884
            336625456 74585872 1070404</internalNodes>
          <leafValues>
            -6.7133247852325439e-01 3.2029356807470322e-02</leafValues></_>
        <_>
          <internalNodes>
            0 -1 57 -18 -1 -2 -16777217 -129 -1 -9 2013265919</internalNodes>
          <leafValues>
            1.1795013397932053e-01 -1.6874866187572479e-01</leafValues></_>
        <_>
          <internalNodes>
            0 -1 388 548930576 784103928 -115028 1043864816 211033968
            746094513 1009255704 137364496</internalNodes>
          <leafValues>
            -7.6210409402847290e-01 3.0236894264817238e-02</leafValues></_>
        <_>
          <internalNodes>
            0 -1 322 707788816 1006254588 -1073790980 738071996
            1073481212 1031740927 787225588 134217744</internalNodes>
          <leafValues>
            -1.0348342657089233e+00 2.4758450686931610e-02</leafValues></_>
        <_>
          <internalNodes>
            0 -1 415 788274428 -1 -1 -1 -1 -1 -1 805076988</internalNodes>
          <leafValues>
            2.2513677179813385e-01 -9.2280671000480652e-02</leafValues></_>
        <_>
          <internalNodes>
            0 -1 255 2621440 49154658 536768503 217857908 217003504
            804732927 368842164 74716464</internalNodes>
          <leafValues>
            -6.7382013797760010e-01 3.3587343990802765e-02</leafValues></_>
        <_>
          <internalNodes>
            0 -1 96 -326628864 -31180216 69234402 26146 1599097920
            1162171972 71597120 1074028374</internalNodes>
          <leafValues>
            -7.2086381912231445e-01 3.2341700047254562e-02</leafValues></_>
        <_>
          <internalNodes>
            0 -1 25 8945856 2097280 8422400 2117760 75147328 1080166592
            4719632 1088</internalNodes>
          <leafValues>
            -1.3280739784240723e+00 2.2151269018650055e-02</leafValues></_></weakClassifiers></_>
    <!-- stage 7 -->
    <_>
      <maxWeakCount>89</maxWeakCount>
      <stageThreshold>-1.4250843524932861e+00</stageThreshold>
      <weakClassifiers>
        <_>
          <internalNodes>
            0 -1 167 -258 -1 -258 -1 -2 -1 -1 -1</internalNodes>
          <leafValues>
            -5.4996252059936523e-01 -1.3512057065963745e-01</leafValues></_>
        <_>
          <internalNodes>
            0 -1 310 -1 -1 -1 -1 -1 -1 -1 2147483647</internalNodes>
          <leafValues>
            6.7298464477062225e-02 -5.5150479078292847e-01</leafValues></_>
        <_>
          <internalNodes>
            0 -1 310 -65538 -16842753 -1 -16842754 -1 -1 -1 2004877311</internalNodes>
          <leafValues>
            -1.0411227494478226e-01 4.0280678868293762e-01</leafValues></_>
        <_>
          <internalNodes>
            0 -1 139 -2 -1 -65537 -1 -1 -1 -1 -262145</internalNodes>
          <leafValues>
            -1.3386976718902588e-01 3.2874643802642822e-01</leafValues></_>
        <_>
          <internalNodes>
            0 -1 340 -65538 -1 -1 -1 -1 -1 -1 -1</internalNodes>
          <leafValues>
            -6.6759459674358368e-02 3.5844030976295471e-01</leafValues></_>
        <_>
          <internalNodes>
            0 -1 79 -268435458 -1 -1 -1 2147483647 -1 2147483647 -1</internalNodes>
          <leafValues>
            -7.4486069381237030e-02 3.1986659765243530e-01</leafValues></_>
        <_>
          <internalNodes>
            0 -1 199 -258 -1 -2 -1 -34 2139094911 -1 2004320127</internalNodes>
          <leafValues>
            -1.0913386195898056e-01 2.2642882168292999e-01</leafValues></_>
        <_>
          <internalNodes>
            0 -1 392 -1 -1 -1 -1 -1 -1 -1 2147483647</internalNodes>
          <leafValues>
            1.1854002252221107e-02 -5.2887827157974243e-01</leafValues></_>
        <_>
          <internalNodes>
            0 -1 365 -2 -1 -1 -1 -2 -1 2147483646 2147450879</internalNodes>
          <leafValues>
            -6.5367177128791809e-02 3.2382723689079285e-01</leafValues></_>
        <_>
          <internalNodes>
            0 -1 447 -98305 -1 -1 -1 -1 -1 -1 1073643518</internalNodes>
          <leafValues>
            -1.9158038496971130e-01 1.1660555005073547e-01</leafValues></_>
        <_>
          <internalNodes>
            0 -1 310 -2 -1 -1 -16842753 -129 -1 -9 2012741631</internalNodes>
          <leafValues>
            1.3479913771152496e-01 -1.8124109506607056e-01</leafValues></_>
        <_>
          <internalNodes>
            0 -1 5 -1 -1 -1 -1 -1 -1 -1 2147450879</internalNodes>
          <leafValues>
            -9.7028210759162903e-02 2.5538164377212524e-01</leafValues></_>
        <_>
          <internalNodes>
            0 -1 326 1056849456 1073692478 -2 717160318 -1073791105
            1073692671 2147450878 1044021119</internalNodes>
          <leafValues>
            -2.4184612929821014e-01 9.4886235892772675e-02</leafValues></_>
        <_>
          <internalNodes>
            0 -1 177 788409960 788463614 -2 788463614 2147450740
            2147483647 2147450740 74743668</internalNodes>
          <leafValues>
            2.6784485578536987e-01 -8.3205647766590118e-02</leafValues></_>
        <_>
          <internalNodes>
            0 -1 54 787359746 2813610 49177088 6483558 -1744939520
            71827206 385053760 194175</internalNodes>
          <leafValues>
            -6.7549550533294678e-01 3.8983080536127090e-02</leafValues></_>
        <_>
          <internalNodes>
            0 -1 32 -1 -1 -1 -1 -1 -1 -1 2147483647</internalNodes>
          <leafValues>
            4.1076947003602982e-02 -4.9897897243499756e-01</leafValues></_>
        <_>
          <internalNodes>
            0 -1 50 788479998 1056964607 -1 2147483647 -1 2147483647 -1
            1060831231</internalNodes>
          <leafValues>
            -1.5374507009983063e-01 1.7027767002582550e-01</leafValues></_>
        <_>
          <internalNodes>
            0 -1 271 -1359057174 -1561395218 -65822 1660616702
            2013265742 1148518271 2004318036 1148647286</internalNodes>
          <leafValues>
            -3.3265745639801025e-01 5.9254791587591171e-02</leafValues></_>
        <_>
          <internalNodes>
            0 -1 86 -268435486 -269484034 -2 -268435458 -9 2147483647
            2013263861 2147483639</internalNodes>
          <leafValues>
            -1.5907374024391174e-01 1.2779337167739868e-01</leafValues></_>
        <_>
          <internalNodes>
            0 -1 406 -285282562 -2 -1 2147483647 -1 -1 -1 536870911</internalNodes>
          <leafValues>
            -1.1507390439510345e-01 1.7399448156356812e-01</leafValues></_>
        <_>
          <internalNodes>
            0 -1 452 -1 -1 -1 -1 -1 -1 -1 2147483647</internalNodes>
          <leafValues>
            4.3578710407018661e-02 -5.1674598455429077e-01</leafValues></_>
        <_>
          <internalNodes>
            0 -1 84 -2 -1 -1 -1 -1 -1 -1 -1073741825</internalNodes>
          <leafValues>
            -5.0220392644405365e-02 3.9564874768257141e-01</leafValues></_>
        <_>
          <internalNodes>
            0 -1 312 -98324 -65538 -98306 1073381374 -32770 2147483647
            2147450874 930316155</internalNodes>
          <leafValues>
            -1.6753689944744110e-01 1.1803314089775085e-01</leafValues></_>
        <_>
          <internalNodes>
            0 -1 128 -6 -16842754 -65542 -134217730 -1 -8388609 -1
            2004352895</internalNodes>
          <leafValues>
            -1.2540249526500702e-01 1.5452206134796143e-01</leafValues></_>
        <_>
          <internalNodes>
            0 -1 53 -18 -268435457 -4370 -285212673 -129 2147483647 -137
            2013265919</internalNodes>
          <leafValues>
            1.5376901626586914e-01 -1.4459745585918427e-01</leafValues></_>
        <_>
          <internalNodes>
            0 -1 110 -1561722848 2238184 545398784 25122 107692032
            89018199 1095188480 24887</internalNodes>
          <leafValues>
            -9.9773430824279785e-01 2.5493742898106575e-02</leafValues></_>
        <_>
          <internalNodes>
            0 -1 158 1122133504 132142304 586162688 576860162 341852224
            1346651200 357848320 1430591317</internalNodes>
          <leafValues>
            -8.7195074558258057e-01 2.6609860360622406e-02</leafValues></_>
        <_>
          <internalNodes>
            0 -1 76 732576944 -1073741826 -1 -1073741828 1073692669
            1073741823 1073692148 213124400</internalNodes>
          <leafValues>
            -3.3864623308181763e-01 5.7131536304950714e-02</leafValues></_>
        <_>
          <internalNodes>
            0 -1 91 -1073807362 -1 -1 -65537 -1 -1 -1 1073676287</internalNodes>
          <leafValues>
            1.0717627406120300e-01 -1.8406921625137329e-01</leafValues></_>
        <_>
          <internalNodes>
            0 -1 151 -2 -1 -1 -1 -1 -1 -1 2147450879</internalNodes>
          <leafValues>
            5.5059220641851425e-02 -3.5461270809173584e-01</leafValues></_>
        <_>
          <internalNodes>
            0 -1 247 738460672 110030570 1722438176 1652482810 75252800
            75257620 106190716 38814032</internalNodes>
          <leafValues>
            -6.6331666707992554e-01 3.1166650354862213e-02</leafValues></_>
        <_>
          <internalNodes>
            0 -1 373 -1073790980 -1 -1 2147483647 -1 -1 -1 2147450879</internalNodes>
          <leafValues>
            -9.9078051745891571e-02 1.7784313857555389e-01</leafValues></_>
        <_>
          <internalNodes>
            0 -1 324 1073545212 -1 -1 -1 -1 -1 -1 2147418109</internalNodes>
          <leafValues>
            1.3146747648715973e-01 -1.4172403514385223e-01</leafValues></_>
        <_>
          <internalNodes>
            0 -1 314 145234976 1056727036 -1073938444 1056456700
            77598192 1073643516 497556920 212337840</internalNodes>
          <leafValues>
            -5.3706914186477661e-01 3.8828175514936447e-02</leafValues></_>
        <_>
          <internalNodes>
            0 -1 143 788409888 788463614 -2 788463614 2147450740
            2147483647 2147450740 74743668</internalNodes>
          <leafValues>
            2.6268506050109863e-01 -7.3550686240196228e-02</leafValues></_>
        <_>
          <internalNodes>
            0 -1 224 1794041456 1123350258 1660875984 583360 1417106512
            1618345981 74790228 6387029</internalNodes>
          <leafValues>
            -4.9229231476783752e-01 4.0054045617580414e-02</leafValues></_>
        <_>
          <internalNodes>
            0 -1 67 -4114 -268435457 -18 -285212673 -129 -1 -137
            2013265919</internalNodes>
          <leafValues>
            1.4367201924324036e-01 -1.2402257323265076e-01</leafValues></_>
        <_>
          <internalNodes>
            0 -1 73 -352425950 544141034 -486610270 6486570 1451194112
            4683607 1157068096 7566711</internalNodes>
          <leafValues>
            -8.1756025552749634e-01 2.8271842747926712e-02</leafValues></_>
        <_>
          <internalNodes>
            0 -1 89 111280256 214437376 -553752000 1179041484
            -1886630912 72223812 -553849780 72617304</internalNodes>
          <leafValues>
            -5.9510630369186401e-01 3.4579403698444366e-02</leafValues></_>
        <_>
          <internalNodes>
            0 -1 171 -1398135264 -1427985298 1860234858 1660611310
            250494976 5637124 1180840516 1161970756</internalNodes>
          <leafValues>
            -7.0634067058563232e-01 2.9182797297835350e-02</leafValues></_>
        <_>
          <internalNodes>
            0 -1 219 -1 -1 -1 -1 -1 -1 -1 2147483647</internalNodes>
          <leafValues>
            4.3549586087465286e-02 -4.1269162297248840e-01</leafValues></_>
        <_>
          <internalNodes>
            0 -1 191 -25293812 2147167850 -17531292 1197698224
            2138529552 1465614335 2002091860 89478517</internalNodes>
          <leafValues>
            -3.2052269577980042e-01 6.0764614492654800e-02</leafValues></_>
        <_>
          <internalNodes>
            0 -1 127 140509216 44564992 -827695416 4326404 1823999104
            251427928 1151605848 32320</internalNodes>
          <leafValues>
            -9.5855897665023804e-01 2.3799974471330643e-02</leafValues></_>
        <_>
          <internalNodes>
            0 -1 122 35651584 115486460 1073709055 897417204 246353656
            805273599 134182261 74777620</internalNodes>
          <leafValues>
            -4.6256092190742493e-01 4.0899522602558136e-02</leafValues></_>
        <_>
          <internalNodes>
            0 -1 41 -1563811262 4335714 1680220224 577374306 1699168324
            71583812 1682195524 1141003376</internalNodes>
          <leafValues>
            -1.0942190885543823e+00 2.1337833255529404e-02</leafValues></_>
        <_>
          <internalNodes>
            0 -1 404 178261536 68431364 -554893592 3157628 213659646
            70520700 91635006 3672248</internalNodes>
          <leafValues>
            -6.3574576377868652e-01 3.1270034611225128e-02</leafValues></_>
        <_>
          <internalNodes>
            0 -1 350 750257200 1069301694 -114692 1069301756 1073496028
            1073496063 1056849916 137366544</internalNodes>
          <leafValues>
            -5.9127575159072876e-01 3.1404159963130951e-02</leafValues></_>
        <_>
          <internalNodes>
            0 -1 420 1073627132 -1 -1 -1 -1 -1 -1 1073676287</internalNodes>
          <leafValues>
            1.2442846596240997e-01 -1.4699129760265350e-01</leafValues></_>
        <_>
          <internalNodes>
            0 -1 214 716832768 754851688 2147385343 35657336 696008380
            -1073856524 245382524 7536</internalNodes>
          <leafValues>
            -4.9688124656677246e-01 3.7498798221349716e-02</leafValues></_>
        <_>
          <internalNodes>
            0 -1 133 134219776 302164906 241880634 33615614 137363456
            1717252 1079001154 131586</internalNodes>
          <leafValues>
            -9.1675209999084473e-01 2.2977288812398911e-02</leafValues></_>
        <_>
          <internalNodes>
            0 -1 413 788409888 788463614 -2 788463614 2147450740
            2147483647 2147450740 74743668</internalNodes>
          <leafValues>
            2.5173842906951904e-01 -6.7886896431446075e-02</leafValues></_>
        <_>
          <internalNodes>
            0 -1 266 783813800 855252024 1878683228 336731824 749870108
            1031429621 640947280 2104596</internalNodes>
          <leafValues>
            -5.9121394157409668e-01 3.0988195911049843e-02</leafValues></_>
        <_>
          <internalNodes>
            0 -1 23 35782656 48899726 251556960 49180256 28061696
            108721524 6636544 102187008</internalNodes>
          <leafValues>
            -9.3770354986190796e-01 2.2630838677287102e-02</leafValues></_>
        <_>
          <internalNodes>
            0 -1 87 74244168 14729416 6294568 2117664 83805404
            1156956352 4981828 1310720</internalNodes>
          <leafValues>
            -8.3139073848724365e-01 2.4656005203723907e-02</leafValues></_>
        <_>
          <internalNodes>
            0 -1 173 -1359065396 711876206 -352391442 7757564 2147372612
            1451122254 2122217332 37379965</internalNodes>
          <leafValues>
            -3.6361029744148254e-01 4.8945032060146332e-02</leafValues></_>
        <_>
          <internalNodes>
            0 -1 24 -1 -268435457 -1 -1 -1 -1 -1 2147483647</internalNodes>
          <leafValues>
            6.3266083598136902e-02 -2.9182648658752441e-01</leafValues></_>
        <_>
          <internalNodes>
            0 -1 192 573451778 36351522 1929310720 2815846 1332698688
            73826150 1459050336 4618103</internalNodes>
          <leafValues>
            -5.1731878519058228e-01 3.7867791950702667e-02</leafValues></_>
        <_>
          <internalNodes>
            0 -1 307 69730336 216531992 214696056 1572880 77861120
            1283282005 182980608 3670032</internalNodes>
          <leafValues>
            -1.2291632890701294e+00 1.9010569900274277e-02</leafValues></_>
        <_>
          <internalNodes>
            0 -1 371 805060604 -1 -1 -1 -1 -1 -1 503087100</internalNodes>
          <leafValues>
            1.5550485253334045e-01 -1.1187374591827393e-01</leafValues></_>
        <_>
          <internalNodes>
            0 -1 75 -18 -268435457 -2 -285212673 -129 2147483647 -9
            2013265919</internalNodes>
          <leafValues>
            1.3016557693481445e-01 -1.3072942197322845e-01</leafValues></_>
        <_>
          <internalNodes>
            0 -1 42 -1372639710 49213422 -285217248 586088174 117400324
            75497471 2013230928 276299638</internalNodes>
          <leafValues>
            -3.6946246027946472e-01 5.1402330398559570e-02</leafValues></_>
        <_>
          <internalNodes>
            0 -1 301 -16843032 -65538 -258 -1 -285278210 -2 2146959359
            1467973631</internalNodes>
          <leafValues>
            -1.2717972695827484e-01 1.3585199415683746e-01</leafValues></_>
        <_>
          <internalNodes>
            0 -1 200 -18 -1 -2 -1 -137 2147483647 -137 2012741631</internalNodes>
          <leafValues>
            1.3898868858814240e-01 -1.3829307258129120e-01</leafValues></_>
        <_>
          <internalNodes>
            0 -1 353 145752064 82845712 972304056 2631208 540934292
            721305400 125445180 169869312</internalNodes>
          <leafValues>
            -1.1756373643875122e+00 2.2644383832812309e-02</leafValues></_>
        <_>
          <internalNodes>
            0 -1 328 9055242 143195370 8548068 4250752 15469088 81324250
            2064 1072</internalNodes>
          <leafValues>
            -1.0740770101547241e+00 2.2449823096394539e-02</leafValues></_>
        <_>
          <internalNodes>
            0 -1 225 -161459712 855691362 -747613696 4276224 1364213760
            1617969408 1074021376 0</internalNodes>
          <leafValues>
            -1.0154842138290405e+00 2.2956134751439095e-02</leafValues></_>
        <_>
          <internalNodes>
            0 -1 298 -65812 -6 -2 -2 -4 -1 -12 91520884</internalNodes>
          <leafValues>
            1.6095480322837830e-01 -1.1131349951028824e-01</leafValues></_>
        <_>
          <internalNodes>
            0 -1 296 1314965728 -333305310 2117609656 120594448
            -1910232544 103818752 639641120 8224</internalNodes>
          <leafValues>
            -7.6344382762908936e-01 2.8890335932374001e-02</leafValues></_>
        <_>
          <internalNodes>
            0 -1 423 -1359183876 -1 -1 -1 -1 -1 -1 1056735228</internalNodes>
          <leafValues>
            1.4672772586345673e-01 -1.1852311342954636e-01</leafValues></_>
        <_>
          <internalNodes>
            0 -1 315 -2 -1 -1 -1 -1 -1 -1 -1</internalNodes>
          <leafValues>
            -3.9576977491378784e-02 4.8992636799812317e-01</leafValues></_>
        <_>
          <internalNodes>
            0 -1 217 2097152 251135864 532557812 262938052 49285304
            469581300 208936048 271581220</internalNodes>
          <leafValues>
            -1.1026870012283325e+00 2.1532841026782990e-02</leafValues></_>
        <_>
          <internalNodes>
            0 -1 271 -1 -1 -1 -1 -1 -1 -1 2147483647</internalNodes>
          <leafValues>
            5.1030855625867844e-02 -3.6847320199012756e-01</leafValues></_>
        <_>
          <internalNodes>
            0 -1 343 244198912 653143108 -420594688 2099248 75337476
            1144799092 74785808 1040</internalNodes>
          <leafValues>
            -9.6430248022079468e-01 2.6609543710947037e-02</leafValues></_>
        <_>
          <internalNodes>
            0 -1 430 943459328 1056849780 -98305 779763580 2147356444
            2147385343 805208062 238165822</internalNodes>
          <leafValues>
            -3.7527653574943542e-01 5.0937164574861526e-02</leafValues></_>
        <_>
          <internalNodes>
            0 -1 131 -357405504 1613557408 -1562221856 123880128
            1156858960 1078219860 357913940 1145394496</internalNodes>
          <leafValues>
            -6.4536136388778687e-01 3.1484331935644150e-02</leafValues></_>
        <_>
          <internalNodes>
            0 -1 103 -420608000 36367880 -520207840 60142 1845382656
            4873798 1392006720 161613</internalNodes>
          <leafValues>
            -7.6322299242019653e-01 2.7328372001647949e-02</leafValues></_>
        <_>
          <internalNodes>
            0 -1 275 11288608 1156330792 141049960 150233096 283663428
            360519484 1367102504 17825848</internalNodes>
          <leafValues>
            -6.6903513669967651e-01 3.0642265453934669e-02</leafValues></_>
        <_>
          <internalNodes>
            0 -1 366 44564480 242102060 -34054688 539102232 144997888
            97795920 70254592 1040</internalNodes>
          <leafValues>
            -1.2253383398056030e+00 2.0051730796694756e-02</leafValues></_>
        <_>
          <internalNodes>
            0 -1 74 788409888 788463614 -2 788463614 2147450740
            2013265919 2147450740 74743668</internalNodes>
          <leafValues>
            2.6098206639289856e-01 -6.7059829831123352e-02</leafValues></_>
        <_>
          <internalNodes>
            0 -1 160 783155714 572943914 -486608160 10909634 73356356
            68058988 1920886276 6815584</internalNodes>
          <leafValues>
            -6.1623877286911011e-01 3.1991168856620789e-02</leafValues></_>
        <_>
          <internalNodes>
            0 -1 148 -2 -1 -1 -1 -1 -1 2147483647 -1</internalNodes>
          <leafValues>
            -3.9850935339927673e-02 4.6636328101158142e-01</leafValues></_>
        <_>
          <internalNodes>
            0 -1 139 -1565996416 -352653588 570444354 36334330 256516096
            1476347764 1245860944 36722554</internalNodes>
          <leafValues>
            -6.4363801479339600e-01 3.0522098764777184e-02</leafValues></_>
        <_>
          <internalNodes>
