<?xml version="1.0"?>
<opencv_storage>
<cascade>
  <stageType>BOOST</stageType>
  <featureType>LBP</featureType>
  <height>40</height>
  <width>20</width>
  <stageParams>
    <boostType>RAB</boostType>
    <minHitRate>9.9500000476837158e-01</minHitRate>
    <maxFalseAlarm>3.0000001192092896e-01</maxFalseAlarm>
    <weightTrimRate>9.4999998807907104e-01</weightTrimRate>
    <maxDepth>1</maxDepth>
    <maxWeakCount>180</maxWeakCount></stageParams>
  <featureParams>
    <maxCatCount>256</maxCatCount>
    <featSize>1</featSize></featureParams>
  <stageNum>9</stageNum>
  <stages>
    <!-- stage 0 -->
    <_>
      <maxWeakCount>14</maxWeakCount>
      <stageThreshold>-1.6879640817642212e+00</stageThreshold>
      <weakClassifiers>
        <_>
          <internalNodes>
            0 -1 39 -16781586 -286331154 -16777490 -286327058 -52
            -268435457 -4 -16777217</internalNodes>
          <leafValues>
            -9.0397423505783081e-01 2.7351698279380798e-01</leafValues></_>
        <_>
          <internalNodes>
            0 -1 294 -1073790977 -1 -1 -1 -1 -1 -1 1073627133</internalNodes>
          <leafValues>
            -4.1617280244827271e-01 4.2328569293022156e-01</leafValues></_>
        <_>
          <internalNodes>
            0 -1 62 -268439698 654245870 -285212946 586350334 -137
            2004352895 -137 1886912511</internalNodes>
          <leafValues>
            -6.0736596584320068e-01 2.8569030761718750e-01</leafValues></_>
        <_>
          <internalNodes>
            0 -1 327 -268435458 -2 -1 -1 -1 2147450879 2147483647
            25133055</internalNodes>
          <leafValues>
            -2.9319909214973450e-01 5.2160865068435669e-01</leafValues></_>
        <_>
          <internalNodes>
            0 -1 28 -286277918 787410926 -285212702 1862270974
            2147483511 1207959551 2012706676 1475870711</internalNodes>
          <leafValues>
            -6.5911978483200073e-01 2.2905743122100830e-01</leafValues></_>
        <_>
          <internalNodes>
            0 -1 175 -274 -1 -16777490 -1 2147483470 2004877183 -137
            2004352887</internalNodes>
          <leafValues>
            -3.4793853759765625e-01 3.5506391525268555e-01</leafValues></_>
        <_>
          <internalNodes>
            0 -1 146 -924136736 2681518 -285278466 1244327678 1449545280
            1195768 2130665466 35261050</internalNodes>
          <leafValues>
            -9.0344250202178955e-01 1.2319556623697281e-01</leafValues></_>
        <_>
          <internalNodes>
            0 -1 86 -290525394 653193198 -420549022 715849710 2147450692
            1197997911 2012706660 2004350847</internalNodes>
          <leafValues>
            -7.8526598215103149e-01 1.8350343406200409e-01</leafValues></_>
        <_>
          <internalNodes>
            0 -1 396 -98305 -1 -1 -1 -1 -1 -1 1073627134</internalNodes>
          <leafValues>
            -3.1538915634155273e-01 3.5283312201499939e-01</leafValues></_>
        <_>
          <internalNodes>
            0 -1 219 -1494307286 -286261250 -286331166 -151322634
            1342005068 1182760831 2147448694 1465350007</internalNodes>
          <leafValues>
            -6.4600193500518799e-01 1.8263417482376099e-01</leafValues></_>
        <_>
          <internalNodes>
            0 -1 152 800997168 -1073774595 -1 1073692671 1073741821
            -1073741825 1073709055 805117436</internalNodes>
          <leafValues>
            -5.0723582506179810e-01 2.1557918190956116e-01</leafValues></_>
        <_>
          <internalNodes>
            0 -1 209 -285323734 774307822 1660938752 39517926 2122276676
            1148616542 2013165380 1148450389</internalNodes>
          <leafValues>
            -8.2234203815460205e-01 1.3915643095970154e-01</leafValues></_>
        <_>
          <internalNodes>
            0 -1 57 -285282814 49216238 -1358955838 6487782 2012730948
            107937612 1157592662 71761917</internalNodes>
          <leafValues>
            -9.5569807291030884e-01 1.2975513935089111e-01</leafValues></_>
        <_>
          <internalNodes>
            0 -1 376 -1364587000 -1398657366 -1359286274 570474492
            -1359020034 611205102 -268435457 605951</internalNodes>
          <leafValues>
            -6.4136594533920288e-01 1.6815966367721558e-01</leafValues></_></weakClassifiers></_>
    <!-- stage 1 -->
    <_>
      <maxWeakCount>17</maxWeakCount>
      <stageThreshold>-1.8860433101654053e+00</stageThreshold>
      <weakClassifiers>
        <_>
          <internalNodes>
            0 -1 93 -274 -1 -16777490 -16777217 -1 -1 -1 -1</internalNodes>
          <leafValues>
            -6.7283290624618530e-01 3.4046182036399841e-01</leafValues></_>
        <_>
          <internalNodes>
            0 -1 19 -1343246430 -1343291394 -10 -2 805306367 268435455
            2013231093 1879048181</internalNodes>
          <leafValues>
            -4.7192358970642090e-01 3.4245911240577698e-01</leafValues></_>
        <_>
          <internalNodes>
            0 -1 172 -274 -286261266 -16777498 -486604802 -178
            2004877311 -138 1467482111</internalNodes>
          <leafValues>
            -4.0761697292327881e-01 3.8150712847709656e-01</leafValues></_>
        <_>
          <internalNodes>
            0 -1 339 -1073856513 -1 -1 -1 -1 -1 -1 1073627135</internalNodes>
          <leafValues>
            -3.7606588006019592e-01 4.0916413068771362e-01</leafValues></_>
        <_>
          <internalNodes>
            0 -1 31 -1342181470 -1360003090 -26 -285212674 2147483511
            1744830463 1476360052 1476394997</internalNodes>
          <leafValues>
            -4.4750732183456421e-01 3.6377424001693726e-01</leafValues></_>
        <_>
          <internalNodes>
            0 -1 169 -268435474 -1 -16777490 -1 2139094879 2004877183
            2012706679 2004353015</internalNodes>
          <leafValues>
            -4.4621038436889648e-01 3.4094244241714478e-01</leafValues></_>
        <_>
          <internalNodes>
            0 -1 65 -285216978 788529134 -16777490 587137022 -32939
            2004877183 -137 1954021375</internalNodes>
          <leafValues>
            -5.3880608081817627e-01 2.7706599235534668e-01</leafValues></_>
        <_>
          <internalNodes>
            0 -1 50 -1358959062 787414766 -16845086 587136766 -188
            1197473791 2013263700 1180172279</internalNodes>
          <leafValues>
            -5.6011456251144409e-01 2.4876761436462402e-01</leafValues></_>
        <_>
          <internalNodes>
            0 -1 87 -268452306 787480558 -16777502 1660944383 -32938
            1207959551 2013263735 1450704895</internalNodes>
          <leafValues>
            -4.4708597660064697e-01 2.8578069806098938e-01</leafValues></_>
        <_>
          <internalNodes>
            0 -1 185 -1073856516 -65537 -1 -2 -1 -1 -3 251403772</internalNodes>
          <leafValues>
            -4.7318941354751587e-01 2.6010206341743469e-01</leafValues></_>
        <_>
          <internalNodes>
            0 -1 148 -285217106 -286326802 -16777490 -486604802 -32897
            2004877183 -1 1970798455</internalNodes>
          <leafValues>
            -4.8348012566566467e-01 2.5299173593521118e-01</leafValues></_>
        <_>
          <internalNodes>
            0 -1 206 -18 -1 -274 -1 2147483647 2004877311 2013231095
            2013263871</internalNodes>
          <leafValues>
            -2.9066601395606995e-01 4.0101608633995056e-01</leafValues></_>
        <_>
          <internalNodes>
            0 -1 140 -285266390 787415022 -16777502 577699838 -32946
            1198522239 -134285466 1182203903</internalNodes>
          <leafValues>
            -4.9462774395942688e-01 2.2157047688961029e-01</leafValues></_>
        <_>
          <internalNodes>
            0 -1 243 -1426166230 -1427177730 -285544736 1660612470
            2139062110 1182170998 1433876304 1081275764</internalNodes>
          <leafValues>
            -6.7960602045059204e-01 1.6263709962368011e-01</leafValues></_>
        <_>
          <internalNodes>
            0 -1 126 800996528 1073577982 -1073741826 1073692670
            1073709052 1073184767 536829948 213652528</internalNodes>
          <leafValues>
            -7.7756339311599731e-01 1.6661415994167328e-01</leafValues></_>
        <_>
          <internalNodes>
            0 -1 41 -285217274 116322286 -285212954 586088430 -142641340
            109051775 -134252716 1149206519</internalNodes>
          <leafValues>
            -7.2811943292617798e-01 1.6903853416442871e-01</leafValues></_>
        <_>
          <internalNodes>
            0 -1 325 -1 -1 -1 -1 -1 -1 -1 1577025535</internalNodes>
          <leafValues>
            -1.8710684776306152e-01 5.9029853343963623e-01</leafValues></_></weakClassifiers></_>
    <!-- stage 2 -->
    <_>
      <maxWeakCount>28</maxWeakCount>
      <stageThreshold>-1.7111518383026123e+00</stageThreshold>
      <weakClassifiers>
        <_>
          <internalNodes>
            0 -1 48 -274 -286326802 -16843026 -285278210 -34 -1 -1 -1</internalNodes>
          <leafValues>
            -7.5608116388320923e-01 6.8613216280937195e-02</leafValues></_>
        <_>
          <internalNodes>
            0 -1 150 -1073790977 -1 -1 -1 -1 -1 -1 1073618941</internalNodes>
          <leafValues>
            -3.1383070349693298e-01 3.9230334758758545e-01</leafValues></_>
        <_>
          <internalNodes>
            0 -1 94 -274 -1 -16843010 -16842753 -1 -1 -65537 -1</internalNodes>
          <leafValues>
            -2.4083411693572998e-01 4.8315799236297607e-01</leafValues></_>
        <_>
          <internalNodes>
            0 -1 22 -1343225952 -1360068610 -10 -2 805306359 1879048191
            2013231093 1744828404</internalNodes>
          <leafValues>
            -4.0191805362701416e-01 2.7015456557273865e-01</leafValues></_>
        <_>
          <internalNodes>
            0 -1 137 -268435458 -1 -1 -1 -1 1342177279 -40961 41899647</internalNodes>
          <leafValues>
            -2.3679798841476440e-01 4.0060165524482727e-01</leafValues></_>
        <_>
          <internalNodes>
            0 -1 212 -274 -285212673 -16777490 -16842753 -162 2004877183
            -138 2004353023</internalNodes>
          <leafValues>
            -2.9922616481781006e-01 2.9407152533531189e-01</leafValues></_>
        <_>
          <internalNodes>
            0 -1 5 804143008 -1073741825 -1 -2 805306366 1073741823
            1073706996 268371444</internalNodes>
          <leafValues>
            -4.2063668370246887e-01 2.0893684029579163e-01</leafValues></_>
        <_>
          <internalNodes>
            0 -1 64 -18 -285212673 -2 1862270975 -137 2004877183 -1
            2004877311</internalNodes>
          <leafValues>
            -3.4004873037338257e-01 2.3166060447692871e-01</leafValues></_>
        <_>
          <internalNodes>
            0 -1 264 788459262 -823197956 -1342177538 15400188 721371134
            -1258323977 16596476 5534836</internalNodes>
          <leafValues>
            -5.6812328100204468e-01 1.5199273824691772e-01</leafValues></_>
        <_>
          <internalNodes>
            0 -1 116 -17105174 -2 -65538 -1 -65542 2147483646 -327682
            1987729278</internalNodes>
          <leafValues>
            -2.7525085210800171e-01 2.6419058442115784e-01</leafValues></_>
        <_>
          <internalNodes>
            0 -1 420 -32769 -1 -1 -1 -1 -1 -1 -65537</internalNodes>
          <leafValues>
            -9.6812069416046143e-02 6.5628361701965332e-01</leafValues></_>
        <_>
          <internalNodes>
            0 -1 23 585625186 115797998 2147479526 -353960218 1342168935
            108486503 1476362101 1467481973</internalNodes>
          <leafValues>
            -5.4279714822769165e-01 1.3663733005523682e-01</leafValues></_>
        <_>
          <internalNodes>
            0 -1 238 -1091638624 -327942 -852256 2147482426 1684209382
            1719025534 1165379558 1148405110</internalNodes>
          <leafValues>
            -4.4228082895278931e-01 1.6456270217895508e-01</leafValues></_>
        <_>
          <internalNodes>
            0 -1 381 -1364588032 541998854 -285278554 65070 -1431396434
            3948542 -1 475133</internalNodes>
          <leafValues>
            -6.3834184408187866e-01 1.1751183867454529e-01</leafValues></_>
        <_>
          <internalNodes>
            0 -1 296 1073364340 1073692671 -1 1073643519 1073709055
            -1073741825 1073709052 784080252</internalNodes>
          <leafValues>
            -4.5553511381149292e-01 1.4730663597583771e-01</leafValues></_>
        <_>
          <internalNodes>
            0 -1 11 64 2640960 77659852 1421434304 7864520 16041040
            7350348 -2147205004</internalNodes>
          <leafValues>
            -8.8071590662002563e-01 8.8178172707557678e-02</leafValues></_>
        <_>
          <internalNodes>
            0 -1 199 -118238 -268508438 2013227234 921686752 1970730870
            1736439678 2004186997 1081431287</internalNodes>
          <leafValues>
            -4.8164924979209900e-01 1.3982196152210236e-01</leafValues></_>
        <_>
          <internalNodes>
            0 -1 63 -488480094 573239014 -488443294 538993250 1467438934
            117931863 2004342599 1195538419</internalNodes>
          <leafValues>
            -8.2967269420623779e-01 8.8448368012905121e-02</leafValues></_>
        <_>
          <internalNodes>
            0 -1 163 -496338368 1925115626 -151035392 593654306 37765696
            6571328 1968534788 1409635648</internalNodes>
          <leafValues>
            -8.2619935274124146e-01 7.8538179397583008e-02</leafValues></_>
        <_>
          <internalNodes>
            0 -1 275 -18 -1 -2 -1 -1 -1 -1 -1</internalNodes>
          <leafValues>
            -9.7137287259101868e-02 5.6463384628295898e-01</leafValues></_>
        <_>
          <internalNodes>
            0 -1 89 -285217114 -1360003090 -16777502 1660878847 -178
            1736441855 2013263734 1400897535</internalNodes>
          <leafValues>
            -3.1491571664810181e-01 1.7620220780372620e-01</leafValues></_>
        <_>
          <internalNodes>
            0 -1 212 -1 -1 -1 -1 -1 -1 -1 2147483647</internalNodes>
          <leafValues>
            1.0359408706426620e-01 -7.0540040731430054e-01</leafValues></_>
        <_>
          <internalNodes>
            0 -1 0 -65537 -1 -1 -1 -1 -1 -1 1073692671</internalNodes>
          <leafValues>
            -1.9157628715038300e-01 3.0919542908668518e-01</leafValues></_>
        <_>
          <internalNodes>
            0 -1 278 184290824 44887596 1258094298 16579838 918519796
            40377983 385054207 5124670</internalNodes>
          <leafValues>
            -6.4916765689849854e-01 9.2753745615482330e-02</leafValues></_>
        <_>
          <internalNodes>
            0 -1 45 -285217106 787480558 -16777502 654245886 -188
            1199570943 -140 1468006271</internalNodes>
          <leafValues>
            -3.3651778101921082e-01 1.6231441497802734e-01</leafValues></_>
        <_>
          <internalNodes>
            0 -1 72 56799008 737083374 2147483645 -1073741828 268427259
            805306367 234848253 234819068</internalNodes>
          <leafValues>
            -3.8533732295036316e-01 1.3911502063274384e-01</leafValues></_>
        <_>
          <internalNodes>
            0 -1 85 -1073807362 -1 -1 -1 -1 -1 -1 2147418111</internalNodes>
          <leafValues>
            1.4302219450473785e-01 -3.5257104039192200e-01</leafValues></_>
        <_>
          <internalNodes>
            0 -1 399 1056844828 1073692543 -1 1044283263 -32900
            2147483647 -130 1048199038</internalNodes>
          <leafValues>
            -3.7149909138679504e-01 1.4605444669723511e-01</leafValues></_></weakClassifiers></_>
    <!-- stage 3 -->
    <_>
      <maxWeakCount>30</maxWeakCount>
      <stageThreshold>-1.6528005599975586e+00</stageThreshold>
      <weakClassifiers>
        <_>
          <internalNodes>
            0 -1 76 -8 -2 -2 -2 -2 -1 -2 -1</internalNodes>
          <leafValues>
            -5.9314066171646118e-01 3.4993389248847961e-01</leafValues></_>
        <_>
          <internalNodes>
            0 -1 107 39889632 863174640 -8978444 -524302 930279152
            -8978444 2138505214 -9043971</internalNodes>
          <leafValues>
            -4.4280204176902771e-01 2.8727445006370544e-01</leafValues></_>
        <_>
          <internalNodes>
            0 -1 421 -1 -1 -1 -1 -1 -1 -1 2147483647</internalNodes>
          <leafValues>
            1.2909881770610809e-01 -8.7807595729827881e-01</leafValues></_>
        <_>
          <internalNodes>
            0 -1 2 -16386 -1 -1 -1 -1 -1 -9 99964916</internalNodes>
          <leafValues>
            -2.5206497311592102e-01 4.3569532036781311e-01</leafValues></_>
        <_>
          <internalNodes>
            0 -1 142 -353874720 -16879874 713191160 170557182 534404336
            2147442683 201333976 167911418</internalNodes>
          <leafValues>
            -7.5730657577514648e-01 1.1902461946010590e-01</leafValues></_>
        <_>
          <internalNodes>
            0 -1 246 -18 -1 -2 -1 -1 -1 -1 -1</internalNodes>
          <leafValues>
            -1.4551673829555511e-01 5.7903939485549927e-01</leafValues></_>
        <_>
          <internalNodes>
            0 -1 321 1052644600 1073627135 -1 1073627135 -1073840130
            -1073741825 1073643516 774905136</internalNodes>
          <leafValues>
            -5.8494073152542114e-01 1.0110175609588623e-01</leafValues></_>
        <_>
          <internalNodes>
            0 -1 408 -1 -1 -1 -1 -1 -1 -1 2147483647</internalNodes>
          <leafValues>
            1.0620208084583282e-01 -7.1370178461074829e-01</leafValues></_>
        <_>
          <internalNodes>
            0 -1 170 -274 -1 -258 -1 -2 2139062143 2147483646 2004320127</internalNodes>
          <leafValues>
            -2.4033597111701965e-01 3.5922572016716003e-01</leafValues></_>
        <_>
          <internalNodes>
            0 -1 416 -1 -1 -1 -1 -1 -1 -1 -98305</internalNodes>
          <leafValues>
            -1.4269559085369110e-01 5.4324489831924438e-01</leafValues></_>
        <_>
          <internalNodes>
            0 -1 247 -65796 2147418094 -1 2147483647 -2 2147483647
            1610579967 25124863</internalNodes>
          <leafValues>
            -2.3031787574291229e-01 3.1292578577995300e-01</leafValues></_>
        <_>
          <internalNodes>
            0 -1 221 -1359323608 -360456 2147417846 788168446 1322931448
            1610571775 508720634 238181630</internalNodes>
          <leafValues>
            -4.6341490745544434e-01 1.0215928405523300e-01</leafValues></_>
        <_>
          <internalNodes>
            0 -1 405 -1 -1 -1 -1 -1 -1 -1 2147483647</internalNodes>
          <leafValues>
            9.8044447600841522e-02 -6.7337870597839355e-01</leafValues></_>
        <_>
          <internalNodes>
            0 -1 8 787397664 -268500996 -1 -4 536854525 -1 805271413
            268400116</internalNodes>
          <leafValues>
            -4.2453363537788391e-01 1.7505361139774323e-01</leafValues></_>
        <_>
          <internalNodes>
            0 -1 231 -1427177730 1795096184 1073708790 14958322
            184532724 544699984 16530036 5263440</internalNodes>
          <leafValues>
            -6.5247219800949097e-01 7.0166543126106262e-02</leafValues></_>
        <_>
          <internalNodes>
            0 -1 95 -32769 -1 -1 -1073741825 -1 -1 -1 -1</internalNodes>
          <leafValues>
            -6.8390175700187683e-02 7.4745607376098633e-01</leafValues></_>
        <_>
          <internalNodes>
            0 -1 210 -1346482440 -1073807362 -65538 -98306 2130599672
            1585337980 2147385215 393418615</internalNodes>
          <leafValues>
            -2.9344448447227478e-01 1.5642805397510529e-01</leafValues></_>
        <_>
          <internalNodes>
            0 -1 414 -1 -1 -1 -1 -1 -1 -1 2147483647</internalNodes>
          <leafValues>
            7.5944840908050537e-02 -6.2354052066802979e-01</leafValues></_>
        <_>
          <internalNodes>
            0 -1 349 -286331154 2147483646 -1 1006632959 -1 2013216767
            -1 20938751</internalNodes>
          <leafValues>
            -2.4286106228828430e-01 2.4593259394168854e-01</leafValues></_>
        <_>
          <internalNodes>
            0 -1 330 -50672128 2130640884 -10 -570474627 -33562852
            1967095671 2147442685 355934079</internalNodes>
          <leafValues>
            -3.0843114852905273e-01 1.6035430133342743e-01</leafValues></_>
        <_>
          <internalNodes>
            0 -1 151 178783232 1073496052 -1073922052 1073555132
            268306352 1073684469 532417980 178257920</internalNodes>
          <leafValues>
            -9.5895826816558838e-01 6.6832892596721649e-02</leafValues></_>
        <_>
          <internalNodes>
            0 -1 245 -286651352 1056894970 -1216709856 846341226
            1953635868 104233565 2012512118 3170611</internalNodes>
          <leafValues>
            -5.7802420854568481e-01 8.8230498135089874e-02</leafValues></_>
        <_>
          <internalNodes>
            0 -1 220 149457536 4729856 -269553672 15220224 1290978368
            72621904 -25526562 658218</internalNodes>
          <leafValues>
            -7.4156570434570312e-01 7.1369290351867676e-02</leafValues></_>
        <_>
          <internalNodes>
            0 -1 404 -1 -1 -1 -1 -1 -1 -1 2147483647</internalNodes>
          <leafValues>
            7.9476714134216309e-02 -6.5139400959014893e-01</leafValues></_>
        <_>
          <internalNodes>
            0 -1 398 2130583388 2147450878 -1 1073643391 -32769 -1
            -32769 1065254782</internalNodes>
          <leafValues>
            -2.9727703332901001e-01 1.9506570696830750e-01</leafValues></_>
        <_>
          <internalNodes>
            0 -1 29 -1 -268435457 -2 -1 -1 -805306369 -1 -1</internalNodes>
          <leafValues>
            -1.1443900316953659e-01 4.7418221831321716e-01</leafValues></_>
        <_>
          <internalNodes>
            0 -1 306 -98776 -2 2147450874 2147467198 2147483644
            2147483647 2147434494 360658750</internalNodes>
          <leafValues>
            -2.3981578648090363e-01 1.8123070895671844e-01</leafValues></_>
        <_>
          <internalNodes>
            0 -1 236 -1116510 1068433130 -67109150 2011157216 1869020772
            1987538919 1467446631 72696911</internalNodes>
          <leafValues>
            -3.7339755892753601e-01 1.4811067283153534e-01</leafValues></_>
        <_>
          <internalNodes>
            0 -1 91 -1427469656 585804526 -361174292 36372222 -134219908
            913997694 1461341518 35835898</internalNodes>
          <leafValues>
            -5.1155793666839600e-01 8.8739849627017975e-02</leafValues></_>
        <_>
          <internalNodes>
            0 -1 356 -1 -1 -1 -1 -1 -1 -1 2147483647</internalNodes>
          <leafValues>
            8.3811067044734955e-02 -5.9476715326309204e-01</leafValues></_></weakClassifiers></_>
    <!-- stage 4 -->
    <_>
      <maxWeakCount>47</maxWeakCount>
      <stageThreshold>-1.4824863672256470e+00</stageThreshold>
      <weakClassifiers>
        <_>
          <internalNodes>
            0 -1 344 -1 -1 -1 -1 -1 -1 -1 1442840575</internalNodes>
          <leafValues>
            -5.0745171308517456e-01 1.7700955271720886e-01</leafValues></_>
        <_>
          <internalNodes>
            0 -1 257 -1 -1 -1 -1 -1 -1 -1 -1073774593</internalNodes>
          <leafValues>
            -1.3533443212509155e-01 6.1478650569915771e-01</leafValues></_>
        <_>
          <internalNodes>
            0 -1 82 -22 -274 -2 -65538 -4 -1 -2 -1</internalNodes>
          <leafValues>
            -2.4490253627300262e-01 3.1945946812629700e-01</leafValues></_>
        <_>
          <internalNodes>
            0 -1 214 -258 -1 -2 -1 -32804 2139062143 -1 2004320127</internalNodes>
          <leafValues>
            -2.1177741885185242e-01 2.8478902578353882e-01</leafValues></_>
        <_>
          <internalNodes>
            0 -1 4 -1342259216 -1 -1 -1 2147483647 -1 2147448821
            268391924</internalNodes>
          <leafValues>
            -2.8748142719268799e-01 2.0209801197052002e-01</leafValues></_>
        <_>
          <internalNodes>
            0 -1 415 -98305 -1 -1 -1 -1 -1 -1 1073627135</internalNodes>
          <leafValues>
            -1.8604932725429535e-01 2.8418645262718201e-01</leafValues></_>
        <_>
          <internalNodes>
            0 -1 144 -65798 -1 -65537 -1 -65538 2147483647 -65537
            2147221503</internalNodes>
          <leafValues>
            -1.8935425579547882e-01 2.7743324637413025e-01</leafValues></_>
        <_>
          <internalNodes>
            0 -1 297 783951152 1073692671 -1 1073692671 1073692671
            -1073741825 1073692671 788406268</internalNodes>
          <leafValues>
            -3.9012756943702698e-01 1.3972316682338715e-01</leafValues></_>
        <_>
          <internalNodes>
            0 -1 133 -2 -16842754 -2 -134283266 -1 -142606337 2013265919
            2004352895</internalNodes>
          <leafValues>
            -1.8185925483703613e-01 2.4061256647109985e-01</leafValues></_>
        <_>
          <internalNodes>
            0 -1 268 -286987584 -268768542 -67436840 -269287646
            1723887168 1735802662 1363429372 122046215</internalNodes>
          <leafValues>
            -4.0945962071418762e-01 1.1438475549221039e-01</leafValues></_>
        <_>
          <internalNodes>
            0 -1 282 -1 -1 -1 -1 -1 -1 -1 2147483647</internalNodes>
          <leafValues>
            8.0875903367996216e-02 -5.3855812549591064e-01</leafValues></_>
        <_>
          <internalNodes>
            0 -1 3 -1 -1 -1 -1 -1 -1 -1 1073709055</internalNodes>
          <leafValues>
            -1.3794568181037903e-01 3.3279705047607422e-01</leafValues></_>
        <_>
          <internalNodes>
            0 -1 166 -18 -1 -18 -1 -8388642 2139095039 2004352895
            2004352895</internalNodes>
          <leafValues>
            -2.0689634978771210e-01 2.1570973098278046e-01</leafValues></_>
        <_>
          <internalNodes>
            0 -1 385 1073485180 1073692671 -1 1073643519 -32770 -32769
            2147385342 1048461182</internalNodes>
          <leafValues>
            -3.3275371789932251e-01 1.2790998816490173e-01</leafValues></_>
        <_>
          <internalNodes>
            0 -1 25 -1 -268435457 -1 -1 -1 -1 -9 -1</internalNodes>
          <leafValues>
            -9.2403508722782135e-02 4.5988968014717102e-01</leafValues></_>
        <_>
          <internalNodes>
            0 -1 178 783961336 -327940 2142797054 712670974 205147320
            1073708543 202906840 136977662</internalNodes>
          <leafValues>
            -4.8933619260787964e-01 8.5650980472564697e-02</leafValues></_>
        <_>
          <internalNodes>
            0 -1 370 -1 -1 -1 -1 -1 -1 -1 2147483647</internalNodes>
          <leafValues>
            7.1091167628765106e-02 -6.1743354797363281e-01</leafValues></_>
        <_>
          <internalNodes>
            0 -1 208 1290571336 1789587050 -1 263909118 -570630180
            1197367131 2113789951 548189</internalNodes>
          <leafValues>
            -4.0047007799148560e-01 1.1017340421676636e-01</leafValues></_>
        <_>
          <internalNodes>
            0 -1 239 -1373499904 2120899184 523902488 967980400
            645005312 7493466 87054898 1054514</internalNodes>
          <leafValues>
            -7.1513897180557251e-01 6.0079343616962433e-02</leafValues></_>
        <_>
          <internalNodes>
            0 -1 348 0 106955856 502273328 24448372 70255616 561864548
            70523956 1115153</internalNodes>
          <leafValues>
            -9.7359228134155273e-01 4.8820648342370987e-02</leafValues></_>
        <_>
          <internalNodes>
            0 -1 84 251592430 1291386574 653405946 15782114 -939532292
            1442699220 134176724 72635460</internalNodes>
          <leafValues>
            -5.1820802688598633e-01 8.1805735826492310e-02</leafValues></_>
        <_>
          <internalNodes>
            0 -1 130 -2 -1 -1 -1 -1 -1 -1 2147483647</internalNodes>
          <leafValues>
            6.8346269428730011e-02 -6.1600124835968018e-01</leafValues></_>
        <_>
          <internalNodes>
            0 -1 332 -285282392 2147483647 -2 -1 2147450876 2147434495
            1073692600 96417279</internalNodes>
          <leafValues>
            -2.1643209457397461e-01 1.6123500466346741e-01</leafValues></_>
        <_>
          <internalNodes>
            0 -1 310 -1 -1 -1 -1 -1 -1 -1 2147483647</internalNodes>
          <leafValues>
            6.6485911607742310e-02 -5.4813849925994873e-01</leafValues></_>
        <_>
          <internalNodes>
            0 -1 281 805203944 -65538 2147483646 1073381370 2147450878
            2147483647 2147450878 326334331</internalNodes>
          <leafValues>
            -2.4876509606838226e-01 1.7191079258918762e-01</leafValues></_>
        <_>
          <internalNodes>
            0 -1 20 576889632 116313838 1879048038 787410916 226471930
            109051895 1165456757 1165968757</internalNodes>
          <leafValues>
            -5.3282481431961060e-01 7.5881227850914001e-02</leafValues></_>
        <_>
          <internalNodes>
            0 -1 227 144704560 536743408 -1073856516 1064971768
            536612836 1056718332 1073491452 136315952</internalNodes>
          <leafValues>
            -1.0887527465820312e+00 4.4715058058500290e-02</leafValues></_>
        <_>
          <internalNodes>
            0 -1 53 -285299158 183434926 -285282720 578486014 -8638
            1197473374 1996126038 72810495</internalNodes>
          <leafValues>
            -4.3829661607742310e-01 8.8934153318405151e-02</leafValues></_>
        <_>
          <internalNodes>
            0 -1 204 -1604128224 2061824098 577925856 23543842 6561792
            1077945380 1148285952 83717</internalNodes>
          <leafValues>
            -9.0428727865219116e-01 4.6608615666627884e-02</leafValues></_>
        <_>
          <internalNodes>
            0 -1 117 -354227712 -353702162 581462762 573238014
            1877662784 2004178516 1110594128 2248794</internalNodes>
          <leafValues>
            -5.7522785663604736e-01 6.1921209096908569e-02</leafValues></_>
        <_>
          <internalNodes>
            0 -1 49 -18 -268435457 -18 -285212673 -129 -1 -1 2013265919</internalNodes>
          <leafValues>
            1.5682993829250336e-01 -2.0478339493274689e-01</leafValues></_>
        <_>
          <internalNodes>
            0 -1 242 137136840 2368042 142490590 137161450 217964488
            3950150 1148984344 21332</internalNodes>
          <leafValues>
            -8.0278414487838745e-01 5.1421917974948883e-02</leafValues></_>
        <_>
          <internalNodes>
            0 -1 346 -16843150 -65538 -1 -1 -1 -1 -1 557268863</internalNodes>
          <leafValues>
            -1.5586608648300171e-01 2.0796574652194977e-01</leafValues></_>
        <_>
          <internalNodes>
            0 -1 335 -1 -1 -1 -1 -1 -1 -1 2147483647</internalNodes>
          <leafValues>
            7.0088915526866913e-02 -5.6592261791229248e-01</leafValues></_>
        <_>
          <internalNodes>
            0 -1 92 784223232 5131812 1795042850 4894446 2147226692
            72764486 1962301008 687743</internalNodes>
          <leafValues>
            -7.8463798761367798e-01 4.8253808170557022e-02</leafValues></_>
        <_>
          <internalNodes>
            0 -1 171 -69892 -2 -16777474 -1 -4 2147450876 2147418110
            2004320127</internalNodes>
          <leafValues>
            -1.7318990826606750e-01 1.8514524400234222e-01</leafValues></_>
        <_>
          <internalNodes>
            0 -1 24 44696064 49204964 2130636656 1189902548 134182516
            117407732 629045104 91690352</internalNodes>
          <leafValues>
            -6.1914592981338501e-01 5.6944206357002258e-02</leafValues></_>
        <_>
          <internalNodes>
            0 -1 412 217582608 1073627132 -1073856514 1073233914
            2147385340 2147385343 1073487870 522731324</internalNodes>
          <leafValues>
            -6.4253866672515869e-01 5.6584920734167099e-02</leafValues></_>
        <_>
          <internalNodes>
            0 -1 248 -2 -1 -1 -1 -1 -1 -1 -134217729</internalNodes>
          <leafValues>
            -6.5942645072937012e-02 4.9562144279479980e-01</leafValues></_>
        <_>
          <internalNodes>
            0 -1 287 -1090592784 2147418110 -1073741825 2147450879
            1073676284 1073741823 536772606 251559934</internalNodes>
          <leafValues>
            -2.0609541237354279e-01 1.5559260547161102e-01</leafValues></_>
        <_>
          <internalNodes>
            0 -1 114 -1905333754 36630022 586868258 35810850 1199527684
            1145470816 1961715268 1078411093</internalNodes>
          <leafValues>
            -9.9566704034805298e-01 4.0520057082176208e-02</leafValues></_>
        <_>
          <internalNodes>
            0 -1 313 -1 -1 -1 -1 -1 -1 -1 2147483647</internalNodes>
          <leafValues>
            6.5550200641155243e-02 -5.0031119585037231e-01</leafValues></_>
        <_>
          <internalNodes>
            0 -1 67 -487125504 552365602 -385947102 15400622 1417090560
            72841031 385291572 1406838</internalNodes>
          <leafValues>
            -9.6496677398681641e-01 3.9924465119838715e-02</leafValues></_>
        <_>
          <internalNodes>
            0 -1 380 -2064087040 551591432 -1191408128 4206454
            -2063626740 2426052 -2130754231 2118985</internalNodes>
          <leafValues>
            -7.6390451192855835e-01 4.8241507261991501e-02</leafValues></_>
        <_>
          <internalNodes>
            0 -1 233 -65554 -65538 -10 -1 -1 2139095039 -1 1600085887</internalNodes>
          <leafValues>
            -1.3572654128074646e-01 2.2930674254894257e-01</leafValues></_>
        <_>
          <internalNodes>
            0 -1 400 2130587160 1056931711 -2 981401599 2147450748
            2147450879 -130 1048477564</internalNodes>
          <leafValues>
            -2.6239565014839172e-01 1.1345814168453217e-01</leafValues></_>
        <_>
          <internalNodes>
            0 -1 17 -1343242592 -1343291394 -2 -2 805306359 2147483647
            2013263861 268435444</internalNodes>
          <leafValues>
            -2.2872683405876160e-01 1.2592139840126038e-01</leafValues></_></weakClassifiers></_>
    <!-- stage 5 -->
    <_>
      <maxWeakCount>58</maxWeakCount>
      <stageThreshold>-1.4635667800903320e+00</stageThreshold>
      <weakClassifiers>
        <_>
          <internalNodes>
            0 -1 251 -4 -1 -1 -1 -65538 -1 -65537 -1</internalNodes>
          <leafValues>
            -4.3716177344322205e-01 3.0929723381996155e-01</leafValues></_>
        <_>
          <internalNodes>
            0 -1 15 -825561400 -65572 -20 -2 -268763428 -65540 -65540 -1</internalNodes>
          <leafValues>
            -2.9619944095611572e-01 2.5205016136169434e-01</leafValues></_>
        <_>
          <internalNodes>
            0 -1 68 -20546 -1 -1 -1 -1 -1 -1 73678820</internalNodes>
          <leafValues>
            -2.5249329209327698e-01 2.0730528235435486e-01</leafValues></_>
        <_>
          <internalNodes>
            0 -1 280 -1 -1 -1 -1 -1 -1 -1 2147483647</internalNodes>
          <leafValues>
            9.2265337705612183e-02 -6.5842854976654053e-01</leafValues></_>
        <_>
          <internalNodes>
            0 -1 200 -2 -1 -2 -1 -2 2139095039 2138570751 1970798591</internalNodes>
          <leafValues>
            -1.5794119238853455e-01 4.2998087406158447e-01</leafValues></_>
        <_>
          <internalNodes>
            0 -1 0 -1 -1 -1 -1 -1 -1 -1 1073709055</internalNodes>
          <leafValues>
            -2.0314472913742065e-01 2.4868209660053253e-01</leafValues></_>
        <_>
          <internalNodes>
            0 -1 243 -1 -1 -1 -1 -1 -1 -1 2147483647</internalNodes>
          <leafValues>
            1.1366485804319382e-01 -5.3678488731384277e-01</leafValues></_>
        <_>
          <internalNodes>
            0 -1 250 -4292868 -2 -4 -295170 2147483128 2147450878 -1
            2004049791</internalNodes>
          <leafValues>
            -2.2335971891880035e-01 2.0302225649356842e-01</leafValues></_>
        <_>
          <internalNodes>
            0 -1 252 212360240 1052409340 1073643519 1073708542
            213409008 1073381375 473570812 238575614</internalNodes>
          <leafValues>
            -4.3278208374977112e-01 1.0645891726016998e-01</leafValues></_>
        <_>
          <internalNodes>
            0 -1 273 -2 -1 -1 -1 -1 -1 -1 -1</internalNodes>
          <leafValues>
            -6.6746294498443604e-02 6.2679970264434814e-01</leafValues></_>
        <_>
          <internalNodes>
            0 -1 353 526376 11944 775225022 12076 95174638 11034
            532660223 6943</internalNodes>
          <leafValues>
            -7.9460179805755615e-01 4.3453544378280640e-02</leafValues></_>
        <_>
          <internalNodes>
            0 -1 136 -18 -2 -2 -1 -1 -1 -1 -134217729</internalNodes>
          <leafValues>
            -1.0639382898807526e-01 3.3635216951370239e-01</leafValues></_>
        <_>
          <internalNodes>
            0 -1 193 -100624 -16842754 -1 -65537 -2 -1 -1 -1</internalNodes>
          <leafValues>
            -1.2552982568740845e-01 2.6227009296417236e-01</leafValues></_>
        <_>
          <internalNodes>
            0 -1 54 -18 -1 -16843010 -83951617 -1 -1 -1 -1</internalNodes>
          <leafValues>
            -1.4981073141098022e-01 2.3628941178321838e-01</leafValues></_>
        <_>
          <internalNodes>
            0 -1 28 -18 -268435457 -2 -1 -1 2147483647 2013265783
            2013265919</internalNodes>
          <leafValues>
            -1.8119634687900543e-01 1.9248108565807343e-01</leafValues></_>
        <_>
          <internalNodes>
            0 -1 65 -1 -1 -1 -1 -129 -1 -1 -1</internalNodes>
          <leafValues>
            -5.7703960686922073e-02 6.6635614633560181e-01</leafValues></_>
        <_>
          <internalNodes>
            0 -1 167 -69892 -2 -4358 -1 -32772 2139062270 2147483646
            2004320127</internalNodes>
          <leafValues>
            -1.8397231400012970e-01 1.6174638271331787e-01</leafValues></_>
        <_>
          <internalNodes>
            0 -1 46 -1 -1 -1 -1 -1 -1 -1 2147483647</internalNodes>
          <leafValues>
            5.9162817895412445e-02 -5.4774236679077148e-01</leafValues></_>
        <_>
          <internalNodes>
            0 -1 6 804171748 2147483647 -1 -1 268435454 1073741823
            536870908 268373484</internalNodes>
          <leafValues>
            -2.6145583391189575e-01 1.2831252813339233e-01</leafValues></_>
        <_>
          <internalNodes>
            0 -1 147 -1432205272 -289927446 706902768 136978106
            181273684 1316913006 201327864 33709208</internalNodes>
          <leafValues>
            -6.5215653181076050e-01 5.5002357810735703e-02</leafValues></_>
        <_>
          <internalNodes>
            0 -1 417 -1 -1 -1 -1 -1 -1 -1 -98305</internalNodes>
          <leafValues>
            -8.2189261913299561e-02 4.0765923261642456e-01</leafValues></_>
        <_>
          <internalNodes>
            0 -1 232 -30 -65538 -2 2147483647 -1 2147483647 2013231095
            1467962879</internalNodes>
          <leafValues>
            -1.6337648034095764e-01 1.9661286473274231e-01</leafValues></_>
        <_>
          <internalNodes>
            0 -1 366 1056849424 1073692542 -1 1048461181 -49282
            2147434495 -114690 1044004734</internalNodes>
          <leafValues>
            -3.1757572293281555e-01 8.9220851659774780e-02</leafValues></_>
        <_>
          <internalNodes>
            0 -1 110 -2 -1 -2 -1 -1 -1 -1 -1</internalNodes>
          <leafValues>
            -6.0695689171552658e-02 5.3253608942031860e-01</leafValues></_>
        <_>
          <internalNodes>
            0 -1 269 -83951904 -318832922 -16777473 16777215 -50331660
            1417017204 2113929215 7820799</internalNodes>
          <leafValues>
            -2.8906178474426270e-01 1.0730122774839401e-01</leafValues></_>
        <_>
          <internalNodes>
            0 -1 49 -18 -268435457 -18 -285212673 -129 2147483647 -9
            2013265919</internalNodes>
          <leafValues>
            1.7581054568290710e-01 -1.8237875401973724e-01</leafValues></_>
        <_>
          <internalNodes>
            0 -1 24 -1343225888 788529150 -2 -2 2147483647 2147483647
            2147483637 2013265396</internalNodes>
          <leafValues>
            -2.1136075258255005e-01 1.5132127702236176e-01</leafValues></_>
        <_>
          <internalNodes>
            0 -1 212 -1431695862 7241578 586838560 576909030 662653952
            73760582 1987466820 7501686</internalNodes>
          <leafValues>
            -7.2458189725875854e-01 4.4169638305902481e-02</leafValues></_>
        <_>
          <internalNodes>
            0 -1 394 -1 -1 -1 -1 -1 -1 -1 2147483647</internalNodes>
          <leafValues>
            5.9186901897192001e-02 -5.2228385210037231e-01</leafValues></_>
        <_>
          <internalNodes>
            0 -1 221 216554528 -1427481416 989527282 683286268 205542544
            1610243438 202396920 202509400</internalNodes>
          <leafValues>
            -5.7949757575988770e-01 6.2993362545967102e-02</leafValues></_>
        <_>
          <internalNodes>
            0 -1 88 170584810 573222636 -1360072978 581887726
            -1225211256 6445654 1148996300 4210766</internalNodes>
          <leafValues>
            -5.9512650966644287e-01 4.9825672060251236e-02</leafValues></_>
        <_>
          <internalNodes>
            0 -1 265 -1073840132 -1 -1 -1 -1 -1 -1 1073512444</internalNodes>
          <leafValues>
            1.8683965504169464e-01 -1.5661264955997467e-01</leafValues></_>
        <_>
          <internalNodes>
            0 -1 304 -1703400960 -4560368 -33636574 1647982096 918440964
            775904514 121130824 16975124</internalNodes>
          <leafValues>
            -3.9406096935272217e-01 7.7122069895267487e-02</leafValues></_>
        <_>
          <internalNodes>
            0 -1 338 143132704 1073627132 -32769 1073496060 1073491454
            1073676287 1073496060 2098176</internalNodes>
          <leafValues>
            -6.5234994888305664e-01 4.6030595898628235e-02</leafValues></_>
        <_>
          <internalNodes>
            0 -1 320 -1 -1 -1 -1 -1 -1 -1 -1073774593</internalNodes>
          <leafValues>
            -8.1582143902778625e-02 3.5324075818061829e-01</leafValues></_>
        <_>
          <internalNodes>
            0 -1 351 540051456 1886789828 -1359151748 7660916 1995754816
            609570117 2113361240 3229009</internalNodes>
          <leafValues>
            -5.0932347774505615e-01 5.8609191328287125e-02</leafValues></_>
        <_>
          <internalNodes>
            0 -1 336 1827434060 1194262398 -65538 939327487 -65538
            125829119 2147483647 62865407</internalNodes>
          <leafValues>
            -2.2397950291633606e-01 1.2030497193336487e-01</leafValues></_>
        <_>
          <internalNodes>
            0 -1 154 0 342642168 268386044 535567612 184033084 788496318
            335350133 84149268</internalNodes>
          <leafValues>
            -9.9736756086349487e-01 3.5587441176176071e-02</leafValues></_>
        <_>
          <internalNodes>
            0 -1 409 -1 -1 -1 -1 -1 -1 -1 2147483647</internalNodes>
          <leafValues>
            5.3100984543561935e-02 -5.7598692178726196e-01</leafValues></_>
        <_>
          <internalNodes>
            0 -1 334 -20 2147483647 -2 -1 -4 -1 2147450876 905934847</internalNodes>
          <leafValues>
            -1.4210204780101776e-01 2.0959170162677765e-01</leafValues></_>
        <_>
          <internalNodes>
            0 -1 61 1659003392 572671586 1650647266 4203234 1735862080
            124745599 1953920850 1130592114</internalNodes>
          <leafValues>
            -8.1360614299774170e-01 4.2139451950788498e-02</leafValues></_>
        <_>
          <internalNodes>
            0 -1 119 -285266912 788156012 -352653586 8027886 2113818182
            1465671246 1996422998 687999</internalNodes>
          <leafValues>
            -4.5680132508277893e-01 6.4897656440734863e-02</leafValues></_>
        <_>
          <internalNodes>
            0 -1 58 -4114 -285212673 -18 -285212673 -129 -1 -9
            2013265919</internalNodes>
          <leafValues>
            1.7828215658664703e-01 -1.5575996041297913e-01</leafValues></_>
        <_>
          <internalNodes>
            0 -1 30 178784264 178917002 -1394180576 103050990 52972608
            103042632 1458853004 1145069388</internalNodes>
          <leafValues>
            -8.6672520637512207e-01 4.2593885213136673e-02</leafValues></_>
        <_>
          <internalNodes>
            0 -1 418 1073617936 1073627132 -1 1073643518 2147385342 -1
            -98306 1073495934</internalNodes>
          <leafValues>
            -3.2503047585487366e-01 9.1915264725685120e-02</leafValues></_>
        <_>
          <internalNodes>
            0 -1 319 788409888 788463614 -2 788463614 2147450740
            2147483647 2147450740 74743668</internalNodes>
          <leafValues>
            3.2685422897338867e-01 -8.8475011289119720e-02</leafValues></_>
        <_>
          <internalNodes>
            0 -1 181 175637504 1073627124 1073676284 662187644 784219896
            -1073840388 242761468 2106416</internalNodes>
          <leafValues>
            -5.7764440774917603e-01 5.1162425428628922e-02</leafValues></_>
        <_>
          <internalNodes>
            0 -1 51 -285217042 -1360068626 -16777482 587202303 -162
            2139095039 -137 2004877311</internalNodes>
          <leafValues>
            -2.2297762334346771e-01 1.2917724251747131e-01</leafValues></_>
        <_>
          <internalNodes>
            0 -1 228 1073627120 -1 -1 -1 -1 -1 -1 2147418108</internalNodes>
          <leafValues>
            1.4200334250926971e-01 -2.0227321982383728e-01</leafValues></_>
        <_>
          <internalNodes>
            0 -1 157 -1931476984 283683008 199163904 1310784 81710144
            73731156 265617492 1114128</internalNodes>
          <leafValues>
            -9.6432226896286011e-01 3.5952851176261902e-02</leafValues></_>
        <_>
          <internalNodes>
            0 -1 75 -268456158 787480558 -2 -2 -268435465 1342177279
            2013230964 1207959551</internalNodes>
          <leafValues>
            -2.3272526264190674e-01 1.1450126767158508e-01</leafValues></_>
        <_>
          <internalNodes>
            0 -1 382 -1 -1 -1 -1 -1 -1 -1 2147483647</internalNodes>
          <leafValues>
            5.9633668512105942e-02 -5.0688791275024414e-01</leafValues></_>
        <_>
          <internalNodes>
            0 -1 276 -16875800 -344066 -98566 1056866286 2097086460
            2147483647 2147450876 322123570</internalNodes>
          <leafValues>
            -2.2593903541564941e-01 1.2802949547767639e-01</leafValues></_>
        <_>
          <internalNodes>
            0 -1 179 -65814 -268435457 -2 -1 -2 -268435585 -2 2004320255</internalNodes>
          <leafValues>
            -1.4381720125675201e-01 2.2752588987350464e-01</leafValues></_>
        <_>
          <internalNodes>
            0 -1 186 681574448 247344636 1073634812 783689456 503265768
            805257212 536745912 144180224</internalNodes>
          <leafValues>
            -1.0607194900512695e+00 3.0846429988741875e-02</leafValues></_>
        <_>
          <internalNodes>
            0 -1 371 147360264 16289416 16436300 35468 -989982934
            15753196 83249186 1172</internalNodes>
          <leafValues>
            -7.9417192935943604e-01 4.1569847613573074e-02</leafValues></_>
        <_>
          <internalNodes>
            0 -1 352 644361216 43855520 2130247664 6385260 1023159432
            74779965 477893808 1380624</internalNodes>
          <leafValues>
            -6.0668975114822388e-01 4.5811414718627930e-02</leafValues></_>
        <_>
          <internalNodes>
            0 -1 342 -1 -1 -1 -1 -1 -1 -1 2147483647</internalNodes>
          <leafValues>
            5.5967774242162704e-02 -5.1483958959579468e-01</leafValues></_></weakClassifiers></_>
    <!-- stage 6 -->
    <_>
      <maxWeakCount>76</maxWeakCount>
      <stageThreshold>-1.3501977920532227e+00</stageThreshold>
      <weakClassifiers>
        <_>
          <internalNodes>
            0 -1 139 -258 -1 -258 -1 -2 -1 -65538 -1</internalNodes>
          <leafValues>
            -4.6039137244224548e-01 7.9661577939987183e-02</leafValues></_>
        <_>
          <internalNodes>
            0 -1 277 -65544 -2 2147483390 1073381118 -2 -32769
            2147450874 926113595</internalNodes>
          <leafValues>
            -2.5360059738159180e-01 2.0475593209266663e-01</leafValues></_>
        <_>
          <internalNodes>
            0 -1 364 -16892034 -1 -1 -1090519041 -1 -1 -1 1043890046</internalNodes>
          <leafValues>
            -2.2189500927925110e-01 1.7983575165271759e-01</leafValues></_>
        <_>
          <internalNodes>
            0 -1 14 167833152 776404804 -11599924 -1048594 239140036
            793706460 776273884 -41943172</internalNodes>
          <leafValues>
            -3.9995327591896057e-01 9.9706210196018219e-02</leafValues></_>
        <_>
          <internalNodes>
            0 -1 202 -18 -2 -6 -1 2147483647 2013265919 2013231095
            2013231095</internalNodes>
          <leafValues>
            -1.5714347362518311e-01 2.3099033534526825e-01</leafValues></_>
        <_>
          <internalNodes>
            0 -1 125 -1 -1 -1 -1 -1 -1 -1 -1073741827</internalNodes>
          <leafValues>
            -1.1710659414529800e-01 3.7080490589141846e-01</leafValues></_>
        <_>
          <internalNodes>
            0 -1 241 -2 -1 -1 -1 -2 -1 -1 -1</internalNodes>
          <leafValues>
            -8.8941201567649841e-02 4.8525735735893250e-01</leafValues></_>
        <_>
          <internalNodes>
            0 -1 174 -16843030 -1 -1 -1 -65844 2147418111 2147377151
            1459511295</internalNodes>
          <leafValues>
            -1.7833569645881653e-01 1.8919032812118530e-01</leafValues></_>
        <_>
          <internalNodes>
            0 -1 40 -32771 -1 -1 -1 -1 -1 -1 -1</internalNodes>
          <leafValues>
            -8.0062329769134521e-02 4.2844662070274353e-01</leafValues></_>
        <_>
          <internalNodes>
            0 -1 98 -285249938 1861123694 -285217026 543588094 -129
            2139094911 2147450878 1450639231</internalNodes>
          <leafValues>
            -2.9246217012405396e-01 9.3065224587917328e-02</leafValues></_>
        <_>
          <internalNodes>
            0 -1 329 -1 -1 -1 -1 -1 -1 -1 2147483647</internalNodes>
          <leafValues>
            7.6987996697425842e-02 -4.7898349165916443e-01</leafValues></_>
        <_>
          <internalNodes>
            0 -1 7 -268435458 -1 -1 -1 2147483647 2147483647 2147481591
            1610579967</internalNodes>
          <leafValues>
            -1.3889309763908386e-01 2.3001207411289215e-01</leafValues></_>
        <_>
          <internalNodes>
            0 -1 173 -258 -1 -258 -1 -2 2139062143 -2 2004320127</internalNodes>
          <leafValues>
            -1.6293227672576904e-01 1.6958436369895935e-01</leafValues></_>
        <_>
          <internalNodes>
            0 -1 413 -32769 -1 -1 -1 -1 -1 -1 -65537</internalNodes>
          <leafValues>
            -7.4210643768310547e-02 3.3360451459884644e-01</leafValues></_>
        <_>
          <internalNodes>
            0 -1 13 -2 -1 -1 -1 -1 -1 2147483647 -1</internalNodes>
          <leafValues>
            -5.5753801017999649e-02 5.2431803941726685e-01</leafValues></_>
        <_>
          <internalNodes>
            0 -1 80 -269484062 -1360003090 -18 -268435458 -9 1342177279
            2013230965 1475870711</internalNodes>
          <leafValues>
            -2.3534208536148071e-01 1.0680259019136429e-01</leafValues></_>
        <_>
          <internalNodes>
            0 -1 289 -1 -1 -1 -1 -1 -1 -1 2147483647</internalNodes>
          <leafValues>
            5.0020027905702591e-02 -5.0109201669692993e-01</leafValues></_>
        <_>
          <internalNodes>
            0 -1 328 -65800 -2 -2 -1 -1 2147483647 2147483647 264183679</internalNodes>
          <leafValues>
            -1.3281534612178802e-01 1.9235207140445709e-01</leafValues></_>
        <_>
          <internalNodes>
            0 -1 266 -1997620566 -1393754396 -1409351942 2911350
            44743422 15549249 16592498 112</internalNodes>
          <leafValues>
            -6.2562167644500732e-01 4.5264288783073425e-02</leafValues></_>
        <_>
          <internalNodes>
            0 -1 187 782237856 650002096 1073692671 246300600 264123888
            1073627135 1073682300 168298512</internalNodes>
          <leafValues>
            -6.8107229471206665e-01 4.0548235177993774e-02</leafValues></_>
        <_>
          <internalNodes>
            0 -1 262 -1073807364 -1 -1 -1 -1 -1 -1 1073709052</internalNodes>
          <leafValues>
            1.1927419900894165e-01 -2.0038983225822449e-01</leafValues></_>
        <_>
          <internalNodes>
            0 -1 168 -1427224576 716078638 -487183710 15629922
            2013224516 1146027870 1987867716 7599958</internalNodes>
          <leafValues>
            -5.2776259183883667e-01 4.8433840274810791e-02</leafValues></_>
        <_>
          <internalNodes>
            0 -1 341 775421952 779761456 -1073856516 717104432
            1019092632 1065238526 1056849148 170923296</internalNodes>
          <leafValues>
            -7.1759772300720215e-01 3.4641172736883163e-02</leafValues></_>
        <_>
          <internalNodes>
            0 -1 165 -2 -1 -2 -1 -1 -1 -1 -134217729</internalNodes>
          <leafValues>
            -7.1136318147182465e-02 3.3476287126541138e-01</leafValues></_>
        <_>
          <internalNodes>
            0 -1 333 -16847124 2147483630 -65538 2147483647 2147483647
            1073692671 2147450879 33521663</internalNodes>
          <leafValues>
            -1.8396645784378052e-01 1.3861852884292603e-01</leafValues></_>
        <_>
          <internalNodes>
            0 -1 121 -286332182 -1439813906 -487653662 539159294
            2147448691 106921847 1434449268 1146355583</internalNodes>
          <leafValues>
            -3.5783320665359497e-01 6.5460115671157837e-02</leafValues></_>
        <_>
          <internalNodes>
            0 -1 316 212337664 783351548 788496368 1069055612 233590264
            100171772 234755324 137891324</internalNodes>
          <leafValues>
            -4.4186946749687195e-01 5.5546436458826065e-02</leafValues></_>
        <_>
          <internalNodes>
            0 -1 162 -496831968 -69662 1646326464 1626825298 1950377536
            1465218628 894727252 1148540279</internalNodes>
          <leafValues>
            -4.8717463016510010e-01 5.0039216876029968e-02</leafValues></_>
        <_>
          <internalNodes>
            0 -1 313 -1 -1 -1 -1 -1 -1 -1 2147483647</internalNodes>
          <leafValues>
            5.4848764091730118e-02 -4.5652228593826294e-01</leafValues></_>
        <_>
          <internalNodes>
            0 -1 45 -285249878 787415022 -16777494 587202558 -180
            1199570943 2147483510 1199570943</internalNodes>
          <leafValues>
            -2.6950243115425110e-01 9.3463808298110962e-02</leafValues></_>
        <_>
          <internalNodes>
            0 -1 21 -2 -1 -1 -1 -1 -1 -1 -3</internalNodes>
          <leafValues>
            -6.5497435629367828e-02 4.0845870971679688e-01</leafValues></_>
        <_>
          <internalNodes>
            0 -1 216 183256064 218035952 184469698 1123673848 1080561664
            8143956 1131437912 5259856</internalNodes>
          <leafValues>
            -6.0421615839004517e-01 4.3288003653287888e-02</leafValues></_>
        <_>
          <internalNodes>
            0 -1 223 782763024 1050676308 -1073938436 204477684
            1052253368 1073630812 204475512 136321056</internalNodes>
          <leafValues>
            -7.3906552791595459e-01 3.6046747118234634e-02</leafValues></_>
        <_>
          <internalNodes>
            0 -1 112 6856936 1348524520 82620132 7361216 100499036
            369087684 83713344 67391552</internalNodes>
          <leafValues>
            -5.5814570188522339e-01 4.5609854161739349e-02</leafValues></_>
        <_>
          <internalNodes>
            0 -1 101 788278816 788463614 -2 788463614 2147450740
            2147483647 2147450740 74743668</internalNodes>
          <leafValues>
            2.9508462548255920e-01 -7.8388266265392303e-02</leafValues></_>
        <_>
          <internalNodes>
            0 -1 9 35791904 267304940 805289852 805203708 124665760
            268435319 91162084 133104740</internalNodes>
          <leafValues>
            -5.2523934841156006e-01 4.5975890010595322e-02</leafValues></_>
        <_>
          <internalNodes>
            0 -1 60 -49284 -32769 -65538 1073643519 -1 -1 2147483647
            2147385343</internalNodes>
          <leafValues>
            -1.2672068178653717e-01 1.7039667069911957e-01</leafValues></_>
        <_>
          <internalNodes>
            0 -1 103 788279036 -4 -1 -1 -1 -1 -1 1073692668</internalNodes>
          <leafValues>
            1.5327198803424835e-01 -1.4779208600521088e-01</leafValues></_>
        <_>
          <internalNodes>
            0 -1 102 1073688314 -1 -1 -65538 -1 -1 -1 536756222</internalNodes>
          <leafValues>
            -1.5134608745574951e-01 1.4920756220817566e-01</leafValues></_>
        <_>
          <internalNodes>
            0 -1 305 -2 -1 -1 -1 -1 -1 -1 -1</internalNodes>
          <leafValues>
            -4.6949468553066254e-02 4.9387392401695251e-01</leafValues></_>
        <_>
          <internalNodes>
            0 -1 34 1823402666 572679778 719987362 33694240 335443524
            1078228804 1180910662 4286019</internalNodes>
          <leafValues>
            -8.3333134651184082e-01 3.1116347759962082e-02</leafValues></_>
        <_>
          <internalNodes>
            0 -1 272 714606624 573709936 82841136 70913656 993025968
            506478386 103813176 2098176</internalNodes>
          <leafValues>
            -7.5373882055282593e-01 3.3016033470630646e-02</leafValues></_>
        <_>
          <internalNodes>
            0 -1 337 -1 -1 -1 -1 -1 -1 -1 2147483647</internalNodes>
          <leafValues>
            5.5846840143203735e-02 -4.0920761227607727e-01</leafValues></_>
        <_>
          <internalNodes>
            0 -1 374 15466496 7392256 137628672 22288 1153404682 7390452
            82513416 2102498</internalNodes>
          <leafValues>
            -8.3583134412765503e-01 3.1469192355871201e-02</leafValues></_>
        <_>
          <internalNodes>
            0 -1 295 1056718588 -1073807361 -1 1073676286 -4 -1 -32772
            779886588</internalNodes>
          <leafValues>
            -2.4687473475933075e-01 9.2515788972377777e-02</leafValues></_>
        <_>
          <internalNodes>
            0 -1 360 -65540 2147483647 -2 2147418111 -1 2147483647 -1
            1073709055</internalNodes>
          <leafValues>
            -1.0376268625259399e-01 2.1668405830860138e-01</leafValues></_>
        <_>
          <internalNodes>
            0 -1 274 -1 -1 -1 -1 -1 -1 -1 2147483647</internalNodes>
          <leafValues>
            5.2136972546577454e-02 -4.5203977823257446e-01</leafValues></_>
        <_>
          <internalNodes>
            0 -1 372 -16842884 -3 -1 -1 -3 -1 -1 1065303935</internalNodes>
          <leafValues>
            -1.2147710472345352e-01 1.9387312233448029e-01</leafValues></_>
        <_>
          <internalNodes>
            0 -1 118 -354369374 578473698 1084942050 573239034 912409088
            16402262 1446134032 39978826</internalNodes>
          <leafValues>
            -6.7576986551284790e-01 3.8412827998399734e-02</leafValues></_>
        <_>
          <internalNodes>
            0 -1 284 -2 -1 -1 -1 -1 -1 -1 -1</internalNodes>
          <leafValues>
            -4.0104754269123077e-02 5.6505614519119263e-01</leafValues></_>
        <_>
          <internalNodes>
            0 -1 311 -24 2147483647 -2 2147483646 2147483646 2147483647
            2147450879 931102719</internalNodes>
          <leafValues>
            -1.3093291223049164e-01 1.6994020342826843e-01</leafValues></_>
        <_>
          <internalNodes>
            0 -1 354 -1599951872 8654336 115240138 14722756 78906404
            281893 83102956 3212476</internalNodes>
          <leafValues>
            -8.0863320827484131e-01 3.2393924891948700e-02</leafValues></_>
        <_>
          <internalNodes>
            0 -1 123 117047296 586297070 -352436486 2113272 209650752
            509494532 217928796 68171120</internalNodes>
          <leafValues>
            -6.1700320243835449e-01 3.7577487528324127e-02</leafValues></_>
        <_>
          <internalNodes>
            0 -1 392 788295676 -1 -1 -1 -1 -1 -1 805076988</internalNodes>
          <leafValues>
            1.7255158722400665e-01 -1.2574236094951630e-01</leafValues></_>
        <_>
          <internalNodes>
            0 -1 283 212339728 1026301232 805056376 486018416 136842288
            788012280 146279560 134745192</internalNodes>
          <leafValues>
            -9.2199879884719849e-01 2.7936924248933792e-02</leafValues></_>
        <_>
          <internalNodes>
            0 -1 160 640549376 35809834 583950368 6745376 107955712
            71794510 1182164288 5666678</internalNodes>
          <leafValues>
            -8.5338401794433594e-01 3.0002199113368988e-02</leafValues></_>
        <_>
          <internalNodes>
            0 -1 32 -1 -1 -1 -1 -1 -1 -1 2147418111</internalNodes>
          <leafValues>
            6.0633294284343719e-02 -3.5570544004440308e-01</leafValues></_>
        <_>
          <internalNodes>
            0 -1 38 585640480 6875854 1123742256 2809954 -1594301440
            11167470 1958798896 10188</internalNodes>
          <leafValues>
            -8.1080132722854614e-01 3.2802700996398926e-02</leafValues></_>
        <_>
          <internalNodes>
            0 -1 263 2883816 712128616 653667440 7077888 574402080
            586235408 289145456 1052672</internalNodes>
          <leafValues>
            -8.4975594282150269e-01 3.1267132610082626e-02</leafValues></_>
        <_>
          <internalNodes>
            0 -1 359 -20 2147483647 -2 2147483647 -1 2147483647 -1
            1073741823</internalNodes>
          <leafValues>
            -9.9789649248123169e-02 2.1782949566841125e-01</leafValues></_>
        <_>
          <internalNodes>
            0 -1 225 0 993527040 788430846 721951824 178402928
            -1359184002 36179064 0</internalNodes>
          <leafValues>
            -1.2701802253723145e+00 2.3865826427936554e-02</leafValues></_>
        <_>
          <internalNodes>
            0 -1 406 788282924 788463614 -2 788463614 2147450740
            2147483647 2147450741 74743668</internalNodes>
          <leafValues>
            2.7465939521789551e-01 -7.8775860369205475e-02</leafValues></_>
        <_>
          <internalNodes>
            0 -1 105 111149056 178791520 804725488 631645360 121897376
            268317302 133562544 2359312</internalNodes>
          <leafValues>
            -1.0933475494384766e+00 2.6640377938747406e-02</leafValues></_>
        <_>
          <internalNodes>
            0 -1 301 -2004817792 -2101301656 -269571040 4230272
            -736858940 69495860 1162892608 16778512</internalNodes>
          <leafValues>
            -5.2426856756210327e-01 4.2019322514533997e-02</leafValues></_>
        <_>
          <internalNodes>
            0 -1 407 213650476 1073627132 2147368958 1073496060
            1073496060 2147385342 -1078050820 1043864888</internalNodes>
          <leafValues>
            -6.0490846633911133e-01 3.9994031190872192e-02</leafValues></_>
        <_>
          <internalNodes>
            0 -1 259 779911164 -1 -1 2147483647 -1 -1 2147483647
            352092159</internalNodes>
          <leafValues>
            1.5580238401889801e-01 -1.3503099977970123e-01</leafValues></_>
        <_>
          <internalNodes>
            0 -1 377 11053056 135007240 619448864 1056 -1342378118
            265224 134184121 0</internalNodes>
          <leafValues>
            -9.8364710807800293e-01 2.5689749047160149e-02</leafValues></_>
        <_>
          <internalNodes>
            0 -1 357 -1 -1 -1 -1 -1 -1 -1 2147483647</internalNodes>
          <leafValues>
            5.2701264619827271e-02 -4.1148400306701660e-01</leafValues></_>
        <_>
          <internalNodes>
            0 -1 267 -65558 -2 -2 -2 -2 2147483647 2147450879 1465868254</internalNodes>
          <leafValues>
            -1.3011188805103302e-01 1.7086331546306610e-01</leafValues></_>
        <_>
          <internalNodes>
            0 -1 317 538968096 547888236 788404916 581436724 536751264
            617885636 753667120 0</internalNodes>
          <leafValues>
            -8.8804215192794800e-01 3.0195811763405800e-02</leafValues></_>
        <_>
          <internalNodes>
            0 -1 113 1659791874 38726318 712959520 10944238 2004842308
            108494686 2004251972 1165457269</internalNodes>
          <leafValues>
            -6.2039095163345337e-01 3.6373633891344070e-02</leafValues></_>
        <_>
          <internalNodes>
            0 -1 90 719988864 721087146 571107360 136358442 2138239552
            2139051890 771901520 3294322</internalNodes>
          <leafValues>
            -6.4303189516067505e-01 3.7258129566907883e-02</leafValues></_>
        <_>
          <internalNodes>
            0 -1 153 2097152 493106872 1073528828 922226364 515648624
            1073557245 251399420 203423760</internalNodes>
          <leafValues>
            -1.0423692464828491e+00 2.5824939832091331e-02</leafValues></_>
        <_>
          <internalNodes>
            0 -1 423 788278880 788463614 -2 788463614 2147450740
            2147483647 2147483508 74727284</internalNodes>
          <leafValues>
            2.8055548667907715e-01 -7.7209055423736572e-02</leafValues></_>
        <_>
          <internalNodes>
            0 -1 70 -1359020308 -1 -1 -1 -1 -1 -1 2147483646</internalNodes>
          <leafValues>
            1.1186537891626358e-01 -1.8170462548732758e-01</leafValues></_>
        <_>
          <internalNodes>
            0 -1 222 -16843026 -268435458 -16843010 847183870 -106658
            2139062142 2147418103 1467645951</internalNodes>
          <leafValues>
            -1.7005793750286102e-01 1.2151231616735458e-01</leafValues></_></weakClassifiers></_>
    <!-- stage 7 -->
    <_>
      <maxWeakCount>89</maxWeakCount>
      <stageThreshold>-1.3730063438415527e+00</stageThreshold>
      <weakClassifiers>
        <_>
          <internalNodes>
            0 -1 249 -2 -2 -2 2147155966 -32770 2147450751 2147483647
            1936949119</internalNodes>
          <leafValues>
            -5.4601854085922241e-01 -1.0322526842355728e-01</leafValues></_>
        <_>
          <internalNodes>
            0 -1 141 -18 -1 -18 -1 -1 -1 -1 -134217729</internalNodes>
          <leafValues>
            -1.2663507461547852e-01 2.7440819144248962e-01</leafValues></_>
        <_>
          <internalNodes>
            0 -1 33 -278 -285217042 -6 -84214018 -6 -1 -2 -1</internalNodes>
          <leafValues>
            -1.8783442676067352e-01 1.6467542946338654e-01</leafValues></_>
        <_>
          <internalNodes>
            0 -1 308 -268501080 -1 -2 -33026 2147483646 2147483647
            2147434426 389750459</internalNodes>
          <leafValues>
            -2.0115965604782104e-01 1.5212827920913696e-01</leafValues></_>
        <_>
          <internalNodes>
            0 -1 106 -4 -1 -1 -1 -1 -1 -1 -1073741825</internalNodes>
          <leafValues>
            -5.7211063802242279e-02 4.3997126817703247e-01</leafValues></_>
        <_>
          <internalNodes>
            0 -1 411 -1 -1 -1 -1 -1 -1 -1 -98305</internalNodes>
          <leafValues>
            -1.0342682152986526e-01 3.6607345938682556e-01</leafValues></_>
        <_>
          <internalNodes>
            0 -1 16 -268435486 -1342242818 -2 -1 1879048191 2147483647
            2013231095 1342177279</internalNodes>
          <leafValues>
            -1.9151319563388824e-01 1.5247805416584015e-01</leafValues></_>
        <_>
          <internalNodes>
            0 -1 373 -4 -1 -1 -1 -1 -1 -1 -1</internalNodes>
          <leafValues>
            -3.2929815351963043e-02 4.9809396266937256e-01</leafValues></_>
        <_>
          <internalNodes>
            0 -1 393 -1 -1 -1 -1 -1 -1 -1 2147483647</internalNodes>
          <leafValues>
            3.9911340922117233e-02 -5.6503444910049438e-01</leafValues></_>
        <_>
          <internalNodes>
            0 -1 368 -16826844 1073741695 -2 1056899071 -32900
            2147483647 -4 2147483647</internalNodes>
          <leafValues>
            -1.9400225579738617e-01 1.4384429156780243e-01</leafValues></_>
        <_>
          <internalNodes>
            0 -1 161 -258 -1 -2 -1 -2 2147483647 2139095038 2004320255</internalNodes>
          <leafValues>
            -1.4287318289279938e-01 1.9703409075737000e-01</leafValues></_>
        <_>
          <internalNodes>
            0 -1 258 1052382456 1073627134 -1073758209 1073627134
            1073627135 1073709055 1073627132 674763056</internalNodes>
          <leafValues>
            -4.8129835724830627e-01 5.8554071933031082e-02</leafValues></_>
        <_>
          <internalNodes>
            0 -1 237 -22 -269549570 -10 -10 -129 1879048191 2013263863
            1476392949</internalNodes>
          <leafValues>
            -1.7031019926071167e-01 1.5247288346290588e-01</leafValues></_>
        <_>
          <internalNodes>
            0 -1 237 -1 -1 -1 -1 -1 -1 -1 2147483647</internalNodes>
          <leafValues>
            7.4864611029624939e-02 -5.8693921566009521e-01</leafValues></_>
        <_>
          <internalNodes>
            0 -1 26 -268435488 -285212674 -2 -2 -9 2147483647 2147483637
            2147483636</internalNodes>
          <leafValues>
            -1.7316545546054840e-01 1.5744923055171967e-01</leafValues></_>
        <_>
          <internalNodes>
            0 -1 183 -285282578 -286331154 -16842758 577961982 -32769
            1191149567 -1 1467482111</internalNodes>
          <leafValues>
            -2.1736845374107361e-01 1.1758968979120255e-01</leafValues></_>
        <_>
          <internalNodes>
            0 -1 52 -32772 -1 -1 -1 -1 -1 -1 -1</internalNodes>
          <leafValues>
            -8.1027366220951080e-02 3.1973260641098022e-01</leafValues></_>
        <_>
          <internalNodes>
            0 -1 203 -2 -1 -2 -1 -2 2147450879 2138570751 2004254719</internalNodes>
          <leafValues>
            -1.2994992733001709e-01 1.7608162760734558e-01</leafValues></_>
        <_>
          <internalNodes>
            0 -1 155 -65540 -1 -1 -1 -1 -1 -1 2147385340</internalNodes>
          <leafValues>
            1.1072149872779846e-01 -1.9561813771724701e-01</leafValues></_>
        <_>
          <internalNodes>
            0 -1 73 178389024 1073741822 2147483647 1073741820 805257213
            -1073741825 268394493 234687740</internalNodes>
          <leafValues>
            -3.4271422028541565e-01 7.0037625730037689e-02</leafValues></_>
        <_>
          <internalNodes>
            0 -1 268 -2 -1 -1 -1 -1 -1 -1 -1</internalNodes>
          <leafValues>
            -5.2594363689422607e-02 3.9967459440231323e-01</leafValues></_>
        <_>
          <internalNodes>
            0 -1 307 1291627048 572665386 1878981630 12385275 217849586
            574237982 419184058 3735603</internalNodes>
          <leafValues>
            -4.2829164862632751e-01 5.0022430717945099e-02</leafValues></_>
        <_>
          <internalNodes>
            0 -1 422 -1 -1 -1 -1 -1 -1 -1 2147483647</internalNodes>
          <leafValues>
            4.4103167951107025e-02 -5.3655666112899780e-01</leafValues></_>
        <_>
          <internalNodes>
            0 -1 56 -1358975486 183430894 -352387358 15400959 -33178
            1199570815 2013165431 39510015</internalNodes>
          <leafValues>
            -3.1927642226219177e-01 6.8233758211135864e-02</leafValues></_>
        <_>
          <internalNodes>
            0 -1 386 -65540 -3 -1 -3 -1 -1 -1 931102591</internalNodes>
          <leafValues>
            -1.1262089759111404e-01 1.9215348362922668e-01</leafValues></_>
        <_>
          <internalNodes>
            0 -1 132 -1880880064 -589214112 787418624 89128960 485837892
            1291535428 1163674704 1079263296</internalNodes>
          <leafValues>
            -5.9574538469314575e-01 3.6638882011175156e-02</leafValues></_>
        <_>
          <internalNodes>
            0 -1 378 -1 -1 -1 -1 -1 -1 -1 2147483647</internalNodes>
          <leafValues>
            5.1557425409555435e-02 -4.1010835766792297e-01</leafValues></_>
        <_>
          <internalNodes>
            0 -1 1 -1342193680 -2 -1 -1073741826 -1 -1 2147483636
            99882484</internalNodes>
          <leafValues>
            -2.0576891303062439e-01 1.0659189522266388e-01</leafValues></_>
        <_>
          <internalNodes>
            0 -1 99 -17928478 -286331153 -420545822 6486782 -134250497
            125829119 2004350967 1199013879</internalNodes>
          <leafValues>
            -2.9490253329277039e-01 7.3885865509510040e-02</leafValues></_>
        <_>
          <internalNodes>
            0 -1 330 2097152 279446528 1274551808 5242896 17408 394496
            357766400 66817</internalNodes>
          <leafValues>
            -9.7755300998687744e-01 2.7001695707440376e-02</leafValues></_>
        <_>
          <internalNodes>
            0 -1 375 -16781330 -1 -1 2147483647 -1 -1 -1 1174405119</internalNodes>
          <leafValues>
            -1.0377339273691177e-01 1.9169619679450989e-01</leafValues></_>
        <_>
          <internalNodes>
            0 -1 299 680175658 143572718 -1930641832 149486832 16517678
            16416510 4456448 29940</internalNodes>
          <leafValues>
            -6.0475665330886841e-01 3.3495940268039703e-02</leafValues></_>
        <_>
          <internalNodes>
            0 -1 303 -1 -1 -1 -1 -1 -1 -1 2147483647</internalNodes>
          <leafValues>
            4.8279598355293274e-02 -4.2741432785987854e-01</leafValues></_>
        <_>
          <internalNodes>
            0 -1 345 -65540 -2 -2 -1 -1 -1 2147450879 1065303935</internalNodes>
          <leafValues>
            -1.2110590934753418e-01 1.8692140281200409e-01</leafValues></_>
        <_>
          <internalNodes>
            0 -1 198 170035712 36368034 49177312 33748384 254232384
            71728982 89613664 1561940</internalNodes>
          <leafValues>
            -6.3707280158996582e-01 3.6106381565332413e-02</leafValues></_>
        <_>
          <internalNodes>
            0 -1 218 1051352304 1073414008 2147123196 788152314
            486038944 1069440509 238689528 145366270</internalNodes>
          <leafValues>
            -3.5127472877502441e-01 6.3232101500034332e-02</leafValues></_>
        <_>
          <internalNodes>
            0 -1 261 237636096 71181874 -1099022802 35663392 1044262412
            514733915 243146284 1536</internalNodes>
          <leafValues>
            -9.3220949172973633e-01 2.5514531880617142e-02</leafValues></_>
        <_>
          <internalNodes>
            0 -1 29 715435520 37939782 787408384 40561700 4662848
            5008452 1432831044 72832373</internalNodes>
          <leafValues>
            -8.9941245317459106e-01 2.6732606813311577e-02</leafValues></_>
        <_>
          <internalNodes>
            0 -1 312 -268636568 99614718 -2 1073741823 -65538 1879048191
            2147483647 801013759</internalNodes>
          <leafValues>
            -1.4970272779464722e-01 1.2829144299030304e-01</leafValues></_>
        <_>
          <internalNodes>
            0 -1 361 -1073741825 -1 -1 -1 -1 -1 -1 -1073741827</internalNodes>
          <leafValues>
            -5.8705180883407593e-02 3.6961984634399414e-01</leafValues></_>
        <_>
          <internalNodes>
            0 -1 340 788299772 2147483647 -1 2147483647 -1 -1 -1
            536674303</internalNodes>
          <leafValues>
            1.3440807163715363e-01 -1.4790959656238556e-01</leafValues></_>
        <_>
          <internalNodes>
            0 -1 397 1056705564 1073627004 -32770 1048461150 2147450750
            1073709055 -114690 1043865372</internalNodes>
          <leafValues>
            -3.7779963016510010e-01 5.5104780942201614e-02</leafValues></_>
        <_>
          <internalNodes>
            0 -1 395 805056040 788463614 -2 788463614 2147450742
            2147483647 2147450740 74743668</internalNodes>
          <leafValues>
            2.5529941916465759e-01 -7.7153868973255157e-02</leafValues></_>
        <_>
          <internalNodes>
            0 -1 215 -65796 -1 -2 -1 -4 -32898 -1 2004844543</internalNodes>
          <leafValues>
            -1.1527214944362640e-01 1.6628436744213104e-01</leafValues></_>
        <_>
          <internalNodes>
            0 -1 347 -1 -1 -1 -1 -1 -1 -1 2147483647</internalNodes>
          <leafValues>
            5.2361603826284409e-02 -4.3793115019798279e-01</leafValues></_>
        <_>
          <internalNodes>
            0 -1 303 -1347485792 -269549570 -12 -65548 -1073741825
            1342177279 1610446836 99898869</internalNodes>
          <leafValues>
            -2.0246468484401703e-01 1.0823719203472137e-01</leafValues></_>
        <_>
          <internalNodes>
            0 -1 182 0 1073487700 -1073971201 796405236 1073487740
            1073512445 1073496062 7536</internalNodes>
          <leafValues>
            -5.9697765111923218e-01 3.5824481397867203e-02</leafValues></_>
        <_>
          <internalNodes>
            0 -1 391 2097152 792602976 519319080 791428400 544210944
            1191067516 339488168 8464</internalNodes>
          <leafValues>
            -1.0347062349319458e+00 2.4817477911710739e-02</leafValues></_>
        <_>
          <internalNodes>
            0 -1 44 570556928 578431146 721068546 131082 -222797312
            326765650 577389120 131594</internalNodes>
          <leafValues>
            -8.0239069461822510e-01 2.8022477403283119e-02</leafValues></_>
        <_>
          <internalNodes>
            0 -1 47 -1 -1 -1 -16842753 -1 -1 -1 2147418111</internalNodes>
          <leafValues>
            7.3349207639694214e-02 -2.6000940799713135e-01</leafValues></_>
        <_>
          <internalNodes>
            0 -1 199 -1091689952 -269836118 2013224960 6312688
            1417045572 544630394 1467024448 7685205</internalNodes>
          <leafValues>
            -5.1162523031234741e-01 4.1900541633367538e-02</leafValues></_>
        <_>
          <internalNodes>
            0 -1 270 -2 -1 -1 -1 -1 -1 -1 -1</internalNodes>
          <leafValues>
            -3.5795088857412338e-02 5.9174370765686035e-01</leafValues></_>
        <_>
          <internalNodes>
            0 -1 138 -18 -1 -2 -1 -137 2139095039 -137 2013265919</internalNodes>
          <leafValues>
            1.2341944873332977e-01 -1.5506336092948914e-01</leafValues></_>
        <_>
          <internalNodes>
            0 -1 104 10485792 536100088 1073495996 1072971508 704124720
            804528116 519578928 0</internalNodes>
          <leafValues>
            -1.1095083951950073e+00 2.3874903097748756e-02</leafValues></_>
        <_>
          <internalNodes>
            0 -1 115 -268468498 -286326802 -16777502 1660878847 -32946
            1199570943 -134217865 1467482111</internalNodes>
          <leafValues>
            -2.0980951189994812e-01 9.6515379846096039e-02</leafValues></_>
        <_>
          <internalNodes>
            0 -1 188 -49346 2147483647 -1 1056964607 -1 2147483647
            -32769 875986934</internalNodes>
          <leafValues>
            -1.5118457376956940e-01 1.2756806612014771e-01</leafValues></_>
        <_>
          <internalNodes>
            0 -1 236 -286612320 1068137128 -134264094 1201586624
            107373632 339109730 1383417188 1311756</internalNodes>
          <leafValues>
            -4.0675157308578491e-01 5.3675957024097443e-02</leafValues></_>
        <_>
          <internalNodes>
            0 -1 97 653142562 548072106 -486642046 150254 1994389316
            38696526 1106211936 4914903</internalNodes>
          <leafValues>
            -8.0527794361114502e-01 2.9810532927513123e-02</leafValues></_>
        <_>
          <internalNodes>
            0 -1 293 788414316 788463614 -2 788463614 2147450743
            2147483647 2147450741 75268084</internalNodes>
          <leafValues>
            2.2766405344009399e-01 -8.5947699844837189e-02</leafValues></_>
        <_>
          <internalNodes>
            0 -1 164 -1565777344 551726816 2013231858 326133488
            149947456 7816260 1416762448 7488592</internalNodes>
          <leafValues>
            -6.2442833185195923e-01 3.4987561404705048e-02</leafValues></_>
        <_>
          <internalNodes>
            0 -1 367 1073496052 -1 -1 -1 -1 -1 -1 1073512444</internalNodes>
          <leafValues>
            1.8704235553741455e-01 -9.9215611815452576e-02</leafValues></_>
        <_>
          <internalNodes>
            0 -1 287 -1090593296 -16842754 -1342177281 1073709054
            1342111740 1073676287 503218174 251559934</internalNodes>
          <leafValues>
            -1.8161161243915558e-01 1.0179543495178223e-01</leafValues></_>
        <_>
          <internalNodes>
            0 -1 350 -1 -1 -1 -1 -1 -1 -1 2147483647</internalNodes>
          <leafValues>
            4.9721524119377136e-02 -4.5220178365707397e-01</leafValues></_>
        <_>
          <internalNodes>
            0 -1 290 -16883972 -268468226 -2 1056866302 -98468 -1 -65538
            389709821</internalNodes>
          <leafValues>
            -1.7208816111087799e-01 1.3755092024803162e-01</leafValues></_>
        <_>
          <internalNodes>
            0 -1 229 78523436 16018528 197016184 2359408 44933856
            41698416 3150032 16384</internalNodes>
          <leafValues>
            -8.2941353321075439e-01 2.6932418346405029e-02</leafValues></_>
        <_>
          <internalNodes>
            0 -1 189 0 8720 1073627124 67131216 304092736 1069465592
            587218772 319436064</internalNodes>
          <leafValues>
            -7.5984919071197510e-01 2.8768662363290787e-02</leafValues></_>
        <_>
          <internalNodes>
            0 -1 388 -16842756 -1 -1 -1 -3 -1 -3 939491327</internalNodes>
          <leafValues>
            -1.0475809872150421e-01 2.0049342513084412e-01</leafValues></_>
        <_>
          <internalNodes>
            0 -1 390 -1964244992 73805616 -285315356 15269502 1056812916
            3227517 268320652 3282813</internalNodes>
          <leafValues>
            -4.6018823981285095e-01 4.3992098420858383e-02</leafValues></_>
        <_>
          <internalNodes>
            0 -1 66 -18 -285212673 -2 -285212673 -1 2147483647 -1
            2013265919</internalNodes>
          <leafValues>
            1.5557780861854553e-01 -1.1962248384952545e-01</leafValues></_>
        <_>
          <internalNodes>
            0 -1 135 644743680 170555938 586080802 10942182 209671172
            72310630 117405508 5732214</internalNodes>
          <leafValues>
            -6.6100823879241943e-01 3.2471049576997757e-02</leafValues></_>
        <_>
          <internalNodes>
            0 -1 254 -1 -1 -1 -1 -1 -1 -1 2147483647</internalNodes>
          <leafValues>
            4.7874633222818375e-02 -4.2411178350448608e-01</leafValues></_>
        <_>
          <internalNodes>
            0 -1 177 1252541472 -84259218 2050514104 573086970 215630864
            1987343952 134222920 1055356</internalNodes>
          <leafValues>
            -5.6921422481536865e-01 3.7310872226953506e-02</leafValues></_>
        <_>
          <internalNodes>
            0 -1 315 201331728 766516596 1073364988 481822076 203425008
            1073299455 229117372 203424820</internalNodes>
          <leafValues>
            -7.2863227128982544e-01 2.9814193025231361e-02</leafValues></_>
        <_>
          <internalNodes>
            0 -1 205 -268435606 -286326802 -30 -16777218 -161 1870659455
            2013263734 2004877303</internalNodes>
          <leafValues>
            -1.6832733154296875e-01 1.1239863932132721e-01</leafValues></_>
        <_>
          <internalNodes>
            0 -1 108 32896 7340256 71567428 86084 15990848 1087705172
            71565380 328784</internalNodes>
          <leafValues>
            -9.8525106906890869e-01 2.3822890594601631e-02</leafValues></_>
        <_>
          <internalNodes>
            0 -1 109 -1 -1 -1 -1 -1 -1 2147483647 -1</internalNodes>
          <leafValues>
            -2.5408329442143440e-02 8.8611590862274170e-01</leafValues></_>
        <_>
          <internalNodes>
            0 -1 130 -2 -1 -1 -1 -1 -1 -1 2147483647</internalNodes>
          <leafValues>
            4.4133469462394714e-02 -4.5422983169555664e-01</leafValues></_>
        <_>
          <internalNodes>
            0 -1 234 2012269696 -1431772544 1610305024 512 1826901184
            541377056 1141179460 0</internalNodes>
          <leafValues>
            -6.7887151241302490e-01 3.2664708793163300e-02</leafValues></_>
        <_>
          <internalNodes>
            0 -1 64 -268439826 -285278209 -16777234 1660878846 -137
            2004877183 2147483647 1971322879</internalNodes>
          <leafValues>
            -2.1914176642894745e-01 9.0868033468723297e-02</leafValues></_>
        <_>
          <internalNodes>
            0 -1 191 2097200 116524284 268316668 259788148 174326448
            737947644 108527924 524336</internalNodes>
          <leafValues>
            -9.2751669883728027e-01 2.4178959429264069e-02</leafValues></_>
        <_>
          <internalNodes>
            0 -1 300 -65540 -1 -1 -1 -1 -1 -1 1073496060</internalNodes>
          <leafValues>
            1.4667862653732300e-01 -1.3663956522941589e-01</leafValues></_>
        <_>
          <internalNodes>
            0 -1 83 -1342181462 -1360003090 -2 -268435458 -137
            1207959551 1476392820 1476361717</internalNodes>
          <leafValues>
            -1.9868016242980957e-01 9.5370054244995117e-02</leafValues></_>
        <_>
          <internalNodes>
            0 -1 401 140771328 15468660 -293667586 73927804 784204808
            -1895923846 -2000943988 2100248</internalNodes>
          <leafValues>
            -8.0544579029083252e-01 2.6253994554281235e-02</leafValues></_>
        <_>
          <internalNodes>
            0 -1 149 788278824 788463614 -2 788463614 2147450740
            2147483647 2147450740 74743668</internalNodes>
          <leafValues>
            2.4371454119682312e-01 -7.2228595614433289e-02</leafValues></_>
        <_>
          <internalNodes>
            0 -1 100 -353440248 586083950 -487660000 15136494 1988064580
            1148485445 1953985904 5767031</internalNodes>
          <leafValues>
            -6.8573284149169922e-01 3.0738590285181999e-02</leafValues></_>
        <_>
          <internalNodes>
            0 -1 348 0 94897520 1576283440 292818228 3148816 331161396
            87563572 2163989</internalNodes>
          <leafValues>
            -6.5361350774765015e-01 3.2436348497867584e-02</leafValues></_>
        <_>
          <internalNodes>
            0 -1 192 145358880 79443490 -101532 48513012 76416456
            1073692351 309671620 729694069</internalNodes>
          <leafValues>
            -4.2273464798927307e-01 4.4797439128160477e-02</leafValues></_>
        <_>
          <internalNodes>
            0 -1 81 -268435458 -285212673 -1 -1 -1 -1 -1 2147483647</internalNodes>
          <leafValues>
            8.0046735703945160e-02 -2.3046280443668365e-01</leafValues></_>
        <_>
          <internalNodes>
            0 -1 69 136314912 847001576 -1073958916 1040068088 268177140
            804552700 800855412 16</internalNodes>
          <leafValues>
            -9.6986150741577148e-01 2.3405130952596664e-02</leafValues></_></weakClassifiers></_>
    <!-- stage 8 -->
    <_>
      <maxWeakCount>104</maxWeakCount>
      <stageThreshold>-1.3246186971664429e+00</stageThreshold>
      <weakClassifiers>
        <_>
          <internalNodes>
            0 -1 120 -274 -1 -16777474 -1 -1 -1 -1 -1</internalNodes>
          <leafValues>
            -4.5021364092826843e-01 -5.3427685052156448e-02</leafValues></_>
        <_>
          <internalNodes>
            0 -1 355 -69652 2147483647 -2 -1 -1073741828 2013265917
            1073709048 100603389</internalNodes>
          <leafValues>
            -1.9018383324146271e-01 1.5647992491722107e-01</leafValues></_>
        <_>
          <internalNodes>
            0 -1 275 -2 -1 -1 -1 -1 -1 -1 -1</internalNodes>
          <leafValues>
            -6.2335070222616196e-02 4.3791252374649048e-01</leafValues></_>
        <_>
          <internalNodes>
            0 -1 71 -1 -1 -1 -1 -1 -1 -1 -134217729</internalNodes>
          <leafValues>
            -5.9876222163438797e-02 4.6031945943832397e-01</leafValues></_>
        <_>
          <internalNodes>
            0 -1 207 -65540 -1 -2 -1 2147483644 2147442687 2147483647
            2004057983</internalNodes>
          <leafValues>
            -1.6416211426258087e-01 1.4779108762741089e-01</leafValues></_>
        <_>
          <internalNodes>
            0 -1 78 -2 -2 -2 -2 -2 -1 -1 -8388737</internalNodes>
          <leafValues>
            -9.3376092612743378e-02 2.5669988989830017e-01</leafValues></_>
        <_>
          <internalNodes>
            0 -1 389 -1 -1 -1 -1 -1 -1 -1 2147483647</internalNodes>
          <leafValues>
            9.8512150347232819e-02 -3.9952677488327026e-01</leafValues></_>
        <_>
          <internalNodes>
            0 -1 12 250490400 -1359020036 -1 1073741820 268320700
            1342177279 134166004 234817012</internalNodes>
          <leafValues>
            -4.3512618541717529e-01 2.8618287295103073e-02</leafValues></_>
        <_>
          <internalNodes>
            0 -1 74 -2 -1 -1 -1 -1 -1 2147483647 -1</internalNodes>
          <leafValues>
            -2.6174580678343773e-02 4.8703616857528687e-01</leafValues></_>
        <_>
          <internalNodes>
            0 -1 410 -98306 -1 -1 -1 -1 -1 -1 1073627134</internalNodes>
          <leafValues>
            -1.8071562051773071e-01 1.2821705639362335e-01</leafValues></_>
        <_>
          <internalNodes>
            0 -1 286 -268546306 -1 -2 1929314302 -106660 2147450879
            -65538 930775039</internalNodes>
          <leafValues>
            -1.5268427133560181e-01 1.4076848328113556e-01</leafValues></_>
        <_>
          <internalNodes>
            0 -1 286 -1 -1 -1 -1 -1 -1 -1 2147483647</internalNodes>
          <leafValues>
            5.4727043956518173e-02 -4.5134025812149048e-01</leafValues></_>
        <_>
          <internalNodes>
            0 -1 190 -1073741826 -1 -1 -1 -1 -1 -1 2147483647</internalNodes>
          <leafValues>
            -8.5549779236316681e-02 2.8289410471916199e-01</leafValues></_>
        <_>
          <internalNodes>
            0 -1 302 -16777474 -16777218 -1 -1 -2 -1 2147483647
            326598527</internalNodes>
          <leafValues>
            -1.2199642509222031e-01 1.6732482612133026e-01</leafValues></_>
        <_>
          <internalNodes>
            0 -1 77 -2 -1 -1 -1 -1 -1 -1 -1073741825</internalNodes>
          <leafValues>
            -4.5311681926250458e-02 3.9780721068382263e-01</leafValues></_>
        <_>
          <internalNodes>
            0 -1 217 -2 -1 -1 -1 -1 -1 -1 -1</internalNodes>
          <leafValues>
            -4.2695384472608566e-02 4.8238059878349304e-01</leafValues></_>
        <_>
          <internalNodes>
            0 -1 271 -2 -1 -1 -1 -1 -1 -1 -1</internalNodes>
          <leafValues>
            -4.5909851789474487e-02 4.5841851830482483e-01</leafValues></_>
        <_>
          <internalNodes>
            0 -1 309 -2 -1 -1 -1 -1 -1 -1 -1</internalNodes>
          <leafValues>
            -4.1349023580551147e-02 5.8921283483505249e-01</leafValues></_>
        <_>
          <internalNodes>
            0 -1 298 -1359073538 -286326786 -65537 -303104001 -16826625
            -134217729 1425407231 1417018879</internalNodes>
          <leafValues>
            -1.7547874152660370e-01 1.1410868167877197e-01</leafValues></_>
        <_>
          <internalNodes>
            0 -1 96 1073692670 1073741822 -2 1073676286 -2 2147483644 -1
            2147385342</internalNodes>
          <leafValues>
            -1.3354243338108063e-01 1.3648587465286255e-01</leafValues></_>
        <_>
          <internalNodes>
            0 -1 324 -1073840132 -1 -1 -1 -1 -1 -1 1073496060</internalNodes>
          <leafValues>
            1.5686224400997162e-01 -1.1561518162488937e-01</leafValues></_>
        <_>
          <internalNodes>
            0 -1 143 -1427445534 -1435570198 1795096302 -419498257
            1123959808 586696560 1451118172 39732550</internalNodes>
          <leafValues>
            -4.0343645215034485e-01 4.2261417955160141e-02</leafValues></_>
        <_>
          <internalNodes>
            0 -1 172 1651113992 6971946 15343616 4256480 1734296580
            290628 1349537856 4224342</internalNodes>
          <leafValues>
            -9.0662169456481934e-01 2.5616917759180069e-02</leafValues></_>
        <_>
          <internalNodes>
            0 -1 285 -1 -1 -1 -1 -1 -1 -1 2147483647</internalNodes>
          <leafValues>
            4.9750618636608124e-02 -3.7057402729988098e-01</leafValues></_>
        <_>
          <internalNodes>
            0 -1 260 -1073856516 -1 -1 -1073741825 -1073741825 -1
            2147483647 1073618941</internalNodes>
          <leafValues>
            -1.7355737090110779e-01 1.0481847077608109e-01</leafValues></_>
        <_>
          <internalNodes>
            0 -1 212 -274 -268435457 -16777494 -151060482 -162
            2004877183 -138 2004353023</internalNodes>
          <leafValues>
            -1.6328981518745422e-01 1.0624571144580841e-01</leafValues></_>
        <_>
          <internalNodes>
            0 -1 211 -18 -1 -2 -1 -129 2147483647 -9 2013265919</internalNodes>
          <leafValues>
            1.0389877110719681e-01 -1.6853559017181396e-01</leafValues></_>
        <_>
          <internalNodes>
            0 -1 240 -65814 -2 -2 -1 -134217730 2147483647 2146959359
            1433894911</internalNodes>
          <leafValues>
            -1.1541672050952911e-01 1.5141497552394867e-01</leafValues></_>
        <_>
          <internalNodes>
            0 -1 176 140537344 543240 -822149382 101330666 1351090240
            153664 1593597774 133320</internalNodes>
          <leafValues>
            -7.0969128608703613e-01 2.7914738282561302e-02</leafValues></_>
        <_>
          <internalNodes>
            0 -1 124 788278816 788463614 -2 788463614 2147450740
            2013265919 2147450740 74743668</internalNodes>
          <leafValues>
            2.5052782893180847e-01 -6.8534307181835175e-02</leafValues></_>
        <_>
          <internalNodes>
            0 -1 365 788279036 -65537 -1 -65537 -1 -1 -1 251461631</internalNodes>
          <leafValues>
            1.4367265999317169e-01 -1.1650290340185165e-01</leafValues></_>
        <_>
          <internalNodes>
            0 -1 196 719751808 217852640 1073687136 5242992 250546304
            75431968 100012224 5246992</internalNodes>
          <leafValues>
            -7.4191439151763916e-01 2.6357105001807213e-02</leafValues></_>
        <_>
          <internalNodes>
            0 -1 419 -32769 -1 -1 -1 -1 -1 -1 -65537</internalNodes>
          <leafValues>
            -6.8331494927406311e-02 2.4865549802780151e-01</leafValues></_>
        <_>
          <internalNodes>
            0 -1 279 1289539272 1785659118 -268500994 741277694 -204802
            1794080639 2147450879 51208191</internalNodes>
          <leafValues>
            -2.4257540702819824e-01 7.1630023419857025e-02</leafValues></_>
        <_>
          <internalNodes>
            0 -1 244 775687200 486280308 -1661202568 406326160 800853072
            343154004 213388368 1051698</internalNodes>
          <leafValues>
            -5.9545481204986572e-01 2.9024964198470116e-02</leafValues></_>
        <_>
          <internalNodes>
            0 -1 403 -1 -1 -1 -1 -1 -1 -1 2147483647</internalNodes>
          <leafValues>
            3.7069790065288544e-02 -4.9453991651535034e-01</leafValues></_>
        <_>
          <internalNodes>
            0 -1 10 44695712 586034918 268370528 805285800 124198944
            125183972 91619556 91619328</internalNodes>
          <leafValues>
            -7.2178328037261963e-01 2.7748314663767815e-02</leafValues></_>
        <_>
          <internalNodes>
            0 -1 159 -18 -2 -2 -1 -2 2147483647 2139095039 2004353023</internalNodes>
          <leafValues>
            -1.0257825255393982e-01 1.5832433104515076e-01</leafValues></_>
        <_>
          <internalNodes>
            0 -1 256 788278824 788463614 -2 788463614 2147450740
            2147483647 2147450740 74743668</internalNodes>
          <leafValues>
            2.4298183619976044e-01 -7.2999350726604462e-02</leafValues></_>
        <_>
          <internalNodes>
            0 -1 194 -16875522 -16842754 -1 -65540 -1 -1 2138570751
            2139095039</internalNodes>
          <leafValues>
            -9.1026552021503448e-02 1.7638970911502838e-01</leafValues></_>
        <_>
          <internalNodes>
            0 -1 209 -2 -1 -2 -1 -1 -1 -1 -134217729</internalNodes>
          <leafValues>
            -5.1403433084487915e-02 3.5130906105041504e-01</leafValues></_>
        <_>
          <internalNodes>
            0 -1 27 715792896 15400684 1879047840 46575332 125779492
            81756158 125261136 89478480</internalNodes>
          <leafValues>
            -4.6330082416534424e-01 3.8722231984138489e-02</leafValues></_>
        <_>
          <internalNodes>
            0 -1 381 -16781586 -1 -1 2063597567 -1 -1 -1 268435455</internalNodes>
          <leafValues>
            -1.0225506871938705e-01 1.5979021787643433e-01</leafValues></_>
        <_>
          <internalNodes>
            0 -1 127 -1073741825 -1 -1 -1 -1 -1 -1 2147483647</internalNodes>
          <leafValues>
            5.5445477366447449e-02 -3.0806842446327209e-01</leafValues></_>
        <_>
          <internalNodes>
            0 -1 43 -1499330048 586080930 707395586 572531232 2138701824
            1610510106 1800028272 1985094768</internalNodes>
          <leafValues>
            -6.4413845539093018e-01 2.8823506087064743e-02</leafValues></_>
        <_>
          <internalNodes>
            0 -1 120 -18 -1 -2 -16777217 -1 -1 -1 2147483647</internalNodes>
          <leafValues>
            1.0138662904500961e-01 -1.8181267380714417e-01</leafValues></_>
        <_>
          <internalNodes>
            0 -1 122 -274 -285212673 -16777474 1660944382 -137
            2139094911 -1 2004877311</internalNodes>
